<?xml version="1.0"?>
<MethodSetup Method="BDT::BDT_simple_alpha">
  <GeneralInfo>
    <Info name="TMVA Release" value="4.1.2 [262402]"/>
    <Info name="ROOT Release" value="5.32/00 [335872]"/>
    <Info name="Creator" value="dabercro"/>
    <Info name="Date" value="Tue Sep 23 21:17:49 2014"/>
    <Info name="Host" value="Linux cmsdev02.cern.ch 2.6.32-431.11.2.el6.x86_64 #1 SMP Wed Mar 26 09:39:43 CET 2014 x86_64 x86_64 x86_64 GNU/Linux"/>
    <Info name="Dir" value="/afs/cern.ch/work/d/dabercro/public/Fall14/BDT_Limits"/>
    <Info name="Training events" value="84699"/>
    <Info name="TrainingTime" value="3.17735328e+02"/>
    <Info name="AnalysisType" value="Classification"/>
  </GeneralInfo>
  <Options>
    <Option name="V" modified="Yes">False</Option>
    <Option name="VerbosityLevel" modified="No">Default</Option>
    <Option name="VarTransform" modified="No">None</Option>
    <Option name="H" modified="Yes">False</Option>
    <Option name="CreateMVAPdfs" modified="No">False</Option>
    <Option name="IgnoreNegWeightsInTraining" modified="No">False</Option>
    <Option name="NTrees" modified="Yes">400</Option>
    <Option name="RenormByClass" modified="No">False</Option>
    <Option name="BoostType" modified="Yes">Grad</Option>
    <Option name="AdaBoostR2Loss" modified="No">quadratic</Option>
    <Option name="UseBaggedGrad" modified="Yes">False</Option>
    <Option name="GradBaggingFraction" modified="No">6.000000e-01</Option>
    <Option name="Shrinkage" modified="Yes">1.000000e-01</Option>
    <Option name="AdaBoostBeta" modified="No">1.000000e+00</Option>
    <Option name="UseRandomisedTrees" modified="No">False</Option>
    <Option name="UseNvars" modified="No">5</Option>
    <Option name="UsePoissonNvars" modified="No">True</Option>
    <Option name="UseNTrainEvents" modified="No">84699</Option>
    <Option name="UseWeightedTrees" modified="No">True</Option>
    <Option name="UseYesNoLeaf" modified="Yes">False</Option>
    <Option name="NodePurityLimit" modified="No">5.000000e-01</Option>
    <Option name="SeparationType" modified="No">giniindex</Option>
    <Option name="nEventsMin" modified="Yes">200</Option>
    <Option name="nCuts" modified="Yes">2000</Option>
    <Option name="UseFisherCuts" modified="No">False</Option>
    <Option name="MinLinCorrForFisher" modified="No">8.000000e-01</Option>
    <Option name="UseExclusiveVars" modified="No">False</Option>
    <Option name="PruneStrength" modified="No">0.000000e+00</Option>
    <Option name="PruneMethod" modified="No">nopruning</Option>
    <Option name="PruneBeforeBoost" modified="No">False</Option>
    <Option name="PruningValFraction" modified="No">5.000000e-01</Option>
    <Option name="NNodesMax" modified="Yes">10000</Option>
    <Option name="MaxDepth" modified="Yes">5</Option>
    <Option name="DoBoostMonitor" modified="No">False</Option>
    <Option name="NegWeightTreatment" modified="No">ignorenegweights</Option>
  </Options>
  <Variables NVar="20">
    <Variable VarIndex="0" Expression="2*fjet1QGtagSub2+fjet1QGtagSub1" Label="2*fjet1QGtagSub2+fjet1QGtagSub1" Title="2*fjet1QGtagSub2+fjet1QGtagSub1" Unit="" Internal="2_T_fjet1QGtagSub2_P_fjet1QGtagSub1" Type="F" Min="-2.00000000e+00" Max="3.00000000e+00"/>
    <Variable VarIndex="1" Expression="fjet1QGtagSub1" Label="fjet1QGtagSub1" Title="fjet1QGtagSub1" Unit="" Internal="fjet1QGtagSub1" Type="F" Min="0.00000000e+00" Max="1.00000000e+00"/>
    <Variable VarIndex="2" Expression="fjet1QGtagSub2" Label="fjet1QGtagSub2" Title="fjet1QGtagSub2" Unit="" Internal="fjet1QGtagSub2" Type="F" Min="-1.00000000e+00" Max="1.00000000e+00"/>
    <Variable VarIndex="3" Expression="fjet1QGtag" Label="fjet1QGtag" Title="fjet1QGtag" Unit="" Internal="fjet1QGtag" Type="F" Min="0.00000000e+00" Max="1.00000000e+00"/>
    <Variable VarIndex="4" Expression="fjet1PullAngle" Label="fjet1PullAngle" Title="fjet1PullAngle" Unit="" Internal="fjet1PullAngle" Type="F" Min="-3.14152360e+00" Max="3.14156342e+00"/>
    <Variable VarIndex="5" Expression="fjet1Pull" Label="fjet1Pull" Title="fjet1Pull" Unit="" Internal="fjet1Pull" Type="F" Min="5.86382303e-05" Max="7.11525083e-02"/>
    <Variable VarIndex="6" Expression="fjet1MassTrimmed" Label="fjet1MassTrimmed" Title="fjet1MassTrimmed" Unit="" Internal="fjet1MassTrimmed" Type="F" Min="-3.85147095e-01" Max="3.66997101e+02"/>
    <Variable VarIndex="7" Expression="fjet1MassPruned" Label="fjet1MassPruned" Title="fjet1MassPruned" Unit="" Internal="fjet1MassPruned" Type="F" Min="1.07895930e-05" Max="3.83744812e+02"/>
    <Variable VarIndex="8" Expression="fjet1MassSDbm1" Label="fjet1MassSDbm1" Title="fjet1MassSDbm1" Unit="" Internal="fjet1MassSDbm1" Type="F" Min="-3.85147095e-01" Max="3.94604370e+02"/>
    <Variable VarIndex="9" Expression="fjet1MassSDb2" Label="fjet1MassSDb2" Title="fjet1MassSDb2" Unit="" Internal="fjet1MassSDb2" Type="F" Min="1.06808650e+00" Max="3.94604370e+02"/>
    <Variable VarIndex="10" Expression="fjet1MassSDb0" Label="fjet1MassSDb0" Title="fjet1MassSDb0" Unit="" Internal="fjet1MassSDb0" Type="F" Min="-3.85147095e-01" Max="3.94604370e+02"/>
    <Variable VarIndex="11" Expression="fjet1QJetVol" Label="fjet1QJetVol" Title="fjet1QJetVol" Unit="" Internal="fjet1QJetVol" Type="F" Min="0.00000000e+00" Max="2.78778911e+00"/>
    <Variable VarIndex="12" Expression="fjet1C2b2" Label="fjet1C2b2" Title="fjet1C2b2" Unit="" Internal="fjet1C2b2" Type="F" Min="2.73741665e-03" Max="4.89983290e-01"/>
    <Variable VarIndex="13" Expression="fjet1C2b1" Label="fjet1C2b1" Title="fjet1C2b1" Unit="" Internal="fjet1C2b1" Type="F" Min="5.32320328e-03" Max="4.38919276e-01"/>
    <Variable VarIndex="14" Expression="fjet1C2b0p5" Label="fjet1C2b0p5" Title="fjet1C2b0p5" Unit="" Internal="fjet1C2b0p5" Type="F" Min="7.45748542e-03" Max="5.16356349e-01"/>
    <Variable VarIndex="15" Expression="fjet1C2b0p2" Label="fjet1C2b0p2" Title="fjet1C2b0p2" Unit="" Internal="fjet1C2b0p2" Type="F" Min="9.14341398e-03" Max="5.85676491e-01"/>
    <Variable VarIndex="16" Expression="fjet1C2b0" Label="fjet1C2b0" Title="fjet1C2b0" Unit="" Internal="fjet1C2b0" Type="F" Min="1.04809264e-02" Max="6.57556057e-01"/>
    <Variable VarIndex="17" Expression="fjet1Tau2" Label="fjet1Tau2" Title="fjet1Tau2" Unit="" Internal="fjet1Tau2" Type="F" Min="3.54957819e-01" Max="1.68165207e+02"/>
    <Variable VarIndex="18" Expression="fjet1Tau1" Label="fjet1Tau1" Title="fjet1Tau1" Unit="" Internal="fjet1Tau1" Type="F" Min="2.73272133e+00" Max="3.89378326e+02"/>
    <Variable VarIndex="19" Expression="fjet1Tau2/fjet1Tau1" Label="fjet1Tau2/fjet1Tau1" Title="fjet1Tau2/fjet1Tau1" Unit="" Internal="fjet1Tau2_D_fjet1Tau1" Type="F" Min="3.94423725e-03" Max="9.31095600e-01"/>
  </Variables>
  <Spectators NSpec="0"/>
  <Classes NClass="2">
    <Class Name="Signal" Index="0"/>
    <Class Name="Background" Index="1"/>
  </Classes>
  <Transformations NTransformations="0"/>
  <MVAPdfs/>
  <Weights NTrees="400" AnalysisType="1">
    <BinaryTree type="DecisionTree" boostWeight="1.0000000000000000e+00" itree="0">
      <Node pos="s" depth="0" NCoef="0" IVar="8" Cut="7.3243583679199219e+01" cType="0" res="-3.9355659484863281e-01" rms="3.0840429663658142e-01" purity="1.0644342005252838e-01" nType="0">
        <Node pos="l" depth="1" NCoef="0" IVar="0" Cut="1.9925037622451782e+00" cType="0" res="-4.2558651417493820e-02" rms="4.9818545579910278e-01" purity="4.5744135975837708e-01" nType="0">
          <Node pos="l" depth="2" NCoef="0" IVar="6" Cut="8.7165702819824219e+01" cType="1" res="1.0928390175104141e-01" rms="4.8791089653968811e-01" purity="6.0928392410278320e-01" nType="0">
            <Node pos="l" depth="3" NCoef="0" IVar="6" Cut="6.0501880645751953e+01" cType="0" res="1.8138842284679413e-01" rms="4.6593803167343140e-01" purity="6.8138837814331055e-01" nType="0">
              <Node pos="l" depth="4" NCoef="0" IVar="19" Cut="3.7212392687797546e-01" cType="1" res="2.4575699865818024e-01" rms="4.3543484807014465e-01" purity="7.4575698375701904e-01" nType="0">
                <Node pos="l" depth="5" NCoef="0" IVar="-1" Cut="0.0000000000000000e+00" cType="1" res="5.1542092114686966e-02" rms="3.9544025063514709e-01" purity="8.0598533153533936e-01" nType="-99"/>
                <Node pos="r" depth="5" NCoef="0" IVar="-1" Cut="0.0000000000000000e+00" cType="1" res="2.5620356202125549e-02" rms="4.7849985957145691e-01" purity="6.4504438638687134e-01" nType="-99"/>
              </Node>
              <Node pos="r" depth="4" NCoef="0" IVar="6" Cut="5.4286838531494141e+01" cType="0" res="-1.0837672650814056e-01" rms="4.8811319470405579e-01" purity="3.9162325859069824e-01" nType="0">
                <Node pos="l" depth="5" NCoef="0" IVar="-1" Cut="0.0000000000000000e+00" cType="1" res="-2.9628102201968431e-03" rms="4.9971047043800354e-01" purity="4.8298683762550354e-01" nType="-99"/>
                <Node pos="r" depth="5" NCoef="0" IVar="-1" Cut="0.0000000000000000e+00" cType="1" res="-4.3672401458024979e-02" rms="4.3981361389160156e-01" purity="2.6216816902160645e-01" nType="-99"/>
              </Node>
            </Node>
            <Node pos="r" depth="3" NCoef="0" IVar="14" Cut="3.9015585184097290e-01" cType="0" res="-3.3103135228157043e-01" rms="3.7472420930862427e-01" purity="1.6896863281726837e-01" nType="0">
              <Node pos="l" depth="4" NCoef="0" IVar="-1" Cut="0.0000000000000000e+00" cType="1" res="1.3394544366747141e-03" rms="4.9994149804115295e-01" purity="5.0764840841293335e-01" nType="-99"/>
              <Node pos="r" depth="4" NCoef="0" IVar="11" Cut="5.3125806152820587e-02" cType="0" res="-4.0556460618972778e-01" rms="2.9243347048759460e-01" purity="9.4435386359691620e-02" nType="0">
                <Node pos="l" depth="5" NCoef="0" IVar="-1" Cut="0.0000000000000000e+00" cType="1" res="-4.7547265887260437e-02" rms="4.2079710960388184e-01" purity="2.2994484007358551e-01" nType="-99"/>
                <Node pos="r" depth="5" NCoef="0" IVar="-1" Cut="0.0000000000000000e+00" cType="1" res="-7.4227489531040192e-02" rms="2.2610080242156982e-01" purity="5.4042123258113861e-02" nType="-99"/>
              </Node>
            </Node>
          </Node>
          <Node pos="r" depth="2" NCoef="0" IVar="6" Cut="8.4249313354492188e+01" cType="1" res="-1.6334739327430725e-01" rms="4.7256493568420410e-01" purity="3.3665260672569275e-01" nType="0">
            <Node pos="l" depth="3" NCoef="0" IVar="6" Cut="5.8019020080566406e+01" cType="0" res="-1.2680441141128540e-01" rms="4.8365342617034912e-01" purity="3.7319558858871460e-01" nType="0">
              <Node pos="l" depth="4" NCoef="0" IVar="0" Cut="8.7537246942520142e-01" cType="0" res="-5.7655047625303268e-02" rms="4.9666476249694824e-01" purity="4.4234496355056763e-01" nType="0">
                <Node pos="l" depth="5" NCoef="0" IVar="-1" Cut="0.0000000000000000e+00" cType="1" res="-2.1999215823598206e-04" rms="4.9999839067459106e-01" purity="4.9872758984565735e-01" nType="-99"/>
                <Node pos="r" depth="5" NCoef="0" IVar="-1" Cut="0.0000000000000000e+00" cType="1" res="-3.1461983919143677e-02" rms="4.6543189883232117e-01" purity="3.1731680035591125e-01" nType="-99"/>
              </Node>
              <Node pos="r" depth="4" NCoef="0" IVar="6" Cut="4.8962532043457031e+01" cType="0" res="-2.8649553656578064e-01" rms="4.0978080034255981e-01" purity="2.1350446343421936e-01" nType="0">
                <Node pos="l" depth="5" NCoef="0" IVar="-1" Cut="0.0000000000000000e+00" cType="1" res="-4.0818907320499420e-02" rms="4.4167256355285645e-01" purity="2.6563844084739685e-01" nType="-99"/>
                <Node pos="r" depth="5" NCoef="0" IVar="-1" Cut="0.0000000000000000e+00" cType="1" res="-6.5984345972537994e-02" rms="3.4594815969467163e-01" purity="1.3900156319141388e-01" nType="-99"/>
              </Node>
            </Node>
            <Node pos="r" depth="3" NCoef="0" IVar="12" Cut="1.8663361668586731e-01" cType="0" res="-3.1367009878158569e-01" rms="3.8937264680862427e-01" purity="1.8632988631725311e-01" nType="0">
              <Node pos="l" depth="4" NCoef="0" IVar="12" Cut="2.4641586840152740e-01" cType="0" res="-1.5375810861587524e-01" rms="4.7577142715454102e-01" purity="3.4624189138412476e-01" nType="0">
                <Node pos="l" depth="5" NCoef="0" IVar="-1" Cut="0.0000000000000000e+00" cType="1" res="-6.4889299683272839e-03" rms="4.9860617518424988e-01" purity="4.6269187331199646e-01" nType="-99"/>
                <Node pos="r" depth="5" NCoef="0" IVar="-1" Cut="0.0000000000000000e+00" cType="1" res="-3.8770556449890137e-02" rms="4.4919887185096741e-01" purity="2.8040859103202820e-01" nType="-99"/>
              </Node>
              <Node pos="r" depth="4" NCoef="0" IVar="9" Cut="1.2205672454833984e+02" cType="1" res="-4.2441424727439880e-01" rms="2.6433417201042175e-01" purity="7.5585752725601196e-02" nType="0">
                <Node pos="l" depth="5" NCoef="0" IVar="-1" Cut="0.0000000000000000e+00" cType="1" res="-6.0976810753345490e-02" rms="3.3497500419616699e-01" purity="1.2879690527915955e-01" nType="-99"/>
                <Node pos="r" depth="5" NCoef="0" IVar="-1" Cut="0.0000000000000000e+00" cType="1" res="-7.9131618142127991e-02" rms="2.0648939907550812e-01" purity="4.4629681855440140e-02" nType="-99"/>
              </Node>
            </Node>
          </Node>
        </Node>
        <Node pos="r" depth="1" NCoef="0" IVar="6" Cut="5.1500152587890625e+01" cType="0" res="-4.8053756356239319e-01" rms="1.3814358413219452e-01" purity="1.9462436437606812e-02" nType="0">
          <Node pos="l" depth="2" NCoef="0" IVar="19" Cut="4.7496813535690308e-01" cType="1" res="-3.2199835777282715e-01" rms="3.8251411914825439e-01" purity="1.7800164222717285e-01" nType="0">
            <Node pos="l" depth="3" NCoef="0" IVar="7" Cut="6.4665008544921875e+01" cType="0" res="-2.3509243130683899e-01" rms="4.4128397107124329e-01" purity="2.6490756869316101e-01" nType="0">
              <Node pos="l" depth="4" NCoef="0" IVar="-1" Cut="0.0000000000000000e+00" cType="1" res="-1.7836943268775940e-02" rms="4.8743775486946106e-01" purity="3.8862472772598267e-01" nType="-99"/>
              <Node pos="r" depth="4" NCoef="0" IVar="0" Cut="2.7616398334503174e+00" cType="0" res="-3.0958428978919983e-01" rms="3.9262905716896057e-01" purity="1.9041571021080017e-01" nType="0">
                <Node pos="l" depth="5" NCoef="0" IVar="-1" Cut="0.0000000000000000e+00" cType="1" res="-3.6711450666189194e-02" rms="4.4801297783851624e-01" purity="2.7799916267395020e-01" nType="-99"/>
                <Node pos="r" depth="5" NCoef="0" IVar="-1" Cut="0.0000000000000000e+00" cType="1" res="-6.1086017638444901e-02" rms="3.4048053622245789e-01" purity="1.3384018838405609e-01" nType="-99"/>
              </Node>
            </Node>
            <Node pos="r" depth="3" NCoef="0" IVar="14" Cut="3.7395295500755310e-01" cType="0" res="-3.6707782745361328e-01" rms="3.3949062228202820e-01" purity="1.3292218744754791e-01" nType="0">
              <Node pos="l" depth="4" NCoef="0" IVar="0" Cut="1.2493511438369751e+00" cType="0" res="-2.9716259241104126e-01" rms="4.0211242437362671e-01" purity="2.0283742249011993e-01" nType="0">
                <Node pos="l" depth="5" NCoef="0" IVar="-1" Cut="0.0000000000000000e+00" cType="1" res="-4.6237990260124207e-02" rms="4.2786073684692383e-01" purity="2.4128167331218719e-01" nType="-99"/>
                <Node pos="r" depth="5" NCoef="0" IVar="-1" Cut="0.0000000000000000e+00" cType="1" res="-6.4533621072769165e-02" rms="3.4422048926353455e-01" purity="1.3735379278659821e-01" nType="-99"/>
              </Node>
              <Node pos="r" depth="4" NCoef="0" IVar="0" Cut="1.9492241144180298e+00" cType="0" res="-4.1162991523742676e-01" rms="2.8383234143257141e-01" purity="8.8370077311992645e-02" nType="0">
                <Node pos="l" depth="5" NCoef="0" IVar="-1" Cut="0.0000000000000000e+00" cType="1" res="-6.2774255871772766e-02" rms="3.4043562412261963e-01" purity="1.3379843533039093e-01" nType="-99"/>
                <Node pos="r" depth="5" NCoef="0" IVar="-1" Cut="0.0000000000000000e+00" cType="1" res="-7.6302886009216309e-02" rms="2.1469935774803162e-01" purity="4.8442490398883820e-02" nType="-99"/>
              </Node>
            </Node>
          </Node>
          <Node pos="r" depth="2" NCoef="0" IVar="7" Cut="4.6029544830322266e+01" cType="0" res="-4.8725137114524841e-01" rms="1.1218779534101486e-01" purity="1.2748628854751587e-02" nType="0">
            <Node pos="l" depth="3" NCoef="0" IVar="5" Cut="2.8900347650051117e-02" cType="0" res="-4.3956717848777771e-01" rms="2.3828698694705963e-01" purity="6.0432814061641693e-02" nType="0">
              <Node pos="l" depth="4" NCoef="0" IVar="12" Cut="2.1381077170372009e-01" cType="0" res="-3.5859835147857666e-01" rms="3.4843540191650391e-01" purity="1.4140164852142334e-01" nType="0">
                <Node pos="l" depth="5" NCoef="0" IVar="-1" Cut="0.0000000000000000e+00" cType="1" res="-5.5037226527929306e-02" rms="3.8768818974494934e-01" purity="1.8425031006336212e-01" nType="-99"/>
                <Node pos="r" depth="5" NCoef="0" IVar="-1" Cut="0.0000000000000000e+00" cType="1" res="-6.7413814365863800e-02" rms="2.8843557834625244e-01" purity="9.1582417488098145e-02" nType="-99"/>
              </Node>
              <Node pos="r" depth="4" NCoef="0" IVar="8" Cut="3.7111186981201172e+01" cType="0" res="-4.4616636633872986e-01" rms="2.2568909823894501e-01" purity="5.3833629935979843e-02" nType="0">
                <Node pos="l" depth="5" NCoef="0" IVar="-1" Cut="0.0000000000000000e+00" cType="1" res="-7.4842832982540131e-02" rms="2.5910949707031250e-01" purity="7.2376020252704620e-02" nType="-99"/>
                <Node pos="r" depth="5" NCoef="0" IVar="-1" Cut="0.0000000000000000e+00" cType="1" res="-8.3174332976341248e-02" rms="1.7853848636150360e-01" purity="3.2962523400783539e-02" nType="-99"/>
              </Node>
            </Node>
            <Node pos="r" depth="3" NCoef="0" IVar="5" Cut="2.1277053281664848e-02" cType="0" res="-4.9312299489974976e-01" rms="8.2642026245594025e-02" purity="6.8769976496696472e-03" nType="0">
              <Node pos="l" depth="4" NCoef="0" IVar="14" Cut="3.7034520506858826e-01" cType="0" res="-4.2376258969306946e-01" rms="2.6537761092185974e-01" purity="7.6237417757511139e-02" nType="0">
                <Node pos="l" depth="5" NCoef="0" IVar="-1" Cut="0.0000000000000000e+00" cType="1" res="-6.9729171693325043e-02" rms="3.1771397590637207e-01" purity="1.1391991376876831e-01" nType="-99"/>
                <Node pos="r" depth="5" NCoef="0" IVar="-1" Cut="0.0000000000000000e+00" cType="1" res="-7.8698799014091492e-02" rms="1.6336485743522644e-01" purity="2.7441089972853661e-02" nType="-99"/>
              </Node>
              <Node pos="r" depth="4" NCoef="0" IVar="5" Cut="1.0587678290903568e-02" cType="0" res="-4.9452146887779236e-01" rms="7.3814131319522858e-02" purity="5.4785404354333878e-03" nType="0">
                <Node pos="l" depth="5" NCoef="0" IVar="-1" Cut="0.0000000000000000e+00" cType="1" res="-8.5589386522769928e-02" rms="1.2808935344219208e-01" purity="1.6685280948877335e-02" nType="-99"/>
                <Node pos="r" depth="5" NCoef="0" IVar="-1" Cut="0.0000000000000000e+00" cType="1" res="-8.5588052868843079e-02" rms="5.5412106215953827e-02" purity="3.0799875967204571e-03" nType="-99"/>
              </Node>
            </Node>
          </Node>
        </Node>
      </Node>
    </BinaryTree>
    <BinaryTree type="DecisionTree" boostWeight="1.0000000000000000e+00" itree="1">
      <Node pos="s" depth="0" NCoef="0" IVar="8" Cut="7.3243583679199219e+01" cType="0" res="-3.5949978232383728e-01" rms="2.9656606912612915e-01" purity="1.0644342005252838e-01" nType="0">
        <Node pos="l" depth="1" NCoef="0" IVar="0" Cut="1.9880059957504272e+00" cType="0" res="-3.8712944835424423e-02" rms="4.8866441845893860e-01" purity="4.5744135975837708e-01" nType="0">
          <Node pos="l" depth="2" NCoef="0" IVar="6" Cut="8.7165702819824219e+01" cType="1" res="9.9127970635890961e-02" rms="4.7838133573532104e-01" purity="6.0821801424026489e-01" nType="0">
            <Node pos="l" depth="3" NCoef="0" IVar="6" Cut="5.9004993438720703e+01" cType="0" res="1.6556397080421448e-01" rms="4.6160182356834412e-01" purity="6.8072670698165894e-01" nType="0">
              <Node pos="l" depth="4" NCoef="0" IVar="19" Cut="3.7212392687797546e-01" cType="1" res="2.1784098446369171e-01" rms="4.3849793076515198e-01" purity="7.3772746324539185e-01" nType="0">
                <Node pos="l" depth="5" NCoef="0" IVar="-1" Cut="0.0000000000000000e+00" cType="1" res="4.6846359968185425e-02" rms="3.9802420139312744e-01" purity="8.0232489109039307e-01" nType="-99"/>
                <Node pos="r" depth="5" NCoef="0" IVar="-1" Cut="0.0000000000000000e+00" cType="1" res="2.1857757121324539e-02" rms="4.8111599683761597e-01" purity="6.3534790277481079e-01" nType="-99"/>
              </Node>
              <Node pos="r" depth="4" NCoef="0" IVar="6" Cut="5.4278808593750000e+01" cType="0" res="-1.3366645574569702e-01" rms="4.7636994719505310e-01" purity="3.5445803403854370e-01" nType="0">
                <Node pos="l" depth="5" NCoef="0" IVar="-1" Cut="0.0000000000000000e+00" cType="1" res="-7.8703025355935097e-03" rms="4.9776563048362732e-01" purity="4.5303848385810852e-01" nType="-99"/>
                <Node pos="r" depth="5" NCoef="0" IVar="-1" Cut="0.0000000000000000e+00" cType="1" res="-4.0255222469568253e-02" rms="4.3811276555061340e-01" purity="2.5909423828125000e-01" nType="-99"/>
              </Node>
            </Node>
            <Node pos="r" depth="3" NCoef="0" IVar="13" Cut="2.7708414196968079e-01" cType="0" res="-3.0433997511863708e-01" rms="3.6748364567756653e-01" purity="1.6787026822566986e-01" nType="0">
              <Node pos="l" depth="4" NCoef="0" IVar="-1" Cut="0.0000000000000000e+00" cType="1" res="-8.4801986813545227e-03" rms="4.9235260486602783e-01" purity="4.4246700406074524e-01" nType="-99"/>
              <Node pos="r" depth="4" NCoef="0" IVar="16" Cut="5.6255728006362915e-01" cType="0" res="-3.8678544759750366e-01" rms="2.6943415403366089e-01" purity="7.9643897712230682e-02" nType="0">
                <Node pos="l" depth="5" NCoef="0" IVar="-1" Cut="0.0000000000000000e+00" cType="1" res="-5.7992730289697647e-02" rms="3.3135783672332764e-01" purity="1.2668278813362122e-01" nType="-99"/>
                <Node pos="r" depth="5" NCoef="0" IVar="-1" Cut="0.0000000000000000e+00" cType="1" res="-7.5172662734985352e-02" rms="9.2849709093570709e-02" purity="8.8764829561114311e-03" nType="-99"/>
              </Node>
            </Node>
          </Node>
          <Node pos="r" depth="2" NCoef="0" IVar="6" Cut="8.4249313354492188e+01" cType="1" res="-1.4983449876308441e-01" rms="4.6812865138053894e-01" purity="3.3589154481887817e-01" nType="0">
            <Node pos="l" depth="3" NCoef="0" IVar="19" Cut="4.5454370975494385e-01" cType="1" res="-1.1647912859916687e-01" rms="4.8039716482162476e-01" purity="3.7229904532432556e-01" nType="0">
              <Node pos="l" depth="4" NCoef="0" IVar="2" Cut="7.7380344271659851e-02" cType="0" res="2.5318751577287912e-03" rms="4.9859663844108582e-01" purity="4.9747952818870544e-01" nType="0">
                <Node pos="l" depth="5" NCoef="0" IVar="-1" Cut="0.0000000000000000e+00" cType="1" res="7.5928168371319771e-03" rms="4.9742591381072998e-01" purity="5.4015117883682251e-01" nType="-99"/>
                <Node pos="r" depth="5" NCoef="0" IVar="-1" Cut="0.0000000000000000e+00" cType="1" res="-2.1047426387667656e-02" rms="4.8025754094123840e-01" purity="3.6739686131477356e-01" nType="-99"/>
              </Node>
              <Node pos="r" depth="4" NCoef="0" IVar="6" Cut="5.5445114135742188e+01" cType="0" res="-1.9300518929958344e-01" rms="4.5206305384635925e-01" purity="2.9180586338043213e-01" nType="0">
                <Node pos="l" depth="5" NCoef="0" IVar="-1" Cut="0.0000000000000000e+00" cType="1" res="-2.4434901773929596e-02" rms="4.7629225254058838e-01" purity="3.5156822204589844e-01" nType="-99"/>
                <Node pos="r" depth="5" NCoef="0" IVar="-1" Cut="0.0000000000000000e+00" cType="1" res="-5.2586525678634644e-02" rms="3.8456398248672485e-01" purity="1.8131326138973236e-01" nType="-99"/>
              </Node>
            </Node>
            <Node pos="r" depth="3" NCoef="0" IVar="12" Cut="2.1885681152343750e-01" cType="0" res="-2.8754922747612000e-01" rms="3.8410896062850952e-01" purity="1.8557555973529816e-01" nType="0">
              <Node pos="l" depth="4" NCoef="0" IVar="16" Cut="6.4238864183425903e-01" cType="1" res="-7.3852032423019409e-02" rms="4.9207606911659241e-01" purity="4.1630136966705322e-01" nType="0">
                <Node pos="l" depth="5" NCoef="0" IVar="-1" Cut="0.0000000000000000e+00" cType="1" res="1.9649968016892672e-03" rms="4.9892672896385193e-01" purity="5.0153267383575439e-01" nType="-99"/>
                <Node pos="r" depth="5" NCoef="0" IVar="-1" Cut="0.0000000000000000e+00" cType="1" res="-3.7523087114095688e-02" rms="4.4879192113876343e-01" purity="2.8075116872787476e-01" nType="-99"/>
              </Node>
              <Node pos="r" depth="4" NCoef="0" IVar="12" Cut="1.7484977841377258e-01" cType="0" res="-3.5931828618049622e-01" rms="3.0867689847946167e-01" purity="1.0808753967285156e-01" nType="0">
                <Node pos="l" depth="5" NCoef="0" IVar="-1" Cut="0.0000000000000000e+00" cType="1" res="-4.6008400619029999e-02" rms="4.0957906842231750e-01" purity="2.1419727802276611e-01" nType="-99"/>
                <Node pos="r" depth="5" NCoef="0" IVar="-1" Cut="0.0000000000000000e+00" cType="1" res="-6.9028362631797791e-02" rms="2.3513767123222351e-01" purity="5.9115923941135406e-02" nType="-99"/>
              </Node>
            </Node>
          </Node>
        </Node>
        <Node pos="r" depth="1" NCoef="0" IVar="6" Cut="5.1500152587890625e+01" cType="0" res="-4.3899410963058472e-01" rms="1.3693518936634064e-01" purity="1.9462436437606812e-02" nType="0">
          <Node pos="l" depth="2" NCoef="0" IVar="19" Cut="4.7496813535690308e-01" cType="1" res="-2.9453501105308533e-01" rms="3.8004252314567566e-01" purity="1.7800164222717285e-01" nType="0">
            <Node pos="l" depth="3" NCoef="0" IVar="7" Cut="6.5626480102539062e+01" cType="0" res="-2.1567861735820770e-01" rms="4.3901529908180237e-01" purity="2.6490756869316101e-01" nType="0">
              <Node pos="l" depth="4" NCoef="0" IVar="-1" Cut="0.0000000000000000e+00" cType="1" res="-1.4372302219271660e-02" rms="4.9021673202514648e-01" purity="4.0157467126846313e-01" nType="-99"/>
              <Node pos="r" depth="4" NCoef="0" IVar="8" Cut="6.5436874389648438e+01" cType="0" res="-2.7724245190620422e-01" rms="3.9744374155998230e-01" purity="1.9822214543819427e-01" nType="0">
                <Node pos="l" depth="5" NCoef="0" IVar="-1" Cut="0.0000000000000000e+00" cType="1" res="-3.5466123372316360e-02" rms="4.3951091170310974e-01" purity="2.6416099071502686e-01" nType="-99"/>
                <Node pos="r" depth="5" NCoef="0" IVar="-1" Cut="0.0000000000000000e+00" cType="1" res="-5.7418104261159897e-02" rms="3.3093130588531494e-01" purity="1.2592628598213196e-01" nType="-99"/>
              </Node>
            </Node>
            <Node pos="r" depth="3" NCoef="0" IVar="14" Cut="3.7395295500755310e-01" cType="0" res="-3.3543905615806580e-01" rms="3.3834680914878845e-01" purity="1.3292218744754791e-01" nType="0">
              <Node pos="l" depth="4" NCoef="0" IVar="6" Cut="5.7451728820800781e+01" cType="0" res="-2.7068662643432617e-01" rms="4.0158680081367493e-01" purity="2.0283742249011993e-01" nType="0">
                <Node pos="l" depth="5" NCoef="0" IVar="-1" Cut="0.0000000000000000e+00" cType="1" res="-3.9018064737319946e-02" rms="4.3313077092170715e-01" purity="2.5104844570159912e-01" nType="-99"/>
                <Node pos="r" depth="5" NCoef="0" IVar="-1" Cut="0.0000000000000000e+00" cType="1" res="-5.8334145694971085e-02" rms="3.6063346266746521e-01" purity="1.5426439046859741e-01" nType="-99"/>
              </Node>
              <Node pos="r" depth="4" NCoef="0" IVar="0" Cut="1.9492241144180298e+00" cType="0" res="-3.7670126557350159e-01" rms="2.8334781527519226e-01" purity="8.8370077311992645e-02" nType="0">
                <Node pos="l" depth="5" NCoef="0" IVar="-1" Cut="0.0000000000000000e+00" cType="1" res="-5.7627420872449875e-02" rms="3.4043562412261963e-01" purity="1.3379843533039093e-01" nType="-99"/>
                <Node pos="r" depth="5" NCoef="0" IVar="-1" Cut="0.0000000000000000e+00" cType="1" res="-7.0276223123073578e-02" rms="2.1469937264919281e-01" purity="4.8442490398883820e-02" nType="-99"/>
              </Node>
            </Node>
          </Node>
          <Node pos="r" depth="2" NCoef="0" IVar="7" Cut="4.8574619293212891e+01" cType="0" res="-4.4511166214942932e-01" rms="1.1183807253837585e-01" purity="1.2748628854751587e-02" nType="0">
            <Node pos="l" depth="3" NCoef="0" IVar="5" Cut="2.8900347650051117e-02" cType="0" res="-3.9632916450500488e-01" rms="2.4644884467124939e-01" purity="6.5203063189983368e-02" nType="0">
              <Node pos="l" depth="4" NCoef="0" IVar="4" Cut="-4.3634322285652161e-01" cType="0" res="-3.2693389058113098e-01" rms="3.4939396381378174e-01" purity="1.4272367954254150e-01" nType="0">
                <Node pos="l" depth="5" NCoef="0" IVar="-1" Cut="0.0000000000000000e+00" cType="1" res="-4.9898717552423477e-02" rms="3.8377940654754639e-01" purity="1.7978867888450623e-01" nType="-99"/>
                <Node pos="r" depth="5" NCoef="0" IVar="-1" Cut="0.0000000000000000e+00" cType="1" res="-6.3945472240447998e-02" rms="2.8602364659309387e-01" purity="9.0372957289218903e-02" nType="-99"/>
              </Node>
              <Node pos="r" depth="4" NCoef="0" IVar="2" Cut="9.6601700782775879e-01" cType="0" res="-4.0309748053550720e-01" rms="2.3289261758327484e-01" purity="5.7642273604869843e-02" nType="0">
                <Node pos="l" depth="5" NCoef="0" IVar="-1" Cut="0.0000000000000000e+00" cType="1" res="-6.0683883726596832e-02" rms="3.1612735986709595e-01" purity="1.1285858601331711e-01" nType="-99"/>
                <Node pos="r" depth="5" NCoef="0" IVar="-1" Cut="0.0000000000000000e+00" cType="1" res="-7.3207430541515350e-02" rms="2.1878831088542938e-01" purity="5.0471078604459763e-02" nType="-99"/>
              </Node>
            </Node>
            <Node pos="r" depth="3" NCoef="0" IVar="5" Cut="2.0960045978426933e-02" cType="0" res="-4.5006108283996582e-01" rms="8.5723467171192169e-02" purity="7.4266493320465088e-03" nType="0">
              <Node pos="l" depth="4" NCoef="0" IVar="14" Cut="3.7034520506858826e-01" cType="0" res="-3.9232924580574036e-01" rms="2.5532469153404236e-01" purity="7.0344723761081696e-02" nType="0">
                <Node pos="l" depth="5" NCoef="0" IVar="-1" Cut="0.0000000000000000e+00" cType="1" res="-6.4990222454071045e-02" rms="3.0959099531173706e-01" purity="1.0746922343969345e-01" nType="-99"/>
                <Node pos="r" depth="5" NCoef="0" IVar="-1" Cut="0.0000000000000000e+00" cType="1" res="-7.3559939861297607e-02" rms="1.5108914673328400e-01" purity="2.3385984823107719e-02" nType="-99"/>
              </Node>
              <Node pos="r" depth="4" NCoef="0" IVar="5" Cut="1.0586822405457497e-02" cType="0" res="-4.5138666033744812e-01" rms="7.7085167169570923e-02" purity="5.9819975867867470e-03" nType="0">
                <Node pos="l" depth="5" NCoef="0" IVar="-1" Cut="0.0000000000000000e+00" cType="1" res="-7.8327931463718414e-02" rms="1.3201476633548737e-01" purity="1.7751647159457207e-02" nType="-99"/>
                <Node pos="r" depth="5" NCoef="0" IVar="-1" Cut="0.0000000000000000e+00" cType="1" res="-7.8779831528663635e-02" rms="5.8074541389942169e-02" purity="3.3866469748318195e-03" nType="-99"/>
              </Node>
            </Node>
          </Node>
        </Node>
      </Node>
    </BinaryTree>
    <BinaryTree type="DecisionTree" boostWeight="1.0000000000000000e+00" itree="2">
      <Node pos="s" depth="0" NCoef="0" IVar="8" Cut="7.3243583679199219e+01" cType="0" res="-3.2857802510261536e-01" rms="2.8633308410644531e-01" purity="1.0644342005252838e-01" nType="0">
        <Node pos="l" depth="1" NCoef="0" IVar="0" Cut="1.9925037622451782e+00" cType="0" res="-3.5222731530666351e-02" rms="4.8051533102989197e-01" purity="4.5744135975837708e-01" nType="0">
          <Node pos="l" depth="2" NCoef="0" IVar="6" Cut="8.4641448974609375e+01" cType="1" res="9.1582171618938446e-02" rms="4.6989908814430237e-01" purity="6.0928392410278320e-01" nType="0">
            <Node pos="l" depth="3" NCoef="0" IVar="6" Cut="6.0494949340820312e+01" cType="0" res="1.5731556713581085e-01" rms="4.5521897077560425e-01" purity="6.8630808591842651e-01" nType="0">
              <Node pos="l" depth="4" NCoef="0" IVar="19" Cut="4.6735864877700806e-01" cType="1" res="2.1431522071361542e-01" rms="4.2867740988731384e-01" purity="7.5381582975387573e-01" nType="0">
                <Node pos="l" depth="5" NCoef="0" IVar="-1" Cut="0.0000000000000000e+00" cType="1" res="4.1415538638830185e-02" rms="4.1079348325729370e-01" purity="7.8316092491149902e-01" nType="-99"/>
                <Node pos="r" depth="5" NCoef="0" IVar="-1" Cut="0.0000000000000000e+00" cType="1" res="7.1835150010883808e-03" rms="4.9589559435844421e-01" purity="5.6393390893936157e-01" nType="-99"/>
              </Node>
              <Node pos="r" depth="4" NCoef="0" IVar="18" Cut="7.3996856689453125e+01" cType="0" res="-9.1981239616870880e-02" rms="4.8318883776664734e-01" purity="3.9105251431465149e-01" nType="0">
                <Node pos="l" depth="5" NCoef="0" IVar="-1" Cut="0.0000000000000000e+00" cType="1" res="2.0369101315736771e-02" rms="4.8476672172546387e-01" purity="6.0047954320907593e-01" nType="-99"/>
                <Node pos="r" depth="5" NCoef="0" IVar="-1" Cut="0.0000000000000000e+00" cType="1" res="-2.3772889748215675e-02" rms="4.7195345163345337e-01" purity="3.4586811065673828e-01" nType="-99"/>
              </Node>
            </Node>
            <Node pos="r" depth="3" NCoef="0" IVar="15" Cut="4.5459029078483582e-01" cType="0" res="-2.4972200393676758e-01" rms="3.9038002490997314e-01" purity="2.0935496687889099e-01" nType="0">
              <Node pos="l" depth="4" NCoef="0" IVar="12" Cut="1.8950273096561432e-01" cType="0" res="-1.4266397058963776e-01" rms="4.5530071854591370e-01" purity="3.2978120446205139e-01" nType="0">
                <Node pos="l" depth="5" NCoef="0" IVar="-1" Cut="0.0000000000000000e+00" cType="1" res="4.3178759515285492e-03" rms="4.9567693471908569e-01" purity="5.1301515102386475e-01" nType="-99"/>
                <Node pos="r" depth="5" NCoef="0" IVar="-1" Cut="0.0000000000000000e+00" cType="1" res="-3.9781827479600906e-02" rms="4.0410670638084412e-01" purity="2.3027417063713074e-01" nType="-99"/>
              </Node>
              <Node pos="r" depth="4" NCoef="0" IVar="16" Cut="4.9924984574317932e-01" cType="0" res="-4.0168437361717224e-01" rms="1.8736311793327332e-01" purity="3.8417275995016098e-02" nType="0">
                <Node pos="l" depth="5" NCoef="0" IVar="-1" Cut="0.0000000000000000e+00" cType="1" res="-6.3326790928840637e-02" rms="2.5337341427803040e-01" purity="7.3695421218872070e-02" nType="-99"/>
                <Node pos="r" depth="5" NCoef="0" IVar="-1" Cut="0.0000000000000000e+00" cType="1" res="-7.2274409234523773e-02" rms="3.0205506831407547e-02" purity="0.0000000000000000e+00" nType="-99"/>
              </Node>
            </Node>
          </Node>
          <Node pos="r" depth="2" NCoef="0" IVar="0" Cut="1.0196368694305420e+00" cType="0" res="-1.3609436154365540e-01" rms="4.6470984816551208e-01" purity="3.3665260672569275e-01" nType="0">
            <Node pos="l" depth="3" NCoef="0" IVar="6" Cut="5.5582149505615234e+01" cType="0" res="-7.9273119568824768e-02" rms="4.8174449801445007e-01" purity="3.9969733357429504e-01" nType="0">
              <Node pos="l" depth="4" NCoef="0" IVar="10" Cut="1.0965145874023438e+02" cType="1" res="-4.5354448258876801e-02" rms="4.8942166566848755e-01" purity="4.3948557972908020e-01" nType="0">
                <Node pos="l" depth="5" NCoef="0" IVar="-1" Cut="0.0000000000000000e+00" cType="1" res="3.5050443839281797e-03" rms="4.9755105376243591e-01" purity="5.1356607675552368e-01" nType="-99"/>
                <Node pos="r" depth="5" NCoef="0" IVar="-1" Cut="0.0000000000000000e+00" cType="1" res="-3.4555442631244659e-02" rms="4.3527099490165710e-01" purity="2.7192863821983337e-01" nType="-99"/>
              </Node>
              <Node pos="r" depth="4" NCoef="0" IVar="6" Cut="4.8976490020751953e+01" cType="0" res="-2.3501773178577423e-01" rms="4.1024848818778992e-01" purity="2.1700157225131989e-01" nType="0">
                <Node pos="l" depth="5" NCoef="0" IVar="-1" Cut="0.0000000000000000e+00" cType="1" res="-3.0188402161002159e-02" rms="4.5255371928215027e-01" purity="2.8913378715515137e-01" nType="-99"/>
                <Node pos="r" depth="5" NCoef="0" IVar="-1" Cut="0.0000000000000000e+00" cType="1" res="-5.6445103138685226e-02" rms="3.4903141856193542e-01" purity="1.4203834533691406e-01" nType="-99"/>
              </Node>
            </Node>
            <Node pos="r" depth="3" NCoef="0" IVar="15" Cut="5.1178938150405884e-01" cType="0" res="-2.1052254736423492e-01" rms="4.3019559979438782e-01" purity="2.5407245755195618e-01" nType="0">
              <Node pos="l" depth="4" NCoef="0" IVar="0" Cut="3.4521880745887756e-01" cType="0" res="-1.7059111595153809e-01" rms="4.5154792070388794e-01" purity="2.9581502079963684e-01" nType="0">
                <Node pos="l" depth="5" NCoef="0" IVar="-1" Cut="0.0000000000000000e+00" cType="1" res="-2.0863559097051620e-02" rms="4.7202444076538086e-01" purity="3.5111173987388611e-01" nType="-99"/>
                <Node pos="r" depth="5" NCoef="0" IVar="-1" Cut="0.0000000000000000e+00" cType="1" res="-4.1643857955932617e-02" rms="4.1454511880874634e-01" purity="2.2548905014991760e-01" nType="-99"/>
              </Node>
              <Node pos="r" depth="4" NCoef="0" IVar="8" Cut="1.0152761840820312e+02" cType="1" res="-2.7534621953964233e-01" rms="3.8433569669723511e-01" purity="1.8630863726139069e-01" nType="0">
                <Node pos="l" depth="5" NCoef="0" IVar="-1" Cut="0.0000000000000000e+00" cType="1" res="-3.8172744214534760e-02" rms="4.2415505647659302e-01" purity="2.4223469197750092e-01" nType="-99"/>
                <Node pos="r" depth="5" NCoef="0" IVar="-1" Cut="0.0000000000000000e+00" cType="1" res="-6.5742224454879761e-02" rms="2.6168662309646606e-01" purity="7.5897753238677979e-02" nType="-99"/>
              </Node>
            </Node>
          </Node>
        </Node>
        <Node pos="r" depth="1" NCoef="0" IVar="6" Cut="4.7198326110839844e+01" cType="0" res="-4.0127456188201904e-01" rms="1.3592237234115601e-01" purity="1.9462436437606812e-02" nType="0">
          <Node pos="l" depth="2" NCoef="0" IVar="7" Cut="6.1348030090332031e+01" cType="0" res="-2.9767048358917236e-01" rms="3.4464728832244873e-01" purity="1.4218725264072418e-01" nType="0">
            <Node pos="l" depth="3" NCoef="0" IVar="2" Cut="9.1104447841644287e-01" cType="0" res="-2.4850620329380035e-01" rms="3.9365673065185547e-01" purity="1.9862116873264313e-01" nType="0">
              <Node pos="l" depth="4" NCoef="0" IVar="19" Cut="4.9580925703048706e-01" cType="1" res="-1.3872304558753967e-01" rms="4.6065846085548401e-01" purity="3.1724831461906433e-01" nType="0">
                <Node pos="l" depth="5" NCoef="0" IVar="-1" Cut="0.0000000000000000e+00" cType="1" res="-9.2087183147668839e-03" rms="4.8950111865997314e-01" purity="4.1136345267295837e-01" nType="-99"/>
                <Node pos="r" depth="5" NCoef="0" IVar="-1" Cut="0.0000000000000000e+00" cType="1" res="-4.0970865637063980e-02" rms="4.0759244561195374e-01" purity="2.1314139664173126e-01" nType="-99"/>
              </Node>
              <Node pos="r" depth="4" NCoef="0" IVar="8" Cut="3.7695728302001953e+01" cType="0" res="-3.0018150806427002e-01" rms="3.4594634175300598e-01" purity="1.4278297126293182e-01" nType="0">
                <Node pos="l" depth="5" NCoef="0" IVar="-1" Cut="0.0000000000000000e+00" cType="1" res="-4.5423656702041626e-02" rms="3.8329455256462097e-01" purity="1.8404325842857361e-01" nType="-99"/>
                <Node pos="r" depth="5" NCoef="0" IVar="-1" Cut="0.0000000000000000e+00" cType="1" res="-6.2380060553550720e-02" rms="2.7542367577552795e-01" purity="8.4502637386322021e-02" nType="-99"/>
              </Node>
            </Node>
            <Node pos="r" depth="3" NCoef="0" IVar="14" Cut="3.8015705347061157e-01" cType="0" res="-3.4164601564407349e-01" rms="2.8691604733467102e-01" purity="9.1709300875663757e-02" nType="0">
              <Node pos="l" depth="4" NCoef="0" IVar="4" Cut="5.9728175401687622e-01" cType="0" res="-2.7956402301788330e-01" rms="3.6202794313430786e-01" purity="1.5644803643226624e-01" nType="0">
                <Node pos="l" depth="5" NCoef="0" IVar="-1" Cut="0.0000000000000000e+00" cType="1" res="-4.4928256422281265e-02" rms="3.8777500391006470e-01" purity="1.8695825338363647e-01" nType="-99"/>
                <Node pos="r" depth="5" NCoef="0" IVar="-1" Cut="0.0000000000000000e+00" cType="1" res="-5.6884340941905975e-02" rms="3.3420023322105408e-01" purity="1.2855455279350281e-01" nType="-99"/>
              </Node>
              <Node pos="r" depth="4" NCoef="0" IVar="2" Cut="9.9000501632690430e-01" cType="0" res="-3.5489472746849060e-01" rms="2.6630926132202148e-01" purity="7.7893622219562531e-02" nType="0">
                <Node pos="l" depth="5" NCoef="0" IVar="-1" Cut="0.0000000000000000e+00" cType="1" res="-4.7005046159029007e-02" rms="3.6711597442626953e-01" purity="1.6234274208545685e-01" nType="-99"/>
                <Node pos="r" depth="5" NCoef="0" IVar="-1" Cut="0.0000000000000000e+00" cType="1" res="-6.3260994851589203e-02" rms="2.4061603844165802e-01" purity="6.2442850321531296e-02" nType="-99"/>
              </Node>
            </Node>
          </Node>
          <Node pos="r" depth="2" NCoef="0" IVar="5" Cut="2.1286446601152420e-02" cType="0" res="-4.0840709209442139e-01" rms="1.0382446646690369e-01" purity="1.1013554409146309e-02" nType="0">
            <Node pos="l" depth="3" NCoef="0" IVar="5" Cut="2.8903570026159286e-02" cType="0" res="-3.4695720672607422e-01" rms="2.7415612339973450e-01" purity="8.2549415528774261e-02" nType="0">
              <Node pos="l" depth="4" NCoef="0" IVar="12" Cut="2.3620507121086121e-01" cType="0" res="-2.9653280973434448e-01" rms="3.4880250692367554e-01" purity="1.4262163639068604e-01" nType="0">
                <Node pos="l" depth="5" NCoef="0" IVar="-1" Cut="0.0000000000000000e+00" cType="1" res="-4.3743029236793518e-02" rms="3.9606773853302002e-01" purity="1.9498822093009949e-01" nType="-99"/>
                <Node pos="r" depth="5" NCoef="0" IVar="-1" Cut="0.0000000000000000e+00" cType="1" res="-5.5776726454496384e-02" rms="3.0456441640853882e-01" purity="1.0440468043088913e-01" nType="-99"/>
              </Node>
              <Node pos="r" depth="4" NCoef="0" IVar="12" Cut="2.4386236071586609e-01" cType="0" res="-3.6217391490936279e-01" rms="2.4521379172801971e-01" purity="6.4421236515045166e-02" nType="0">
                <Node pos="l" depth="5" NCoef="0" IVar="-1" Cut="0.0000000000000000e+00" cType="1" res="-6.4196877181529999e-02" rms="2.8231132030487061e-01" purity="8.7418742477893829e-02" nType="-99"/>
                <Node pos="r" depth="5" NCoef="0" IVar="-1" Cut="0.0000000000000000e+00" cType="1" res="-6.6775009036064148e-02" rms="1.9211418926715851e-01" purity="3.8459118455648422e-02" nType="-99"/>
              </Node>
            </Node>
            <Node pos="r" depth="3" NCoef="0" IVar="8" Cut="4.0119987487792969e+01" cType="0" res="-4.1102090477943420e-01" rms="8.8733002543449402e-02" purity="7.9707382246851921e-03" nType="0">
              <Node pos="l" depth="4" NCoef="0" IVar="18" Cut="5.6588630676269531e+01" cType="0" res="-3.7671279907226562e-01" rms="2.1100775897502899e-01" purity="4.6867843717336655e-02" nType="0">
                <Node pos="l" depth="5" NCoef="0" IVar="-1" Cut="0.0000000000000000e+00" cType="1" res="-6.4664877951145172e-02" rms="2.6459360122680664e-01" purity="7.5933322310447693e-02" nType="-99"/>
                <Node pos="r" depth="5" NCoef="0" IVar="-1" Cut="0.0000000000000000e+00" cType="1" res="-6.7490391433238983e-02" rms="1.7152212560176849e-01" purity="3.0390163883566856e-02" nType="-99"/>
              </Node>
              <Node pos="r" depth="4" NCoef="0" IVar="5" Cut="1.3085960410535336e-02" cType="0" res="-4.1300410032272339e-01" rms="7.5385324656963348e-02" purity="5.7222596369683743e-03" nType="0">
                <Node pos="l" depth="5" NCoef="0" IVar="-1" Cut="0.0000000000000000e+00" cType="1" res="-7.2506584227085114e-02" rms="1.4852420985698700e-01" purity="2.2593714296817780e-02" nType="-99"/>
                <Node pos="r" depth="5" NCoef="0" IVar="-1" Cut="0.0000000000000000e+00" cType="1" res="-7.3711045086383820e-02" rms="6.0082666575908661e-02" purity="3.6242553032934666e-03" nType="-99"/>
              </Node>
            </Node>
          </Node>
        </Node>
      </Node>
    </BinaryTree>
    <BinaryTree type="DecisionTree" boostWeight="1.0000000000000000e+00" itree="3">
      <Node pos="s" depth="0" NCoef="0" IVar="6" Cut="5.5429046630859375e+01" cType="0" res="-3.0045503377914429e-01" rms="2.7749350666999817e-01" purity="1.0644342005252838e-01" nType="0">
        <Node pos="l" depth="1" NCoef="0" IVar="7" Cut="9.4814247131347656e+01" cType="1" res="-2.5141537189483643e-02" rms="4.7344297170639038e-01" purity="4.6549707651138306e-01" nType="0">
          <Node pos="l" depth="2" NCoef="0" IVar="19" Cut="3.9910864830017090e-01" cType="1" res="4.7890167683362961e-02" rms="4.7567296028137207e-01" purity="5.5465400218963623e-01" nType="0">
            <Node pos="l" depth="3" NCoef="0" IVar="7" Cut="6.8704315185546875e+01" cType="0" res="1.7271184921264648e-01" rms="4.3994140625000000e-01" purity="7.1021759510040283e-01" nType="0">
              <Node pos="l" depth="4" NCoef="0" IVar="0" Cut="2.4347825050354004e+00" cType="0" res="1.9473136961460114e-01" rms="4.2915549874305725e-01" purity="7.3706811666488647e-01" nType="0">
                <Node pos="l" depth="5" NCoef="0" IVar="-1" Cut="0.0000000000000000e+00" cType="1" res="4.4206287711858749e-02" rms="3.7631529569625854e-01" purity="8.1624281406402588e-01" nType="-99"/>
                <Node pos="r" depth="5" NCoef="0" IVar="-1" Cut="0.0000000000000000e+00" cType="1" res="1.8726166337728500e-02" rms="4.7738179564476013e-01" purity="6.3287091255187988e-01" nType="-99"/>
              </Node>
              <Node pos="r" depth="4" NCoef="0" IVar="0" Cut="2.7859146595001221e+00" cType="0" res="-7.5749695301055908e-02" rms="4.8178592324256897e-01" purity="4.0724515914916992e-01" nType="0">
                <Node pos="l" depth="5" NCoef="0" IVar="-1" Cut="0.0000000000000000e+00" cType="1" res="4.2152139358222485e-03" rms="4.8864927887916565e-01" purity="5.1632326841354370e-01" nType="-99"/>
                <Node pos="r" depth="5" NCoef="0" IVar="-1" Cut="0.0000000000000000e+00" cType="1" res="-2.9880477115511894e-02" rms="4.5388695597648621e-01" purity="3.0054795742034912e-01" nType="-99"/>
              </Node>
            </Node>
            <Node pos="r" depth="3" NCoef="0" IVar="8" Cut="8.1354362487792969e+01" cType="0" res="-6.6438265144824982e-02" rms="4.7842353582382202e-01" purity="4.1216793656349182e-01" nType="0">
              <Node pos="l" depth="4" NCoef="0" IVar="2" Cut="7.6261866092681885e-01" cType="0" res="7.6884455047547817e-03" rms="4.9191236495971680e-01" purity="5.0354975461959839e-01" nType="0">
                <Node pos="l" depth="5" NCoef="0" IVar="-1" Cut="0.0000000000000000e+00" cType="1" res="1.8454555422067642e-02" rms="4.8008859157562256e-01" purity="6.2341576814651489e-01" nType="-99"/>
                <Node pos="r" depth="5" NCoef="0" IVar="-1" Cut="0.0000000000000000e+00" cType="1" res="-1.0586319491267204e-02" rms="4.8878523707389832e-01" purity="4.1903072595596313e-01" nType="-99"/>
              </Node>
              <Node pos="r" depth="4" NCoef="0" IVar="7" Cut="6.4954322814941406e+01" cType="0" res="-2.0116563141345978e-01" rms="4.2066809535026550e-01" purity="2.4607892334461212e-01" nType="0">
                <Node pos="l" depth="5" NCoef="0" IVar="-1" Cut="0.0000000000000000e+00" cType="1" res="-2.6873143389821053e-02" rms="4.5000150799751282e-01" purity="3.0200865864753723e-01" nType="-99"/>
                <Node pos="r" depth="5" NCoef="0" IVar="-1" Cut="0.0000000000000000e+00" cType="1" res="-5.1675025373697281e-02" rms="3.3038213849067688e-01" purity="1.2581869959831238e-01" nType="-99"/>
              </Node>
            </Node>
          </Node>
          <Node pos="r" depth="2" NCoef="0" IVar="12" Cut="1.8939781188964844e-01" cType="0" res="-1.8181453645229340e-01" rms="4.2850819230079651e-01" purity="2.7423113584518433e-01" nType="0">
            <Node pos="l" depth="3" NCoef="0" IVar="15" Cut="4.9105939269065857e-01" cType="0" res="-6.7088812589645386e-02" rms="4.7905766963958740e-01" purity="4.0553221106529236e-01" nType="0">
              <Node pos="l" depth="4" NCoef="0" IVar="16" Cut="6.4474838972091675e-01" cType="1" res="-3.6630500108003616e-02" rms="4.8628130555152893e-01" purity="4.3831488490104675e-01" nType="0">
                <Node pos="l" depth="5" NCoef="0" IVar="-1" Cut="0.0000000000000000e+00" cType="1" res="3.4085190854966640e-03" rms="4.9086484313011169e-01" purity="5.0022763013839722e-01" nType="-99"/>
                <Node pos="r" depth="5" NCoef="0" IVar="-1" Cut="0.0000000000000000e+00" cType="1" res="-3.8410596549510956e-02" rms="4.2780157923698425e-01" purity="2.4536618590354919e-01" nType="-99"/>
              </Node>
              <Node pos="r" depth="4" NCoef="0" IVar="-1" Cut="0.0000000000000000e+00" cType="1" res="-5.1192626357078552e-02" rms="3.6256963014602661e-01" purity="1.8035471439361572e-01" nType="-99"/>
            </Node>
            <Node pos="r" depth="3" NCoef="0" IVar="10" Cut="1.1351871490478516e+02" cType="1" res="-2.8627744317054749e-01" rms="3.4489002823829651e-01" purity="1.5467566251754761e-01" nType="0">
              <Node pos="l" depth="4" NCoef="0" IVar="13" Cut="2.3195841908454895e-01" cType="0" res="-1.8521519005298615e-01" rms="4.3580949306488037e-01" purity="2.8863021731376648e-01" nType="0">
                <Node pos="l" depth="5" NCoef="0" IVar="-1" Cut="0.0000000000000000e+00" cType="1" res="-2.2461650893092155e-02" rms="4.6142303943634033e-01" purity="3.4878134727478027e-01" nType="-99"/>
                <Node pos="r" depth="5" NCoef="0" IVar="-1" Cut="0.0000000000000000e+00" cType="1" res="-4.7713961452245712e-02" rms="3.5742977261543274e-01" purity="1.6919532418251038e-01" nType="-99"/>
              </Node>
              <Node pos="r" depth="4" NCoef="0" IVar="13" Cut="2.5378984212875366e-01" cType="0" res="-3.4369552135467529e-01" rms="2.6367038488388062e-01" purity="7.8569926321506500e-02" nType="0">
                <Node pos="l" depth="5" NCoef="0" IVar="-1" Cut="0.0000000000000000e+00" cType="1" res="-5.2494671195745468e-02" rms="3.3373787999153137e-01" purity="1.3248440623283386e-01" nType="-99"/>
                <Node pos="r" depth="5" NCoef="0" IVar="-1" Cut="0.0000000000000000e+00" cType="1" res="-6.8118207156658173e-02" rms="1.6673998534679413e-01" purity="2.9332961887121201e-02" nType="-99"/>
              </Node>
            </Node>
          </Node>
        </Node>
        <Node pos="r" depth="1" NCoef="0" IVar="8" Cut="5.9680950164794922e+01" cType="0" res="-3.6548614501953125e-01" rms="1.4181944727897644e-01" purity="2.1632224321365356e-02" nType="0">
          <Node pos="l" depth="2" NCoef="0" IVar="9" Cut="7.5274314880371094e+01" cType="0" res="-2.5674796104431152e-01" rms="3.6581036448478699e-01" purity="1.6448880732059479e-01" nType="0">
            <Node pos="l" depth="3" NCoef="0" IVar="19" Cut="4.4813403487205505e-01" cType="1" res="-2.1049737930297852e-01" rms="4.1285452246665955e-01" purity="2.2263869643211365e-01" nType="0">
              <Node pos="l" depth="4" NCoef="0" IVar="-1" Cut="0.0000000000000000e+00" cType="1" res="-8.6700860410928726e-03" rms="4.8970085382461548e-01" purity="4.0648099780082703e-01" nType="-99"/>
              <Node pos="r" depth="4" NCoef="0" IVar="5" Cut="3.9989233016967773e-02" cType="0" res="-2.3430816829204559e-01" rms="3.9465540647506714e-01" purity="1.9528976082801819e-01" nType="0">
                <Node pos="l" depth="5" NCoef="0" IVar="-1" Cut="0.0000000000000000e+00" cType="1" res="-1.8453221768140793e-02" rms="4.6814721822738647e-01" purity="3.3049014210700989e-01" nType="-99"/>
                <Node pos="r" depth="5" NCoef="0" IVar="-1" Cut="0.0000000000000000e+00" cType="1" res="-4.6142585575580597e-02" rms="3.8286137580871582e-01" purity="1.8029505014419556e-01" nType="-99"/>
              </Node>
            </Node>
            <Node pos="r" depth="3" NCoef="0" IVar="0" Cut="2.7856400012969971e+00" cType="0" res="-3.0175536870956421e-01" rms="3.0669683218002319e-01" purity="1.0790199786424637e-01" nType="0">
              <Node pos="l" depth="4" NCoef="0" IVar="-1" Cut="0.0000000000000000e+00" cType="1" res="-3.7602148950099945e-02" rms="3.9765739440917969e-01" purity="2.0435661077499390e-01" nType="-99"/>
              <Node pos="r" depth="4" NCoef="0" IVar="17" Cut="2.3961017608642578e+01" cType="1" res="-3.1426614522933960e-01" rms="2.8876832127571106e-01" purity="9.3661323189735413e-02" nType="0">
                <Node pos="l" depth="5" NCoef="0" IVar="-1" Cut="0.0000000000000000e+00" cType="1" res="-4.6575315296649933e-02" rms="3.4743252396583557e-01" purity="1.4252820611000061e-01" nType="-99"/>
                <Node pos="r" depth="5" NCoef="0" IVar="-1" Cut="0.0000000000000000e+00" cType="1" res="-6.0813840478658676e-02" rms="2.6003059744834900e-01" purity="7.4421375989913940e-02" nType="-99"/>
              </Node>
            </Node>
          </Node>
          <Node pos="r" depth="2" NCoef="0" IVar="5" Cut="1.3854347169399261e-02" cType="0" res="-3.7341010570526123e-01" rms="1.0441488772630692e-01" purity="1.1221994645893574e-02" nType="0">
            <Node pos="l" depth="3" NCoef="0" IVar="5" Cut="2.3861322551965714e-02" cType="0" res="-3.4449476003646851e-01" rms="2.0639958977699280e-01" purity="4.5391868799924850e-02" nType="0">
              <Node pos="l" depth="4" NCoef="0" IVar="14" Cut="3.6976549029350281e-01" cType="0" res="-3.0015534162521362e-01" rms="3.0035406351089478e-01" purity="1.0178399085998535e-01" nType="0">
                <Node pos="l" depth="5" NCoef="0" IVar="-1" Cut="0.0000000000000000e+00" cType="1" res="-5.1059711724519730e-02" rms="3.3412513136863708e-01" purity="1.2945674359798431e-01" nType="-99"/>
                <Node pos="r" depth="5" NCoef="0" IVar="-1" Cut="0.0000000000000000e+00" cType="1" res="-6.0173962265253067e-02" rms="2.1844461560249329e-01" purity="5.1079388707876205e-02" nType="-99"/>
              </Node>
              <Node pos="r" depth="4" NCoef="0" IVar="9" Cut="8.0344223022460938e+01" cType="0" res="-3.5375368595123291e-01" rms="1.7933848500251770e-01" purity="3.3616129308938980e-02" nType="0">
                <Node pos="l" depth="5" NCoef="0" IVar="-1" Cut="0.0000000000000000e+00" cType="1" res="-5.8372829109430313e-02" rms="2.8964754939079285e-01" purity="9.3772828578948975e-02" nType="-99"/>
                <Node pos="r" depth="5" NCoef="0" IVar="-1" Cut="0.0000000000000000e+00" cType="1" res="-6.6649541258811951e-02" rms="1.6795769333839417e-01" purity="2.9298510402441025e-02" nType="-99"/>
              </Node>
            </Node>
            <Node pos="r" depth="3" NCoef="0" IVar="8" Cut="3.5500141143798828e+01" cType="0" res="-3.7792760133743286e-01" rms="7.6152130961418152e-02" purity="5.8835698291659355e-03" nType="0">
              <Node pos="l" depth="4" NCoef="0" IVar="18" Cut="5.6306480407714844e+01" cType="0" res="-3.5026076436042786e-01" rms="1.9654457271099091e-01" purity="4.0646921843290329e-02" nType="0">
                <Node pos="l" depth="5" NCoef="0" IVar="-1" Cut="0.0000000000000000e+00" cType="1" res="-6.0082316398620605e-02" rms="2.5927734375000000e-01" purity="7.2962991893291473e-02" nType="-99"/>
                <Node pos="r" depth="5" NCoef="0" IVar="-1" Cut="0.0000000000000000e+00" cType="1" res="-6.4610168337821960e-02" rms="1.3880199193954468e-01" purity="1.9696017727255821e-02" nType="-99"/>
              </Node>
              <Node pos="r" depth="4" NCoef="0" IVar="14" Cut="3.6223101615905762e-01" cType="0" res="-3.7952870130538940e-01" rms="6.2067382037639618e-02" purity="3.8717947900295258e-03" nType="0">
                <Node pos="l" depth="5" NCoef="0" IVar="-1" Cut="0.0000000000000000e+00" cType="1" res="-7.5853884220123291e-02" rms="1.0843209922313690e-01" purity="1.1906797997653484e-02" nType="-99"/>
                <Node pos="r" depth="5" NCoef="0" IVar="-1" Cut="0.0000000000000000e+00" cType="1" res="-6.8380780518054962e-02" rms="4.8876851797103882e-02" purity="2.3976524826139212e-03" nType="-99"/>
              </Node>
            </Node>
          </Node>
        </Node>
      </Node>
    </BinaryTree>
    <BinaryTree type="DecisionTree" boostWeight="1.0000000000000000e+00" itree="4">
      <Node pos="s" depth="0" NCoef="0" IVar="8" Cut="7.3243583679199219e+01" cType="0" res="-2.7478313446044922e-01" rms="2.6967668533325195e-01" purity="1.0644342005252838e-01" nType="0">
        <Node pos="l" depth="1" NCoef="0" IVar="0" Cut="1.6071964502334595e+00" cType="0" res="-2.8836669400334358e-02" rms="4.6698445081710815e-01" purity="4.5744135975837708e-01" nType="0">
          <Node pos="l" depth="2" NCoef="0" IVar="6" Cut="8.7410980224609375e+01" cType="1" res="5.4864689707756042e-02" rms="4.6357238292694092e-01" purity="5.7118898630142212e-01" nType="0">
            <Node pos="l" depth="3" NCoef="0" IVar="19" Cut="3.9943811297416687e-01" cType="1" res="1.0082055628299713e-01" rms="4.6160715818405151e-01" purity="6.3498735427856445e-01" nType="0">
              <Node pos="l" depth="4" NCoef="0" IVar="6" Cut="8.0094879150390625e+01" cType="1" res="1.8881225585937500e-01" rms="4.2150792479515076e-01" purity="7.5370669364929199e-01" nType="0">
                <Node pos="l" depth="5" NCoef="0" IVar="-1" Cut="0.0000000000000000e+00" cType="1" res="3.6142546683549881e-02" rms="4.0937396883964539e-01" purity="7.7568805217742920e-01" nType="-99"/>
                <Node pos="r" depth="5" NCoef="0" IVar="-1" Cut="0.0000000000000000e+00" cType="1" res="4.7913431189954281e-03" rms="4.8034501075744629e-01" purity="5.7446599006652832e-01" nType="-99"/>
              </Node>
              <Node pos="r" depth="4" NCoef="0" IVar="6" Cut="6.3425922393798828e+01" cType="0" res="-1.1538570746779442e-02" rms="4.8558092117309570e-01" purity="4.8339137434959412e-01" nType="0">
                <Node pos="l" depth="5" NCoef="0" IVar="-1" Cut="0.0000000000000000e+00" cType="1" res="1.3603532686829567e-02" rms="4.8366120457649231e-01" purity="5.9786260128021240e-01" nType="-99"/>
                <Node pos="r" depth="5" NCoef="0" IVar="-1" Cut="0.0000000000000000e+00" cType="1" res="-1.9879205152392387e-02" rms="4.6852299571037292e-01" purity="3.5675850510597229e-01" nType="-99"/>
              </Node>
            </Node>
            <Node pos="r" depth="3" NCoef="0" IVar="13" Cut="2.7713063359260559e-01" cType="0" res="-2.2085016965866089e-01" rms="3.7029477953910828e-01" purity="1.8842637538909912e-01" nType="0">
              <Node pos="l" depth="4" NCoef="0" IVar="8" Cut="1.3507652282714844e+02" cType="1" res="-2.1901877596974373e-02" rms="4.8518922924995422e-01" purity="4.4107228517532349e-01" nType="0">
                <Node pos="l" depth="5" NCoef="0" IVar="-1" Cut="0.0000000000000000e+00" cType="1" res="1.6070261597633362e-02" rms="4.8765107989311218e-01" purity="5.5525463819503784e-01" nType="-99"/>
                <Node pos="r" depth="5" NCoef="0" IVar="-1" Cut="0.0000000000000000e+00" cType="1" res="-2.3380475118756294e-02" rms="4.5750486850738525e-01" purity="3.2922631502151489e-01" nType="-99"/>
              </Node>
              <Node pos="r" depth="4" NCoef="0" IVar="3" Cut="3.5682159662246704e-01" cType="1" res="-3.0707290768623352e-01" rms="2.6444596052169800e-01" purity="7.8931465744972229e-02" nType="0">
                <Node pos="l" depth="5" NCoef="0" IVar="-1" Cut="0.0000000000000000e+00" cType="1" res="-4.9427773803472519e-02" rms="3.0747389793395996e-01" purity="1.1027275770902634e-01" nType="-99"/>
                <Node pos="r" depth="5" NCoef="0" IVar="-1" Cut="0.0000000000000000e+00" cType="1" res="-6.5909340977668762e-02" rms="8.0188281834125519e-02" purity="6.0399398207664490e-03" nType="-99"/>
              </Node>
            </Node>
          </Node>
          <Node pos="r" depth="2" NCoef="0" IVar="6" Cut="8.5777877807617188e+01" cType="1" res="-1.4087635278701782e-01" rms="4.4765368103981018e-01" purity="3.0518284440040588e-01" nType="0">
            <Node pos="l" depth="3" NCoef="0" IVar="6" Cut="5.8274105072021484e+01" cType="0" res="-1.1503849923610687e-01" rms="4.6319419145584106e-01" purity="3.3908647298812866e-01" nType="0">
              <Node pos="l" depth="4" NCoef="0" IVar="19" Cut="4.7033759951591492e-01" cType="1" res="-6.5848141908645630e-02" rms="4.8376187682151794e-01" purity="4.0500968694686890e-01" nType="0">
                <Node pos="l" depth="5" NCoef="0" IVar="-1" Cut="0.0000000000000000e+00" cType="1" res="-1.0220685508102179e-03" rms="4.9276936054229736e-01" purity="4.7613275051116943e-01" nType="-99"/>
                <Node pos="r" depth="5" NCoef="0" IVar="-1" Cut="0.0000000000000000e+00" cType="1" res="-2.4081964045763016e-02" rms="4.6320670843124390e-01" purity="3.2156285643577576e-01" nType="-99"/>
              </Node>
              <Node pos="r" depth="4" NCoef="0" IVar="14" Cut="3.7730389833450317e-01" cType="0" res="-2.1936559677124023e-01" rms="3.9651608467102051e-01" purity="1.9927091896533966e-01" nType="0">
                <Node pos="l" depth="5" NCoef="0" IVar="-1" Cut="0.0000000000000000e+00" cType="1" res="-3.7113822996616364e-02" rms="4.0899968147277832e-01" purity="2.1701397001743317e-01" nType="-99"/>
                <Node pos="r" depth="5" NCoef="0" IVar="-1" Cut="0.0000000000000000e+00" cType="1" res="-5.1345866173505783e-02" rms="3.2672429084777832e-01" purity="1.2568069994449615e-01" nType="-99"/>
              </Node>
            </Node>
            <Node pos="r" depth="3" NCoef="0" IVar="12" Cut="2.2024063766002655e-01" cType="0" res="-2.5766515731811523e-01" rms="3.4605607390403748e-01" purity="1.5193611383438110e-01" nType="0">
              <Node pos="l" depth="4" NCoef="0" IVar="-1" Cut="0.0000000000000000e+00" cType="1" res="-1.5798740088939667e-02" rms="4.7758403420448303e-01" purity="3.7004488706588745e-01" nType="-99"/>
              <Node pos="r" depth="4" NCoef="0" IVar="13" Cut="2.7202498912811279e-01" cType="0" res="-3.0762508511543274e-01" rms="2.7692654728889465e-01" purity="8.7179683148860931e-02" nType="0">
                <Node pos="l" depth="5" NCoef="0" IVar="-1" Cut="0.0000000000000000e+00" cType="1" res="-4.6266123652458191e-02" rms="3.5519212484359741e-01" purity="1.5193681418895721e-01" nType="-99"/>
                <Node pos="r" depth="5" NCoef="0" IVar="-1" Cut="0.0000000000000000e+00" cType="1" res="-6.3244163990020752e-02" rms="1.7711652815341949e-01" purity="3.2722529023885727e-02" nType="-99"/>
              </Node>
            </Node>
          </Node>
        </Node>
        <Node pos="r" depth="1" NCoef="0" IVar="6" Cut="5.1500152587890625e+01" cType="0" res="-3.3573123812675476e-01" rms="1.3417103886604309e-01" purity="1.9462436437606812e-02" nType="0">
          <Node pos="l" depth="2" NCoef="0" IVar="0" Cut="2.1035084724426270e+00" cType="0" res="-2.2537909448146820e-01" rms="3.7401157617568970e-01" purity="1.7800164222717285e-01" nType="0">
            <Node pos="l" depth="3" NCoef="0" IVar="10" Cut="6.5442016601562500e+01" cType="0" res="-1.7216810584068298e-01" rms="4.2094326019287109e-01" purity="2.4368852376937866e-01" nType="0">
              <Node pos="l" depth="4" NCoef="0" IVar="11" Cut="1.1321402341127396e-01" cType="1" res="-1.2674956023693085e-01" rms="4.5130768418312073e-01" purity="3.0047434568405151e-01" nType="0">
                <Node pos="l" depth="5" NCoef="0" IVar="-1" Cut="0.0000000000000000e+00" cType="1" res="-1.4275402761995792e-02" rms="4.7105565667152405e-01" purity="3.5162129998207092e-01" nType="-99"/>
                <Node pos="r" depth="5" NCoef="0" IVar="-1" Cut="0.0000000000000000e+00" cType="1" res="-3.5473491996526718e-02" rms="4.0374675393104553e-01" purity="2.1058478951454163e-01" nType="-99"/>
              </Node>
              <Node pos="r" depth="4" NCoef="0" IVar="8" Cut="5.3943073272705078e+01" cType="0" res="-2.5537875294685364e-01" rms="3.4346231818199158e-01" purity="1.3965202867984772e-01" nType="0">
                <Node pos="l" depth="5" NCoef="0" IVar="-1" Cut="0.0000000000000000e+00" cType="1" res="-3.8006041198968887e-02" rms="3.9045229554176331e-01" purity="1.9002224504947662e-01" nType="-99"/>
                <Node pos="r" depth="5" NCoef="0" IVar="-1" Cut="0.0000000000000000e+00" cType="1" res="-5.4215803742408752e-02" rms="2.8469598293304443e-01" purity="9.1118834912776947e-02" nType="-99"/>
              </Node>
            </Node>
            <Node pos="r" depth="3" NCoef="0" IVar="14" Cut="3.7947255373001099e-01" cType="0" res="-2.6645213365554810e-01" rms="3.2743549346923828e-01" purity="1.2729856371879578e-01" nType="0">
              <Node pos="l" depth="4" NCoef="0" IVar="8" Cut="4.1426406860351562e+01" cType="0" res="-2.0073400437831879e-01" rms="3.9949187636375427e-01" purity="2.0290948450565338e-01" nType="0">
                <Node pos="l" depth="5" NCoef="0" IVar="-1" Cut="0.0000000000000000e+00" cType="1" res="-2.8648896142840385e-02" rms="4.3185392022132874e-01" purity="2.5373700261116028e-01" nType="-99"/>
                <Node pos="r" depth="5" NCoef="0" IVar="-1" Cut="0.0000000000000000e+00" cType="1" res="-5.0447523593902588e-02" rms="3.3367124199867249e-01" purity="1.2772808969020844e-01" nType="-99"/>
              </Node>
              <Node pos="r" depth="4" NCoef="0" IVar="19" Cut="4.8174038529396057e-01" cType="1" res="-2.9571807384490967e-01" rms="2.8479501605033875e-01" purity="9.3627139925956726e-02" nType="0">
                <Node pos="l" depth="5" NCoef="0" IVar="-1" Cut="0.0000000000000000e+00" cType="1" res="-3.9325844496488571e-02" rms="3.7010431289672852e-01" purity="1.7413751780986786e-01" nType="-99"/>
                <Node pos="r" depth="5" NCoef="0" IVar="-1" Cut="0.0000000000000000e+00" cType="1" res="-5.7615194469690323e-02" rms="2.3517961800098419e-01" purity="5.9668127447366714e-02" nType="-99"/>
              </Node>
            </Node>
          </Node>
          <Node pos="r" depth="2" NCoef="0" IVar="7" Cut="4.5811393737792969e+01" cType="0" res="-3.4040442109107971e-01" rms="1.1091820150613785e-01" purity="1.2748628854751587e-02" nType="0">
            <Node pos="l" depth="3" NCoef="0" IVar="14" Cut="3.8931217789649963e-01" cType="0" res="-3.0525487661361694e-01" rms="2.3561479151248932e-01" purity="6.0024283826351166e-02" nType="0">
              <Node pos="l" depth="4" NCoef="0" IVar="19" Cut="5.8925253152847290e-01" cType="1" res="-2.7378925681114197e-01" rms="2.8855779767036438e-01" purity="9.3054041266441345e-02" nType="0">
                <Node pos="l" depth="5" NCoef="0" IVar="-1" Cut="0.0000000000000000e+00" cType="1" res="-3.3162761479616165e-02" rms="4.0298780798912048e-01" purity="2.0746961236000061e-01" nType="-99"/>
                <Node pos="r" depth="5" NCoef="0" IVar="-1" Cut="0.0000000000000000e+00" cType="1" res="-5.9976704418659210e-02" rms="2.6029014587402344e-01" purity="7.3806114494800568e-02" nType="-99"/>
              </Node>
              <Node pos="r" depth="4" NCoef="0" IVar="19" Cut="5.1613020896911621e-01" cType="1" res="-3.1509107351303101e-01" rms="2.1548314392566681e-01" purity="4.9699120223522186e-02" nType="0">
                <Node pos="l" depth="5" NCoef="0" IVar="-1" Cut="0.0000000000000000e+00" cType="1" res="-5.0781428813934326e-02" rms="2.8021413087844849e-01" purity="8.7110765278339386e-02" nType="-99"/>
                <Node pos="r" depth="5" NCoef="0" IVar="-1" Cut="0.0000000000000000e+00" cType="1" res="-6.2076494097709656e-02" rms="1.7801241576671600e-01" purity="3.3234849572181702e-02" nType="-99"/>
              </Node>
            </Node>
            <Node pos="r" depth="3" NCoef="0" IVar="5" Cut="1.6606466844677925e-02" cType="0" res="-3.4480467438697815e-01" rms="8.1971541047096252e-02" purity="6.8303653970360756e-03" nType="0">
              <Node pos="l" depth="4" NCoef="0" IVar="14" Cut="3.7052819132804871e-01" cType="0" res="-3.1473439931869507e-01" rms="2.0539046823978424e-01" purity="4.4775560498237610e-02" nType="0">
                <Node pos="l" depth="5" NCoef="0" IVar="-1" Cut="0.0000000000000000e+00" cType="1" res="-5.8568283915519714e-02" rms="2.5403177738189697e-01" purity="7.0379272103309631e-02" nType="-99"/>
                <Node pos="r" depth="5" NCoef="0" IVar="-1" Cut="0.0000000000000000e+00" cType="1" res="-6.1541166156530380e-02" rms="1.4591597020626068e-01" purity="2.1780172362923622e-02" nType="-99"/>
              </Node>
              <Node pos="r" depth="4" NCoef="0" IVar="14" Cut="3.6228474974632263e-01" cType="0" res="-3.4657448530197144e-01" rms="6.7643247544765472e-02" purity="4.5970710925757885e-03" nType="0">
                <Node pos="l" depth="5" NCoef="0" IVar="-1" Cut="0.0000000000000000e+00" cType="1" res="-7.1217745542526245e-02" rms="1.1190863698720932e-01" purity="1.2708541937172413e-02" nType="-99"/>
                <Node pos="r" depth="5" NCoef="0" IVar="-1" Cut="0.0000000000000000e+00" cType="1" res="-6.4812816679477692e-02" rms="5.4783139377832413e-02" purity="3.0149202793836594e-03" nType="-99"/>
              </Node>
            </Node>
          </Node>
        </Node>
      </Node>
    </BinaryTree>
    <BinaryTree type="DecisionTree" boostWeight="1.0000000000000000e+00" itree="5">
      <Node pos="s" depth="0" NCoef="0" IVar="6" Cut="5.5612648010253906e+01" cType="0" res="-2.5139334797859192e-01" rms="2.6298874616622925e-01" purity="1.0644342005252838e-01" nType="0">
        <Node pos="l" depth="1" NCoef="0" IVar="7" Cut="9.4814247131347656e+01" cType="1" res="-1.9633306190371513e-02" rms="4.6133437752723694e-01" purity="4.6658435463905334e-01" nType="0">
          <Node pos="l" depth="2" NCoef="0" IVar="19" Cut="4.5488646626472473e-01" cType="1" res="4.4047683477401733e-02" rms="4.6612626314163208e-01" purity="5.5681449174880981e-01" nType="0">
            <Node pos="l" depth="3" NCoef="0" IVar="6" Cut="6.3310440063476562e+01" cType="0" res="1.2114702910184860e-01" rms="4.5003092288970947e-01" purity="6.6927939653396606e-01" nType="0">
              <Node pos="l" depth="4" NCoef="0" IVar="16" Cut="5.4705882072448730e-01" cType="0" res="1.6224962472915649e-01" rms="4.3113061785697937e-01" purity="7.2451233863830566e-01" nType="0">
                <Node pos="l" depth="5" NCoef="0" IVar="-1" Cut="0.0000000000000000e+00" cType="1" res="3.0631313100457191e-02" rms="4.2640805244445801e-01" purity="7.4156624078750610e-01" nType="-99"/>
                <Node pos="r" depth="5" NCoef="0" IVar="-1" Cut="0.0000000000000000e+00" cType="1" res="-2.1430024877190590e-02" rms="4.2459788918495178e-01" purity="3.7240472435951233e-01" nType="-99"/>
              </Node>
              <Node pos="r" depth="4" NCoef="0" IVar="18" Cut="7.8904571533203125e+01" cType="0" res="-1.4944429509341717e-02" rms="4.8327594995498657e-01" purity="4.8640224337577820e-01" nType="0">
                <Node pos="l" depth="5" NCoef="0" IVar="-1" Cut="0.0000000000000000e+00" cType="1" res="2.5452909991145134e-02" rms="4.5659357309341431e-01" purity="6.6638505458831787e-01" nType="-99"/>
                <Node pos="r" depth="5" NCoef="0" IVar="-1" Cut="0.0000000000000000e+00" cType="1" res="-8.7155699729919434e-03" rms="4.8206123709678650e-01" purity="4.4502019882202148e-01" nType="-99"/>
              </Node>
            </Node>
            <Node pos="r" depth="3" NCoef="0" IVar="14" Cut="3.7319949269294739e-01" cType="0" res="-9.0372167527675629e-02" rms="4.6319559216499329e-01" purity="3.6073601245880127e-01" nType="0">
              <Node pos="l" depth="4" NCoef="0" IVar="6" Cut="6.4281959533691406e+01" cType="0" res="-2.0830441266298294e-02" rms="4.8402550816535950e-01" purity="4.4436013698577881e-01" nType="0">
                <Node pos="l" depth="5" NCoef="0" IVar="-1" Cut="0.0000000000000000e+00" cType="1" res="1.0273810476064682e-02" rms="4.8590958118438721e-01" purity="5.3938508033752441e-01" nType="-99"/>
                <Node pos="r" depth="5" NCoef="0" IVar="-1" Cut="0.0000000000000000e+00" cType="1" res="-1.6764979809522629e-02" rms="4.7097519040107727e-01" purity="3.5795617103576660e-01" nType="-99"/>
              </Node>
              <Node pos="r" depth="4" NCoef="0" IVar="2" Cut="9.5002496242523193e-01" cType="0" res="-2.2803194820880890e-01" rms="3.8336631655693054e-01" purity="1.9519966840744019e-01" nType="0">
                <Node pos="l" depth="5" NCoef="0" IVar="-1" Cut="0.0000000000000000e+00" cType="1" res="-2.1645698696374893e-02" rms="4.4349646568298340e-01" purity="3.2038220763206482e-01" nType="-99"/>
                <Node pos="r" depth="5" NCoef="0" IVar="-1" Cut="0.0000000000000000e+00" cType="1" res="-4.6004906296730042e-02" rms="3.5336756706237793e-01" purity="1.5240684151649475e-01" nType="-99"/>
              </Node>
            </Node>
          </Node>
          <Node pos="r" depth="2" NCoef="0" IVar="12" Cut="2.0140445232391357e-01" cType="0" res="-1.5539221465587616e-01" rms="4.1985604166984558e-01" purity="2.7422648668289185e-01" nType="0">
            <Node pos="l" depth="3" NCoef="0" IVar="16" Cut="6.4479863643646240e-01" cType="1" res="-3.7573780864477158e-02" rms="4.7781664133071899e-01" purity="4.2475208640098572e-01" nType="0">
              <Node pos="l" depth="4" NCoef="0" IVar="15" Cut="4.9219617247581482e-01" cType="0" res="-1.7483983538113534e-04" rms="4.8322051763534546e-01" purity="4.7212997078895569e-01" nType="0">
                <Node pos="l" depth="5" NCoef="0" IVar="-1" Cut="0.0000000000000000e+00" cType="1" res="7.3483409360051155e-03" rms="4.8956227302551270e-01" purity="5.2097237110137939e-01" nType="-99"/>
                <Node pos="r" depth="5" NCoef="0" IVar="-1" Cut="0.0000000000000000e+00" cType="1" res="-4.2937595397233963e-02" rms="3.7252160906791687e-01" purity="1.9967064261436462e-01" nType="-99"/>
              </Node>
              <Node pos="r" depth="4" NCoef="0" IVar="15" Cut="5.5037373304367065e-01" cType="0" res="-1.7197369039058685e-01" rms="4.3192100524902344e-01" purity="2.5449112057685852e-01" nType="0">
                <Node pos="l" depth="5" NCoef="0" IVar="-1" Cut="0.0000000000000000e+00" cType="1" res="-1.4321652241051197e-02" rms="4.7675246000289917e-01" purity="3.5288220643997192e-01" nType="-99"/>
                <Node pos="r" depth="5" NCoef="0" IVar="-1" Cut="0.0000000000000000e+00" cType="1" res="-4.4558532536029816e-02" rms="3.8370040059089661e-01" purity="1.8586188554763794e-01" nType="-99"/>
              </Node>
            </Node>
            <Node pos="r" depth="3" NCoef="0" IVar="9" Cut="1.1121952819824219e+02" cType="1" res="-2.3464322090148926e-01" rms="3.5449007153511047e-01" purity="1.7297489941120148e-01" nType="0">
              <Node pos="l" depth="4" NCoef="0" IVar="12" Cut="1.2372102588415146e-01" cType="0" res="-1.4012594521045685e-01" rms="4.4525653123855591e-01" purity="3.2110539078712463e-01" nType="0">
                <Node pos="l" depth="5" NCoef="0" IVar="-1" Cut="0.0000000000000000e+00" cType="1" res="-1.6243208199739456e-02" rms="4.6524772047996521e-01" purity="3.7733751535415649e-01" nType="-99"/>
                <Node pos="r" depth="5" NCoef="0" IVar="-1" Cut="0.0000000000000000e+00" cType="1" res="-4.5018568634986877e-02" rms="3.5425117611885071e-01" purity="1.6281205415725708e-01" nType="-99"/>
              </Node>
              <Node pos="r" depth="4" NCoef="0" IVar="13" Cut="2.6311084628105164e-01" cType="0" res="-2.7333441376686096e-01" rms="3.0132040381431580e-01" purity="1.1233684420585632e-01" nType="0">
                <Node pos="l" depth="5" NCoef="0" IVar="-1" Cut="0.0000000000000000e+00" cType="1" res="-4.0739402174949646e-02" rms="3.7486875057220459e-01" purity="1.8453516066074371e-01" nType="-99"/>
                <Node pos="r" depth="5" NCoef="0" IVar="-1" Cut="0.0000000000000000e+00" cType="1" res="-5.7783015072345734e-02" rms="2.1698921918869019e-01" purity="5.3889058530330658e-02" nType="-99"/>
              </Node>
            </Node>
          </Node>
        </Node>
        <Node pos="r" depth="1" NCoef="0" IVar="8" Cut="5.9680950164794922e+01" cType="0" res="-3.0579206347465515e-01" rms="1.4097893238067627e-01" purity="2.1911120042204857e-02" nType="0">
          <Node pos="l" depth="2" NCoef="0" IVar="9" Cut="7.7332901000976562e+01" cType="0" res="-2.1435169875621796e-01" rms="3.6469629406929016e-01" purity="1.6639044880867004e-01" nType="0">
            <Node pos="l" depth="3" NCoef="0" IVar="19" Cut="5.7424193620681763e-01" cType="1" res="-1.6797696053981781e-01" rms="4.1616499423980713e-01" purity="2.3157058656215668e-01" nType="0">
              <Node pos="l" depth="4" NCoef="0" IVar="2" Cut="7.5162416696548462e-01" cType="0" res="-1.1459672451019287e-01" rms="4.5020973682403564e-01" purity="2.9482477903366089e-01" nType="0">
                <Node pos="l" depth="5" NCoef="0" IVar="-1" Cut="0.0000000000000000e+00" cType="1" res="6.2612583860754967e-04" rms="4.8872292041778564e-01" purity="4.3052834272384644e-01" nType="-99"/>
                <Node pos="r" depth="5" NCoef="0" IVar="-1" Cut="0.0000000000000000e+00" cType="1" res="-2.9066201299428940e-02" rms="4.2723277211189270e-01" purity="2.4523392319679260e-01" nType="-99"/>
              </Node>
              <Node pos="r" depth="4" NCoef="0" IVar="4" Cut="-1.5061600208282471e+00" cType="0" res="-2.3098176717758179e-01" rms="3.6200401186943054e-01" purity="1.5691152215003967e-01" nType="0">
                <Node pos="l" depth="5" NCoef="0" IVar="-1" Cut="0.0000000000000000e+00" cType="1" res="-3.8733921945095062e-02" rms="3.8823026418685913e-01" purity="1.8696586787700653e-01" nType="-99"/>
                <Node pos="r" depth="5" NCoef="0" IVar="-1" Cut="0.0000000000000000e+00" cType="1" res="-6.0106214135885239e-02" rms="2.6956358551979065e-01" purity="8.0137893557548523e-02" nType="-99"/>
              </Node>
            </Node>
            <Node pos="r" depth="3" NCoef="0" IVar="2" Cut="9.1904050111770630e-01" cType="0" res="-2.4918010830879211e-01" rms="3.1621468067169189e-01" purity="1.1743876338005066e-01" nType="0">
              <Node pos="l" depth="4" NCoef="0" IVar="7" Cut="5.9681999206542969e+01" cType="0" res="-1.9062905013561249e-01" rms="3.8401341438293457e-01" purity="1.8993751704692841e-01" nType="0">
                <Node pos="l" depth="5" NCoef="0" IVar="-1" Cut="0.0000000000000000e+00" cType="1" res="-2.3157691583037376e-02" rms="4.3527406454086304e-01" purity="2.7120545506477356e-01" nType="-99"/>
                <Node pos="r" depth="5" NCoef="0" IVar="-1" Cut="0.0000000000000000e+00" cType="1" res="-4.3544016778469086e-02" rms="3.3340975642204285e-01" purity="1.2893588840961456e-01" nType="-99"/>
              </Node>
              <Node pos="r" depth="4" NCoef="0" IVar="17" Cut="2.3933879852294922e+01" cType="1" res="-2.6572147011756897e-01" rms="2.9212579131126404e-01" purity="9.6957027912139893e-02" nType="0">
                <Node pos="l" depth="5" NCoef="0" IVar="-1" Cut="0.0000000000000000e+00" cType="1" res="-4.0526933968067169e-02" rms="3.5233393311500549e-01" purity="1.4815951883792877e-01" nType="-99"/>
                <Node pos="r" depth="5" NCoef="0" IVar="-1" Cut="0.0000000000000000e+00" cType="1" res="-5.4385025054216385e-02" rms="2.6161101460456848e-01" purity="7.5933113694190979e-02" nType="-99"/>
              </Node>
            </Node>
          </Node>
          <Node pos="r" depth="2" NCoef="0" IVar="14" Cut="3.6964419484138489e-01" cType="0" res="-3.1254833936691284e-01" rms="1.0417705029249191e-01" purity="1.1235919781029224e-02" nType="0">
            <Node pos="l" depth="3" NCoef="0" IVar="6" Cut="4.2855278015136719e+01" cType="0" res="-2.8841778635978699e-01" rms="1.8704381585121155e-01" purity="3.7373282015323639e-02" nType="0">
              <Node pos="l" depth="4" NCoef="0" IVar="5" Cut="2.3824011906981468e-02" cType="0" res="-2.2392979264259338e-01" rms="3.2277929782867432e-01" purity="1.2116760760545731e-01" nType="0">
                <Node pos="l" depth="5" NCoef="0" IVar="-1" Cut="0.0000000000000000e+00" cType="1" res="-2.8302211314439774e-02" rms="4.0298372507095337e-01" purity="2.0793142914772034e-01" nType="-99"/>
                <Node pos="r" depth="5" NCoef="0" IVar="-1" Cut="0.0000000000000000e+00" cType="1" res="-5.1189042627811432e-02" rms="2.8207153081893921e-01" purity="8.8553927838802338e-02" nType="-99"/>
              </Node>
              <Node pos="r" depth="4" NCoef="0" IVar="5" Cut="2.0958090201020241e-02" cType="0" res="-2.9521638154983521e-01" rms="1.6494019329547882e-01" purity="2.8539326041936874e-02" nType="0">
                <Node pos="l" depth="5" NCoef="0" IVar="-1" Cut="0.0000000000000000e+00" cType="1" res="-5.2409201860427856e-02" rms="2.8189203143119812e-01" purity="8.7747544050216675e-02" nType="-99"/>
                <Node pos="r" depth="5" NCoef="0" IVar="-1" Cut="0.0000000000000000e+00" cType="1" res="-6.6796079277992249e-02" rms="1.3858129084110260e-01" purity="1.9739314913749695e-02" nType="-99"/>
              </Node>
            </Node>
            <Node pos="r" depth="3" NCoef="0" IVar="5" Cut="1.2448718771338463e-02" cType="0" res="-3.1719109416007996e-01" rms="7.7949553728103638e-02" purity="6.2070512212812901e-03" nType="0">
              <Node pos="l" depth="4" NCoef="0" IVar="19" Cut="4.8874551057815552e-01" cType="1" res="-3.0301320552825928e-01" rms="1.5456044673919678e-01" purity="2.4829162284731865e-02" nType="0">
                <Node pos="l" depth="5" NCoef="0" IVar="-1" Cut="0.0000000000000000e+00" cType="1" res="-4.8026077449321747e-02" rms="2.5555357336997986e-01" purity="7.2526387870311737e-02" nType="-99"/>
                <Node pos="r" depth="5" NCoef="0" IVar="-1" Cut="0.0000000000000000e+00" cType="1" res="-5.9428315609693527e-02" rms="1.4249828457832336e-01" purity="2.0832033827900887e-02" nType="-99"/>
              </Node>
              <Node pos="r" depth="4" NCoef="0" IVar="8" Cut="5.2197410583496094e+01" cType="0" res="-3.1906163692474365e-01" rms="6.0794945806264877e-02" purity="3.7501873448491096e-03" nType="0">
                <Node pos="l" depth="5" NCoef="0" IVar="-1" Cut="0.0000000000000000e+00" cType="1" res="-5.3187064826488495e-02" rms="2.4292963743209839e-01" purity="6.3696846365928650e-02" nType="-99"/>
                <Node pos="r" depth="5" NCoef="0" IVar="-1" Cut="0.0000000000000000e+00" cType="1" res="-6.2280826270580292e-02" rms="5.5492836982011795e-02" purity="3.0999213922768831e-03" nType="-99"/>
              </Node>
            </Node>
          </Node>
        </Node>
      </Node>
    </BinaryTree>
    <BinaryTree type="DecisionTree" boostWeight="1.0000000000000000e+00" itree="6">
      <Node pos="s" depth="0" NCoef="0" IVar="8" Cut="7.4427963256835938e+01" cType="0" res="-2.3005086183547974e-01" rms="2.5701150298118591e-01" purity="1.0644342005252838e-01" nType="0">
        <Node pos="l" depth="1" NCoef="0" IVar="0" Cut="1.9880059957504272e+00" cType="0" res="-2.0577576011419296e-02" rms="4.5643195509910583e-01" purity="4.6100881695747375e-01" nType="0">
          <Node pos="l" depth="2" NCoef="0" IVar="6" Cut="8.7165702819824219e+01" cType="1" res="7.4558280408382416e-02" rms="4.4360658526420593e-01" purity="6.1250942945480347e-01" nType="0">
            <Node pos="l" depth="3" NCoef="0" IVar="6" Cut="5.9004993438720703e+01" cType="0" res="1.2105219811201096e-01" rms="4.4171997904777527e-01" purity="6.8740707635879517e-01" nType="0">
              <Node pos="l" depth="4" NCoef="0" IVar="0" Cut="2.4948172569274902e+00" cType="0" res="1.5327577292919159e-01" rms="4.2827740311622620e-01" purity="7.3905289173126221e-01" nType="0">
                <Node pos="l" depth="5" NCoef="0" IVar="-1" Cut="0.0000000000000000e+00" cType="1" res="3.5477831959724426e-02" rms="3.9384883642196655e-01" purity="7.9545980691909790e-01" nType="-99"/>
                <Node pos="r" depth="5" NCoef="0" IVar="-1" Cut="0.0000000000000000e+00" cType="1" res="1.4775110408663750e-02" rms="4.6842715144157410e-01" purity="6.5133458375930786e-01" nType="-99"/>
              </Node>
              <Node pos="r" depth="4" NCoef="0" IVar="19" Cut="4.8368325829505920e-01" cType="1" res="-7.9734362661838531e-02" rms="4.7032257914543152e-01" purity="3.6559981107711792e-01" nType="0">
                <Node pos="l" depth="5" NCoef="0" IVar="-1" Cut="0.0000000000000000e+00" cType="1" res="-1.6851389082148671e-03" rms="4.8946511745452881e-01" purity="4.5530277490615845e-01" nType="-99"/>
                <Node pos="r" depth="5" NCoef="0" IVar="-1" Cut="0.0000000000000000e+00" cType="1" res="-2.9992273077368736e-02" rms="4.3468806147575378e-01" purity="2.6514175534248352e-01" nType="-99"/>
              </Node>
            </Node>
            <Node pos="r" depth="3" NCoef="0" IVar="14" Cut="3.9110961556434631e-01" cType="0" res="-2.0145866274833679e-01" rms="3.4305116534233093e-01" purity="1.6787026822566986e-01" nType="0">
              <Node pos="l" depth="4" NCoef="0" IVar="-1" Cut="0.0000000000000000e+00" cType="1" res="4.1910009458661079e-03" rms="4.8772227764129639e-01" purity="4.9545770883560181e-01" nType="-99"/>
              <Node pos="r" depth="4" NCoef="0" IVar="16" Cut="5.6280183792114258e-01" cType="0" res="-2.5161319971084595e-01" rms="2.7769276499748230e-01" purity="9.4945192337036133e-02" nType="0">
                <Node pos="l" depth="5" NCoef="0" IVar="-1" Cut="0.0000000000000000e+00" cType="1" res="-3.8197129964828491e-02" rms="3.4232020378112793e-01" purity="1.5323904156684875e-01" nType="-99"/>
                <Node pos="r" depth="5" NCoef="0" IVar="-1" Cut="0.0000000000000000e+00" cType="1" res="-6.0059368610382080e-02" rms="1.0071814060211182e-01" purity="1.0138723999261856e-02" nType="-99"/>
              </Node>
            </Node>
          </Node>
          <Node pos="r" depth="2" NCoef="0" IVar="0" Cut="1.0202914476394653e+00" cType="0" res="-9.7293935716152191e-02" rms="4.5216664671897888e-01" purity="3.3884066343307495e-01" nType="0">
            <Node pos="l" depth="3" NCoef="0" IVar="15" Cut="4.6929785609245300e-01" cType="0" res="-5.1225446164608002e-02" rms="4.6886757016181946e-01" purity="4.0354248881340027e-01" nType="0">
              <Node pos="l" depth="4" NCoef="0" IVar="19" Cut="5.5571478605270386e-01" cType="1" res="-2.7958361431956291e-02" rms="4.7387009859085083e-01" purity="4.2862254381179810e-01" nType="0">
                <Node pos="l" depth="5" NCoef="0" IVar="-1" Cut="0.0000000000000000e+00" cType="1" res="1.2810939224436879e-03" rms="4.7850668430328369e-01" purity="4.7209787368774414e-01" nType="-99"/>
                <Node pos="r" depth="5" NCoef="0" IVar="-1" Cut="0.0000000000000000e+00" cType="1" res="-2.7035124599933624e-02" rms="4.3738728761672974e-01" purity="2.8163668513298035e-01" nType="-99"/>
              </Node>
              <Node pos="r" depth="4" NCoef="0" IVar="8" Cut="9.3650901794433594e+01" cType="1" res="-2.3990471661090851e-01" rms="3.7630194425582886e-01" purity="2.0016147196292877e-01" nType="0">
                <Node pos="l" depth="5" NCoef="0" IVar="-1" Cut="0.0000000000000000e+00" cType="1" res="-2.6136495172977448e-02" rms="4.4182261824607849e-01" purity="3.0875450372695923e-01" nType="-99"/>
                <Node pos="r" depth="5" NCoef="0" IVar="-1" Cut="0.0000000000000000e+00" cType="1" res="-6.3714958727359772e-02" rms="2.2147829830646515e-01" purity="5.8779068291187286e-02" nType="-99"/>
              </Node>
            </Node>
            <Node pos="r" depth="3" NCoef="0" IVar="15" Cut="5.1178938150405884e-01" cType="0" res="-1.5649004280567169e-01" rms="4.2244288325309753e-01" purity="2.5570145249366760e-01" nType="0">
              <Node pos="l" depth="4" NCoef="0" IVar="0" Cut="2.2846192121505737e-01" cType="0" res="-1.2379788607358932e-01" rms="4.4467848539352417e-01" purity="2.9639798402786255e-01" nType="0">
                <Node pos="l" depth="5" NCoef="0" IVar="-1" Cut="0.0000000000000000e+00" cType="1" res="-1.6373638063669205e-02" rms="4.6000316739082336e-01" purity="3.3698025345802307e-01" nType="-99"/>
                <Node pos="r" depth="5" NCoef="0" IVar="-1" Cut="0.0000000000000000e+00" cType="1" res="-3.5738520324230194e-02" rms="3.9903107285499573e-01" purity="2.0673799514770508e-01" nType="-99"/>
              </Node>
              <Node pos="r" depth="4" NCoef="0" IVar="8" Cut="1.0168371582031250e+02" cType="1" res="-2.1106758713722229e-01" rms="3.7617370486259460e-01" purity="1.8776105344295502e-01" nType="0">
                <Node pos="l" depth="5" NCoef="0" IVar="-1" Cut="0.0000000000000000e+00" cType="1" res="-2.9677124693989754e-02" rms="4.1923746466636658e-01" purity="2.4676217138767242e-01" nType="-99"/>
                <Node pos="r" depth="5" NCoef="0" IVar="-1" Cut="0.0000000000000000e+00" cType="1" res="-5.4945249110460281e-02" rms="2.5593036413192749e-01" purity="7.4538789689540863e-02" nType="-99"/>
              </Node>
            </Node>
          </Node>
        </Node>
        <Node pos="r" depth="1" NCoef="0" IVar="7" Cut="5.9686141967773438e+01" cType="0" res="-2.8070738911628723e-01" rms="1.3590987026691437e-01" purity="2.0699545741081238e-02" nType="0">
          <Node pos="l" depth="2" NCoef="0" IVar="0" Cut="2.8130023479461670e+00" cType="0" res="-2.0014570653438568e-01" rms="3.4764772653579712e-01" purity="1.5703491866588593e-01" nType="0">
            <Node pos="l" depth="3" NCoef="0" IVar="-1" Cut="0.0000000000000000e+00" cType="1" res="-5.2239801734685898e-03" rms="4.6952390670776367e-01" purity="3.9964449405670166e-01" nType="-99"/>
            <Node pos="r" depth="3" NCoef="0" IVar="0" Cut="1.8815338611602783e+00" cType="0" res="-2.1812352538108826e-01" rms="3.2699790596961975e-01" purity="1.3131117820739746e-01" nType="0">
              <Node pos="l" depth="4" NCoef="0" IVar="7" Cut="6.6870536804199219e+01" cType="0" res="-1.6604004800319672e-01" rms="3.9460277557373047e-01" purity="2.0791918039321899e-01" nType="0">
                <Node pos="l" depth="5" NCoef="0" IVar="-1" Cut="0.0000000000000000e+00" cType="1" res="-2.1504702046513557e-02" rms="4.3374770879745483e-01" purity="2.7716362476348877e-01" nType="-99"/>
                <Node pos="r" depth="5" NCoef="0" IVar="-1" Cut="0.0000000000000000e+00" cType="1" res="-3.8224652409553528e-02" rms="3.5977768898010254e-01" purity="1.5851534903049469e-01" nType="-99"/>
              </Node>
              <Node pos="r" depth="4" NCoef="0" IVar="8" Cut="3.7058551788330078e+01" cType="0" res="-2.4472324550151825e-01" rms="2.8270158171653748e-01" purity="9.2186436057090759e-02" nType="0">
                <Node pos="l" depth="5" NCoef="0" IVar="-1" Cut="0.0000000000000000e+00" cType="1" res="-4.2294751852750778e-02" rms="3.2849052548408508e-01" purity="1.2912812829017639e-01" nType="-99"/>
                <Node pos="r" depth="5" NCoef="0" IVar="-1" Cut="0.0000000000000000e+00" cType="1" res="-5.6485973298549652e-02" rms="2.0082877576351166e-01" purity="4.2631961405277252e-02" nType="-99"/>
              </Node>
            </Node>
          </Node>
          <Node pos="r" depth="2" NCoef="0" IVar="14" Cut="3.7280133366584778e-01" cType="0" res="-2.8577780723571777e-01" rms="1.0767166316509247e-01" purity="1.2118797749280930e-02" nType="0">
            <Node pos="l" depth="3" NCoef="0" IVar="19" Cut="5.8487617969512939e-01" cType="1" res="-2.6032018661499023e-01" rms="1.9248455762863159e-01" purity="3.9906486868858337e-02" nType="0">
              <Node pos="l" depth="4" NCoef="0" IVar="10" Cut="5.2003372192382812e+01" cType="1" res="-1.7903059720993042e-01" rms="3.5438323020935059e-01" purity="1.4963403344154358e-01" nType="0">
                <Node pos="l" depth="5" NCoef="0" IVar="-1" Cut="0.0000000000000000e+00" cType="1" res="-2.6311526075005531e-02" rms="3.9325615763664246e-01" purity="1.9383011758327484e-01" nType="-99"/>
                <Node pos="r" depth="5" NCoef="0" IVar="-1" Cut="0.0000000000000000e+00" cType="1" res="-4.2218729853630066e-02" rms="3.2866010069847107e-01" purity="1.2597610056400299e-01" nType="-99"/>
              </Node>
              <Node pos="r" depth="4" NCoef="0" IVar="5" Cut="2.7456071227788925e-02" cType="0" res="-2.6682186126708984e-01" rms="1.7145895957946777e-01" purity="3.1130302697420120e-02" nType="0">
                <Node pos="l" depth="5" NCoef="0" IVar="-1" Cut="0.0000000000000000e+00" cType="1" res="-3.6333169788122177e-02" rms="3.6265483498573303e-01" purity="1.5653838217258453e-01" nType="-99"/>
                <Node pos="r" depth="5" NCoef="0" IVar="-1" Cut="0.0000000000000000e+00" cType="1" res="-6.2434554100036621e-02" rms="1.6032826900482178e-01" purity="2.6891829445958138e-02" nType="-99"/>
              </Node>
            </Node>
            <Node pos="r" depth="3" NCoef="0" IVar="19" Cut="3.8829758763313293e-01" cType="1" res="-2.8976726531982422e-01" rms="8.6523726582527161e-02" purity="7.7642221003770828e-03" nType="0">
              <Node pos="l" depth="4" NCoef="0" IVar="-1" Cut="0.0000000000000000e+00" cType="1" res="-3.9687681943178177e-02" rms="3.1404796242713928e-01" purity="1.1679245531558990e-01" nType="-99"/>
              <Node pos="r" depth="4" NCoef="0" IVar="5" Cut="2.5514313951134682e-02" cType="0" res="-2.9036390781402588e-01" rms="8.1870712339878082e-02" purity="6.8798181600868702e-03" nType="0">
                <Node pos="l" depth="5" NCoef="0" IVar="-1" Cut="0.0000000000000000e+00" cType="1" res="-4.2929187417030334e-02" rms="2.8953751921653748e-01" purity="9.3020208179950714e-02" nType="-99"/>
                <Node pos="r" depth="5" NCoef="0" IVar="-1" Cut="0.0000000000000000e+00" cType="1" res="-5.9485059231519699e-02" rms="7.7622339129447937e-02" purity="6.1561861075460911e-03" nType="-99"/>
              </Node>
            </Node>
          </Node>
        </Node>
      </Node>
    </BinaryTree>
    <BinaryTree type="DecisionTree" boostWeight="1.0000000000000000e+00" itree="7">
      <Node pos="s" depth="0" NCoef="0" IVar="6" Cut="5.6897842407226562e+01" cType="0" res="-2.1058404445648193e-01" rms="2.5198817253112793e-01" purity="1.0644342005252838e-01" nType="0">
        <Node pos="l" depth="1" NCoef="0" IVar="7" Cut="9.4814247131347656e+01" cType="1" res="-1.0609949007630348e-02" rms="4.5191460847854614e-01" purity="4.7460743784904480e-01" nType="0">
          <Node pos="l" depth="2" NCoef="0" IVar="19" Cut="3.7336504459381104e-01" cType="1" res="4.9714531749486923e-02" rms="4.5781034231185913e-01" purity="5.7317411899566650e-01" nType="0">
            <Node pos="l" depth="3" NCoef="0" IVar="16" Cut="5.4779851436614990e-01" cType="0" res="1.5081423521041870e-01" rms="4.1648861765861511e-01" purity="7.4092972278594971e-01" nType="0">
              <Node pos="l" depth="4" NCoef="0" IVar="0" Cut="2.5139169692993164e+00" cType="0" res="1.6561216115951538e-01" rms="4.1145807504653931e-01" purity="7.6079809665679932e-01" nType="0">
                <Node pos="l" depth="5" NCoef="0" IVar="-1" Cut="0.0000000000000000e+00" cType="1" res="3.8649097084999084e-02" rms="3.5977607965469360e-01" purity="8.3572238683700562e-01" nType="-99"/>
                <Node pos="r" depth="5" NCoef="0" IVar="-1" Cut="0.0000000000000000e+00" cType="1" res="1.7382569611072540e-02" rms="4.6357625722885132e-01" purity="6.6140055656433105e-01" nType="-99"/>
              </Node>
              <Node pos="r" depth="4" NCoef="0" IVar="-1" Cut="0.0000000000000000e+00" cType="1" res="-1.8386593088507652e-02" rms="4.1877540946006775e-01" purity="3.9278614521026611e-01" nType="-99"/>
            </Node>
            <Node pos="r" depth="3" NCoef="0" IVar="14" Cut="3.6444151401519775e-01" cType="0" res="-2.3685442283749580e-02" rms="4.7224062681198120e-01" purity="4.5138099789619446e-01" nType="0">
              <Node pos="l" depth="4" NCoef="0" IVar="19" Cut="5.3421884775161743e-01" cType="1" res="2.3183675482869148e-02" rms="4.7949507832527161e-01" purity="5.0715816020965576e-01" nType="0">
                <Node pos="l" depth="5" NCoef="0" IVar="-1" Cut="0.0000000000000000e+00" cType="1" res="1.2886663898825645e-02" rms="4.7905504703521729e-01" purity="5.7988715171813965e-01" nType="-99"/>
                <Node pos="r" depth="5" NCoef="0" IVar="-1" Cut="0.0000000000000000e+00" cType="1" res="-1.3219881802797318e-02" rms="4.6558243036270142e-01" purity="3.6412829160690308e-01" nType="-99"/>
              </Node>
              <Node pos="r" depth="4" NCoef="0" IVar="19" Cut="4.4911703467369080e-01" cType="1" res="-1.3878053426742554e-01" rms="4.3291473388671875e-01" purity="3.1441071629524231e-01" nType="0">
                <Node pos="l" depth="5" NCoef="0" IVar="-1" Cut="0.0000000000000000e+00" cType="1" res="-8.8479174301028252e-03" rms="4.7807633876800537e-01" purity="4.6633878350257874e-01" nType="-99"/>
                <Node pos="r" depth="5" NCoef="0" IVar="-1" Cut="0.0000000000000000e+00" cType="1" res="-3.8620311766862869e-02" rms="3.7321534752845764e-01" purity="1.8184001743793488e-01" nType="-99"/>
              </Node>
            </Node>
          </Node>
          <Node pos="r" depth="2" NCoef="0" IVar="12" Cut="2.1481186151504517e-01" cType="0" res="-1.3275343179702759e-01" rms="4.1361781954765320e-01" purity="2.7503198385238647e-01" nType="0">
            <Node pos="l" depth="3" NCoef="0" IVar="19" Cut="5.7116198539733887e-01" cType="1" res="-5.9017157182097435e-03" rms="4.7642999887466431e-01" purity="4.4953444600105286e-01" nType="0">
              <Node pos="l" depth="4" NCoef="0" IVar="8" Cut="1.4609318542480469e+02" cType="1" res="5.0951164215803146e-02" rms="4.7775873541831970e-01" purity="5.1921939849853516e-01" nType="0">
                <Node pos="l" depth="5" NCoef="0" IVar="-1" Cut="0.0000000000000000e+00" cType="1" res="1.6416151076555252e-02" rms="4.7597864270210266e-01" purity="5.6293076276779175e-01" nType="-99"/>
                <Node pos="r" depth="5" NCoef="0" IVar="-1" Cut="0.0000000000000000e+00" cType="1" res="-3.0946997925639153e-02" rms="4.2851412296295166e-01" purity="2.7206456661224365e-01" nType="-99"/>
              </Node>
              <Node pos="r" depth="4" NCoef="0" IVar="13" Cut="3.4337234497070312e-01" cType="0" res="-1.1268946528434753e-01" rms="4.5511454343795776e-01" purity="3.1864398717880249e-01" nType="0">
                <Node pos="l" depth="5" NCoef="0" IVar="-1" Cut="0.0000000000000000e+00" cType="1" res="-4.1402694769203663e-03" rms="4.8405021429061890e-01" purity="4.1517046093940735e-01" nType="-99"/>
                <Node pos="r" depth="5" NCoef="0" IVar="-1" Cut="0.0000000000000000e+00" cType="1" res="-4.3253395706415176e-02" rms="3.8444349169731140e-01" purity="1.9383867084980011e-01" nType="-99"/>
              </Node>
            </Node>
            <Node pos="r" depth="3" NCoef="0" IVar="9" Cut="1.1121952819824219e+02" cType="1" res="-1.9482287764549255e-01" rms="3.6331576108932495e-01" purity="1.8964669108390808e-01" nType="0">
