<?xml version="1.0"?>
<MethodSetup Method="BDT::BDTG">
  <GeneralInfo>
    <Info name="TMVA Release" value="4.1.2 [262402]"/>
    <Info name="ROOT Release" value="5.32/00 [335872]"/>
    <Info name="Creator" value="ksung"/>
    <Info name="Date" value="Mon Nov 10 19:54:13 2014"/>
    <Info name="Host" value="Linux lxbuild168.cern.ch 2.6.18-308.16.1.el5 #1 SMP Thu Oct 4 14:02:28 CEST 2012 x86_64 x86_64 x86_64 GNU/Linux"/>
    <Info name="Dir" value="/tthome/ksung/cms/Analysis/01d/CMSSW_5_3_14_patch2/src/DMSAna/TTbar/vmva"/>
    <Info name="Training events" value="30000"/>
    <Info name="TrainingTime" value="7.93696301e+01"/>
    <Info name="AnalysisType" value="Classification"/>
  </GeneralInfo>
  <Options>
    <Option name="V" modified="Yes">False</Option>
    <Option name="VerbosityLevel" modified="No">Default</Option>
    <Option name="VarTransform" modified="No">None</Option>
    <Option name="H" modified="Yes">False</Option>
    <Option name="CreateMVAPdfs" modified="No">False</Option>
    <Option name="IgnoreNegWeightsInTraining" modified="No">False</Option>
    <Option name="NTrees" modified="Yes">1000</Option>
    <Option name="RenormByClass" modified="No">False</Option>
    <Option name="BoostType" modified="Yes">Grad</Option>
    <Option name="AdaBoostR2Loss" modified="No">quadratic</Option>
    <Option name="UseBaggedGrad" modified="Yes">False</Option>
    <Option name="GradBaggingFraction" modified="No">6.000000e-01</Option>
    <Option name="Shrinkage" modified="Yes">5.000000e-02</Option>
    <Option name="AdaBoostBeta" modified="No">1.000000e+00</Option>
    <Option name="UseRandomisedTrees" modified="No">False</Option>
    <Option name="UseNvars" modified="No">3</Option>
    <Option name="UsePoissonNvars" modified="No">True</Option>
    <Option name="UseNTrainEvents" modified="No">21831</Option>
    <Option name="UseWeightedTrees" modified="No">True</Option>
    <Option name="UseYesNoLeaf" modified="Yes">False</Option>
    <Option name="NodePurityLimit" modified="No">5.000000e-01</Option>
    <Option name="SeparationType" modified="No">giniindex</Option>
    <Option name="nEventsMin" modified="Yes">200</Option>
    <Option name="nCuts" modified="Yes">20000</Option>
    <Option name="UseFisherCuts" modified="No">False</Option>
    <Option name="MinLinCorrForFisher" modified="No">8.000000e-01</Option>
    <Option name="UseExclusiveVars" modified="No">False</Option>
    <Option name="PruneStrength" modified="No">0.000000e+00</Option>
    <Option name="PruneMethod" modified="No">nopruning</Option>
    <Option name="PruneBeforeBoost" modified="No">False</Option>
    <Option name="PruningValFraction" modified="No">5.000000e-01</Option>
    <Option name="NNodesMax" modified="No">100000</Option>
    <Option name="MaxDepth" modified="Yes">3</Option>
    <Option name="DoBoostMonitor" modified="No">False</Option>
    <Option name="NegWeightTreatment" modified="No">ignorenegweights</Option>
  </Options>
  <Variables NVar="6">
    <Variable VarIndex="0" Expression="ptmjj" Label="ptmjj" Title="ptmjj" Unit="" Internal="ptmjj" Type="F" Min="1.46048272e+00" Max="6.16153765e+00"/>
    <Variable VarIndex="1" Expression="pull1ang" Label="pull1ang" Title="pull1ang" Unit="" Internal="pull1ang" Type="F" Min="-3.14140987e+00" Max="3.14101887e+00"/>
    <Variable VarIndex="2" Expression="pull2ang" Label="pull2ang" Title="pull2ang" Unit="" Internal="pull2ang" Type="F" Min="-3.14138746e+00" Max="3.14156651e+00"/>
    <Variable VarIndex="3" Expression="qgid1" Label="qgid1" Title="qgid1" Unit="" Internal="qgid1" Type="F" Min="0.00000000e+00" Max="1.00000000e+00"/>
    <Variable VarIndex="4" Expression="qgid2" Label="qgid2" Title="qgid2" Unit="" Internal="qgid2" Type="F" Min="0.00000000e+00" Max="1.00000000e+00"/>
    <Variable VarIndex="5" Expression="mdrop" Label="mdrop" Title="mdrop" Unit="" Internal="mdrop" Type="F" Min="7.52857029e-02" Max="5.92119575e-01"/>
  </Variables>
  <Spectators NSpec="1">
    <Spectator SpecIndex="0" Expression="isSig" Label="isSig" Title="I" Unit="" Internal="isSig" Type="F" Min="0.00000000e+00" Max="1.00000000e+00"/>
  </Spectators>
  <Classes NClass="2">
    <Class Name="Signal" Index="0"/>
    <Class Name="Background" Index="1"/>
  </Classes>
  <Transformations NTransformations="0"/>
  <MVAPdfs/>
  <Weights NTrees="1000" AnalysisType="1">
    <BinaryTree type="DecisionTree" boostWeight="1.0000000000000000e+00" itree="0">
      <Node pos="s" depth="0" NCoef="0" IVar="5" Cut="2.7120763063430786e-01" cType="1" res="1.6666667163372040e-01" rms="4.7140452265739441e-01" purity="6.6666668653488159e-01" nType="0">
        <Node pos="l" depth="1" NCoef="0" IVar="4" Cut="2.9923504590988159e-01" cType="0" res="2.4777609109878540e-01" rms="4.3428909778594971e-01" purity="7.4777609109878540e-01" nType="0">
          <Node pos="l" depth="2" NCoef="0" IVar="0" Cut="1.6911879777908325e+00" cType="0" res="2.9490128159523010e-01" rms="4.0377375483512878e-01" purity="7.9490125179290771e-01" nType="0">
            <Node pos="l" depth="3" NCoef="0" IVar="-1" Cut="0.0000000000000000e+00" cType="1" res="3.0452704057097435e-02" rms="3.9656436443328857e-01" purity="8.0452704429626465e-01" nType="-99"/>
            <Node pos="r" depth="3" NCoef="0" IVar="-1" Cut="0.0000000000000000e+00" cType="1" res="4.2194093111902475e-04" rms="4.9998220801353455e-01" purity="5.0421941280364990e-01" nType="-99"/>
          </Node>
          <Node pos="r" depth="2" NCoef="0" IVar="5" Cut="2.0350268483161926e-01" cType="1" res="1.2241410464048386e-01" rms="4.8478323221206665e-01" purity="6.2241411209106445e-01" nType="0">
            <Node pos="l" depth="3" NCoef="0" IVar="-1" Cut="0.0000000000000000e+00" cType="1" res="1.9490061327815056e-02" rms="4.6044951677322388e-01" purity="6.9490063190460205e-01" nType="-99"/>
            <Node pos="r" depth="3" NCoef="0" IVar="-1" Cut="0.0000000000000000e+00" cType="1" res="7.0724189281463623e-03" rms="4.9497282505035400e-01" purity="5.7072418928146362e-01" nType="-99"/>
          </Node>
        </Node>
        <Node pos="r" depth="1" NCoef="0" IVar="4" Cut="4.8712563514709473e-01" cType="0" res="-4.2991815134882927e-03" rms="4.9998152256011963e-01" purity="4.9570080637931824e-01" nType="0">
          <Node pos="l" depth="2" NCoef="0" IVar="5" Cut="3.1541365385055542e-01" cType="1" res="7.9247437417507172e-02" rms="4.9367991089820862e-01" purity="5.7924741506576538e-01" nType="0">
            <Node pos="l" depth="3" NCoef="0" IVar="-1" Cut="0.0000000000000000e+00" cType="1" res="1.5049701556563377e-02" rms="4.7681301832199097e-01" purity="6.5049701929092407e-01" nType="-99"/>
            <Node pos="r" depth="3" NCoef="0" IVar="-1" Cut="0.0000000000000000e+00" cType="1" res="1.4015289489179850e-03" rms="4.9980354309082031e-01" purity="5.1401531696319580e-01" nType="-99"/>
          </Node>
          <Node pos="r" depth="2" NCoef="0" IVar="3" Cut="6.1646915972232819e-02" cType="0" res="-1.0441812872886658e-01" rms="4.8897531628608704e-01" purity="3.9558187127113342e-01" nType="0">
            <Node pos="l" depth="3" NCoef="0" IVar="-1" Cut="0.0000000000000000e+00" cType="1" res="-4.4752545654773712e-03" rms="4.9799317121505737e-01" purity="4.5524746179580688e-01" nType="-99"/>
            <Node pos="r" depth="3" NCoef="0" IVar="-1" Cut="0.0000000000000000e+00" cType="1" res="-2.1465629339218140e-02" rms="4.5157799124717712e-01" purity="2.8534370660781860e-01" nType="-99"/>
          </Node>
        </Node>
      </Node>
    </BinaryTree>
    <BinaryTree type="DecisionTree" boostWeight="1.0000000000000000e+00" itree="1">
      <Node pos="s" depth="0" NCoef="0" IVar="5" Cut="2.5751221179962158e-01" cType="1" res="1.5833564102649689e-01" rms="4.6887338161468506e-01" purity="6.6666668653488159e-01" nType="0">
        <Node pos="l" depth="1" NCoef="0" IVar="4" Cut="2.9923504590988159e-01" cType="0" res="2.4642626941204071e-01" rms="4.2677390575408936e-01" purity="7.5892955064773560e-01" nType="0">
          <Node pos="l" depth="2" NCoef="0" IVar="0" Cut="1.7252213954925537e+00" cType="0" res="2.8900861740112305e-01" rms="3.9679795503616333e-01" purity="8.0377078056335449e-01" nType="0">
            <Node pos="l" depth="3" NCoef="0" IVar="-1" Cut="0.0000000000000000e+00" cType="1" res="3.0039260163903236e-02" rms="3.8802486658096313e-01" purity="8.1533586978912354e-01" nType="-99"/>
            <Node pos="r" depth="3" NCoef="0" IVar="-1" Cut="0.0000000000000000e+00" cType="1" res="4.4679087586700916e-03" rms="4.9650874733924866e-01" purity="5.4931974411010742e-01" nType="-99"/>
          </Node>
          <Node pos="r" depth="2" NCoef="0" IVar="3" Cut="2.5668716430664062e-01" cType="0" res="1.3144797086715698e-01" rms="4.8029080033302307e-01" purity="6.3785189390182495e-01" nType="0">
            <Node pos="l" depth="3" NCoef="0" IVar="-1" Cut="0.0000000000000000e+00" cType="1" res="1.6244672238826752e-02" rms="4.7020938992500305e-01" purity="6.6915690898895264e-01" nType="-99"/>
            <Node pos="r" depth="3" NCoef="0" IVar="-1" Cut="0.0000000000000000e+00" cType="1" res="3.9424421265721321e-03" rms="4.9783679842948914e-01" purity="5.4480570554733276e-01" nType="-99"/>
          </Node>
        </Node>
        <Node pos="r" depth="1" NCoef="0" IVar="4" Cut="4.8712563514709473e-01" cType="0" res="1.5943190082907677e-02" rms="4.9796867370605469e-01" purity="5.1753008365631104e-01" nType="0">
          <Node pos="l" depth="2" NCoef="0" IVar="5" Cut="3.0201846361160278e-01" cType="1" res="9.6257731318473816e-02" rms="4.8868399858474731e-01" purity="6.0199397802352905e-01" nType="0">
            <Node pos="l" depth="3" NCoef="0" IVar="-1" Cut="0.0000000000000000e+00" cType="1" res="1.7572209239006042e-02" rms="4.6403962373733521e-01" purity="6.8569487333297729e-01" nType="-99"/>
            <Node pos="r" depth="3" NCoef="0" IVar="-1" Cut="0.0000000000000000e+00" cType="1" res="2.7057523839175701e-03" rms="4.9899670481681824e-01" purity="5.2902841567993164e-01" nType="-99"/>
          </Node>
          <Node pos="r" depth="2" NCoef="0" IVar="3" Cut="6.1346933245658875e-02" cType="0" res="-8.2659408450126648e-02" rms="4.9150565266609192e-01" purity="4.1383329033851624e-01" nType="0">
            <Node pos="l" depth="3" NCoef="0" IVar="-1" Cut="0.0000000000000000e+00" cType="1" res="-2.9623678419739008e-03" rms="4.9875524640083313e-01" purity="4.6967071294784546e-01" nType="-99"/>
            <Node pos="r" depth="3" NCoef="0" IVar="-1" Cut="0.0000000000000000e+00" cType="1" res="-1.9171565771102905e-02" rms="4.5735496282577515e-01" purity="2.9910978674888611e-01" nType="-99"/>
          </Node>
        </Node>
      </Node>
    </BinaryTree>
    <BinaryTree type="DecisionTree" boostWeight="1.0000000000000000e+00" itree="2">
      <Node pos="s" depth="0" NCoef="0" IVar="5" Cut="2.7957990765571594e-01" cType="1" res="1.5042716264724731e-01" rms="4.6653664112091064e-01" purity="6.6666668653488159e-01" nType="0">
        <Node pos="l" depth="1" NCoef="0" IVar="4" Cut="2.9923504590988159e-01" cType="0" res="2.1842814981937408e-01" rms="4.3544596433639526e-01" purity="7.4155300855636597e-01" nType="0">
          <Node pos="l" depth="2" NCoef="0" IVar="5" Cut="2.0631752908229828e-01" cType="1" res="2.6201850175857544e-01" rms="4.0642213821411133e-01" purity="7.8988224267959595e-01" nType="0">
            <Node pos="l" depth="3" NCoef="0" IVar="-1" Cut="0.0000000000000000e+00" cType="1" res="3.1676214188337326e-02" rms="3.6109670996665955e-01" purity="8.4513509273529053e-01" nType="-99"/>
            <Node pos="r" depth="3" NCoef="0" IVar="-1" Cut="0.0000000000000000e+00" cType="1" res="2.1044088527560234e-02" rms="4.3991699814796448e-01" purity="7.3608273267745972e-01" nType="-99"/>
          </Node>
          <Node pos="r" depth="2" NCoef="0" IVar="5" Cut="2.0350740849971771e-01" cType="1" res="1.0385249555110931e-01" rms="4.8550567030906677e-01" purity="6.1452132463455200e-01" nType="0">
            <Node pos="l" depth="3" NCoef="0" IVar="-1" Cut="0.0000000000000000e+00" cType="1" res="1.7824580892920494e-02" rms="4.6022269129753113e-01" purity="6.9490063190460205e-01" nType="-99"/>
            <Node pos="r" depth="3" NCoef="0" IVar="-1" Cut="0.0000000000000000e+00" cType="1" res="5.5745267309248447e-03" rms="4.9531880021095276e-01" purity="5.6237733364105225e-01" nType="-99"/>
          </Node>
        </Node>
        <Node pos="r" depth="1" NCoef="0" IVar="4" Cut="3.7278136610984802e-01" cType="0" res="-1.7113883048295975e-02" rms="4.9727910757064819e-01" purity="4.8216140270233154e-01" nType="0">
          <Node pos="l" depth="2" NCoef="0" IVar="5" Cut="3.4715190529823303e-01" cType="1" res="4.8451408743858337e-02" rms="4.9609294533729553e-01" purity="5.5352085828781128e-01" nType="0">
            <Node pos="l" depth="3" NCoef="0" IVar="-1" Cut="0.0000000000000000e+00" cType="1" res="9.5758130773901939e-03" rms="4.8856014013290405e-01" purity="6.0330337285995483e-01" nType="-99"/>
            <Node pos="r" depth="3" NCoef="0" IVar="-1" Cut="0.0000000000000000e+00" cType="1" res="-3.9898669347167015e-03" rms="4.9799031019210815e-01" purity="4.6045503020286560e-01" nType="-99"/>
          </Node>
          <Node pos="r" depth="2" NCoef="0" IVar="3" Cut="6.1346933245658875e-02" cType="0" res="-1.2035387754440308e-01" rms="4.8136723041534424e-01" purity="3.6979785561561584e-01" nType="0">
            <Node pos="l" depth="3" NCoef="0" IVar="-1" Cut="0.0000000000000000e+00" cType="1" res="-5.9698051773011684e-03" rms="4.9596244096755981e-01" purity="4.3658652901649475e-01" nType="-99"/>
            <Node pos="r" depth="3" NCoef="0" IVar="-1" Cut="0.0000000000000000e+00" cType="1" res="-2.2422980517148972e-02" rms="4.3632820248603821e-01" purity="2.5583267211914062e-01" nType="-99"/>
          </Node>
        </Node>
      </Node>
    </BinaryTree>
    <BinaryTree type="DecisionTree" boostWeight="1.0000000000000000e+00" itree="3">
      <Node pos="s" depth="0" NCoef="0" IVar="5" Cut="2.5751221179962158e-01" cType="1" res="1.4291815459728241e-01" rms="4.6439597010612488e-01" purity="6.6666668653488159e-01" nType="0">
        <Node pos="l" depth="1" NCoef="0" IVar="4" Cut="4.7677615284919739e-01" cType="0" res="2.2279027104377747e-01" rms="4.2507657408714294e-01" purity="7.5892955064773560e-01" nType="0">
          <Node pos="l" depth="2" NCoef="0" IVar="0" Cut="1.6928309202194214e+00" cType="0" res="2.7064043283462524e-01" rms="3.8865354657173157e-01" purity="8.1336718797683716e-01" nType="0">
            <Node pos="l" depth="3" NCoef="0" IVar="-1" Cut="0.0000000000000000e+00" cType="1" res="2.8167121112346649e-02" rms="3.8126352429389954e-01" purity="8.2308834791183472e-01" nType="-99"/>
            <Node pos="r" depth="3" NCoef="0" IVar="-1" Cut="0.0000000000000000e+00" cType="1" res="-1.9603576511144638e-03" rms="5.0015586614608765e-01" purity="4.9572649598121643e-01" nType="-99"/>
          </Node>
          <Node pos="r" depth="2" NCoef="0" IVar="3" Cut="2.3133842647075653e-01" cType="0" res="1.3855005800724030e-01" rms="4.7089424729347229e-01" purity="6.6309201717376709e-01" nType="0">
            <Node pos="l" depth="3" NCoef="0" IVar="-1" Cut="0.0000000000000000e+00" cType="1" res="1.6839498654007912e-02" rms="4.5923107862472534e-01" purity="6.9421327114105225e-01" nType="-99"/>
            <Node pos="r" depth="3" NCoef="0" IVar="-1" Cut="0.0000000000000000e+00" cType="1" res="4.0809772908687592e-03" rms="4.9551960825920105e-01" purity="5.5914676189422607e-01" nType="-99"/>
          </Node>
        </Node>
        <Node pos="r" depth="1" NCoef="0" IVar="4" Cut="4.8712563514709473e-01" cType="0" res="1.3810371048748493e-02" rms="4.9519184231758118e-01" purity="5.1753008365631104e-01" nType="0">
          <Node pos="l" depth="2" NCoef="0" IVar="5" Cut="3.0277130007743835e-01" cType="1" res="8.6917549371719360e-02" rms="4.8745507001876831e-01" purity="6.0199397802352905e-01" nType="0">
            <Node pos="l" depth="3" NCoef="0" IVar="-1" Cut="0.0000000000000000e+00" cType="1" res="1.5851799398660660e-02" rms="4.6429949998855591e-01" purity="6.8466955423355103e-01" nType="-99"/>
            <Node pos="r" depth="3" NCoef="0" IVar="-1" Cut="0.0000000000000000e+00" cType="1" res="2.3401887156069279e-03" rms="4.9873942136764526e-01" purity="5.2816057205200195e-01" nType="-99"/>
          </Node>
          <Node pos="r" depth="2" NCoef="0" IVar="5" Cut="3.3820244669914246e-01" cType="1" res="-7.5943708419799805e-02" rms="4.8982766270637512e-01" purity="4.1383329033851624e-01" nType="0">
            <Node pos="l" depth="3" NCoef="0" IVar="-1" Cut="0.0000000000000000e+00" cType="1" res="-2.6920042000710964e-03" rms="4.9695280194282532e-01" purity="4.6655133366584778e-01" nType="-99"/>
            <Node pos="r" depth="3" NCoef="0" IVar="-1" Cut="0.0000000000000000e+00" cType="1" res="-1.7758175730705261e-02" rms="4.5844975113868713e-01" purity="3.0494341254234314e-01" nType="-99"/>
          </Node>
        </Node>
      </Node>
    </BinaryTree>
    <BinaryTree type="DecisionTree" boostWeight="1.0000000000000000e+00" itree="4">
      <Node pos="s" depth="0" NCoef="0" IVar="5" Cut="2.7957990765571594e-01" cType="1" res="1.3578853011131287e-01" rms="4.6242699027061462e-01" purity="6.6666668653488159e-01" nType="0">
        <Node pos="l" depth="1" NCoef="0" IVar="4" Cut="2.9923504590988159e-01" cType="0" res="1.9734008610248566e-01" rms="4.3358170986175537e-01" purity="7.4155300855636597e-01" nType="0">
          <Node pos="l" depth="2" NCoef="0" IVar="5" Cut="2.0631752908229828e-01" cType="1" res="2.3703521490097046e-01" rms="4.0551668405532837e-01" purity="7.8988224267959595e-01" nType="0">
            <Node pos="l" depth="3" NCoef="0" IVar="-1" Cut="0.0000000000000000e+00" cType="1" res="2.9093727469444275e-02" rms="3.6071354150772095e-01" purity="8.4513509273529053e-01" nType="-99"/>
            <Node pos="r" depth="3" NCoef="0" IVar="-1" Cut="0.0000000000000000e+00" cType="1" res="1.9026130437850952e-02" rms="4.3941122293472290e-01" purity="7.3608273267745972e-01" nType="-99"/>
          </Node>
          <Node pos="r" depth="2" NCoef="0" IVar="5" Cut="2.0350740849971771e-01" cType="1" res="9.3002863228321075e-02" rms="4.8462742567062378e-01" purity="6.1452132463455200e-01" nType="0">
            <Node pos="l" depth="3" NCoef="0" IVar="-1" Cut="0.0000000000000000e+00" cType="1" res="1.6244018450379372e-02" rms="4.6000769734382629e-01" purity="6.9490063190460205e-01" nType="-99"/>
            <Node pos="r" depth="3" NCoef="0" IVar="-1" Cut="0.0000000000000000e+00" cType="1" res="4.8488853499293327e-03" rms="4.9487537145614624e-01" purity="5.6237733364105225e-01" nType="-99"/>
          </Node>
        </Node>
        <Node pos="r" depth="1" NCoef="0" IVar="4" Cut="3.7278136610984802e-01" cType="0" res="-1.5862436965107918e-02" rms="4.9516144394874573e-01" purity="4.8216140270233154e-01" nType="0">
          <Node pos="l" depth="2" NCoef="0" IVar="5" Cut="3.5910499095916748e-01" cType="1" res="4.3806172907352448e-02" rms="4.9520808458328247e-01" purity="5.5352085828781128e-01" nType="0">
            <Node pos="l" depth="3" NCoef="0" IVar="-1" Cut="0.0000000000000000e+00" cType="1" res="8.1229759380221367e-03" rms="4.8971453309059143e-01" purity="5.9523808956146240e-01" nType="-99"/>
            <Node pos="r" depth="3" NCoef="0" IVar="-1" Cut="0.0000000000000000e+00" cType="1" res="-5.2878852002322674e-03" rms="4.9628603458404541e-01" purity="4.4542372226715088e-01" nType="-99"/>
          </Node>
          <Node pos="r" depth="2" NCoef="0" IVar="3" Cut="6.1046946793794632e-02" cType="0" res="-1.0981743782758713e-01" rms="4.8028993606567383e-01" purity="3.6979785561561584e-01" nType="0">
            <Node pos="l" depth="3" NCoef="0" IVar="-1" Cut="0.0000000000000000e+00" cType="1" res="-5.2897171117365360e-03" rms="4.9564456939697266e-01" purity="4.3644067645072937e-01" nType="-99"/>
            <Node pos="r" depth="3" NCoef="0" IVar="-1" Cut="0.0000000000000000e+00" cType="1" res="-2.0851569250226021e-02" rms="4.3582144379615784e-01" purity="2.5564515590667725e-01" nType="-99"/>
          </Node>
        </Node>
      </Node>
    </BinaryTree>
    <BinaryTree type="DecisionTree" boostWeight="1.0000000000000000e+00" itree="5">
      <Node pos="s" depth="0" NCoef="0" IVar="5" Cut="2.5751221179962158e-01" cType="1" res="1.2901732325553894e-01" rms="4.6063789725303650e-01" purity="6.6666668653488159e-01" nType="0">
        <Node pos="l" depth="1" NCoef="0" IVar="4" Cut="6.5901702642440796e-01" cType="0" res="2.0144604146480560e-01" rms="4.2361697554588318e-01" purity="7.5892955064773560e-01" nType="0">
          <Node pos="l" depth="2" NCoef="0" IVar="0" Cut="1.7251231670379639e+00" cType="0" res="2.5523716211318970e-01" rms="3.7951806187629700e-01" purity="8.2387673854827881e-01" nType="0">
            <Node pos="l" depth="3" NCoef="0" IVar="-1" Cut="0.0000000000000000e+00" cType="1" res="2.6949346065521240e-02" rms="3.7141701579093933e-01" purity="8.3416509628295898e-01" nType="-99"/>
            <Node pos="r" depth="3" NCoef="0" IVar="-1" Cut="0.0000000000000000e+00" cType="1" res="2.5810925289988518e-03" rms="4.9528115987777710e-01" purity="5.6000000238418579e-01" nType="-99"/>
          </Node>
          <Node pos="r" depth="2" NCoef="0" IVar="0" Cut="1.7004595994949341e+00" cType="0" res="1.3851025700569153e-01" rms="4.6210765838623047e-01" purity="6.8294107913970947e-01" nType="0">
            <Node pos="l" depth="3" NCoef="0" IVar="-1" Cut="0.0000000000000000e+00" cType="1" res="1.5195736661553383e-02" rms="4.5707580447196960e-01" purity="6.9577568769454956e-01" nType="-99"/>
            <Node pos="r" depth="3" NCoef="0" IVar="-1" Cut="0.0000000000000000e+00" cType="1" res="-7.9381130635738373e-03" rms="4.9773347377777100e-01" purity="4.4943821430206299e-01" nType="-99"/>
          </Node>
        </Node>
        <Node pos="r" depth="1" NCoef="0" IVar="4" Cut="4.8712563514709473e-01" cType="0" res="1.1941269040107727e-02" rms="4.9286526441574097e-01" purity="5.1753008365631104e-01" nType="0">
          <Node pos="l" depth="2" NCoef="0" IVar="3" Cut="3.8348082453012466e-02" cType="0" res="7.8500136733055115e-02" rms="4.8643082380294800e-01" purity="6.0199397802352905e-01" nType="0">
            <Node pos="l" depth="3" NCoef="0" IVar="-1" Cut="0.0000000000000000e+00" cType="1" res="1.1330662295222282e-02" rms="4.7794777154922485e-01" purity="6.3864189386367798e-01" nType="-99"/>
            <Node pos="r" depth="3" NCoef="0" IVar="-1" Cut="0.0000000000000000e+00" cType="1" res="-4.5575569383800030e-03" rms="4.9649986624717712e-01" purity="4.6973013877868652e-01" nType="-99"/>
          </Node>
          <Node pos="r" depth="2" NCoef="0" IVar="5" Cut="3.2744911313056946e-01" cType="1" res="-6.9773413240909576e-02" rms="4.8840159177780151e-01" purity="4.1383329033851624e-01" nType="0">
            <Node pos="l" depth="3" NCoef="0" IVar="-1" Cut="0.0000000000000000e+00" cType="1" res="-1.7656921409070492e-03" rms="4.9678009748458862e-01" purity="4.7464114427566528e-01" nType="-99"/>
            <Node pos="r" depth="3" NCoef="0" IVar="-1" Cut="0.0000000000000000e+00" cType="1" res="-1.5173753723502159e-02" rms="4.6350455284118652e-01" purity="3.1908547878265381e-01" nType="-99"/>
          </Node>
        </Node>
      </Node>
    </BinaryTree>
    <BinaryTree type="DecisionTree" boostWeight="1.0000000000000000e+00" itree="6">
      <Node pos="s" depth="0" NCoef="0" IVar="5" Cut="2.7957990765571594e-01" cType="1" res="1.2258643656969070e-01" rms="4.5898234844207764e-01" purity="6.6666668653488159e-01" nType="0">
        <Node pos="l" depth="1" NCoef="0" IVar="4" Cut="1.3539323210716248e-01" cType="0" res="1.7847314476966858e-01" rms="4.3198561668395996e-01" purity="7.4155300855636597e-01" nType="0">
          <Node pos="l" depth="2" NCoef="0" IVar="5" Cut="2.0690500736236572e-01" cType="1" res="2.0549933612346649e-01" rms="4.1377744078636169e-01" purity="7.7500140666961670e-01" nType="0">
            <Node pos="l" depth="3" NCoef="0" IVar="-1" Cut="0.0000000000000000e+00" cType="1" res="2.5967860594391823e-02" rms="3.7120756506919861e-01" purity="8.3247154951095581e-01" nType="-99"/>
            <Node pos="r" depth="3" NCoef="0" IVar="-1" Cut="0.0000000000000000e+00" cType="1" res="1.6245182603597641e-02" rms="4.4629728794097900e-01" purity="7.1958786249160767e-01" nType="-99"/>
          </Node>
          <Node pos="r" depth="2" NCoef="0" IVar="3" Cut="2.5668716430664062e-01" cType="0" res="4.5745417475700378e-02" rms="4.9095574021339417e-01" purity="5.7728528976440430e-01" nType="0">
            <Node pos="l" depth="3" NCoef="0" IVar="-1" Cut="0.0000000000000000e+00" cType="1" res="8.2893883809447289e-03" rms="4.8345085978507996e-01" purity="6.1912167072296143e-01" nType="-99"/>
            <Node pos="r" depth="3" NCoef="0" IVar="-1" Cut="0.0000000000000000e+00" cType="1" res="-4.5228064991533756e-03" rms="4.9759054183959961e-01" purity="4.7348120808601379e-01" nType="-99"/>
          </Node>
        </Node>
        <Node pos="r" depth="1" NCoef="0" IVar="4" Cut="3.7278136610984802e-01" cType="0" res="-1.5107427723705769e-02" rms="4.9322640895843506e-01" purity="4.8216140270233154e-01" nType="0">
          <Node pos="l" depth="2" NCoef="0" IVar="3" Cut="2.2828859090805054e-01" cType="0" res="3.8858905434608459e-02" rms="4.9431025981903076e-01" purity="5.5352085828781128e-01" nType="0">
            <Node pos="l" depth="3" NCoef="0" IVar="-1" Cut="0.0000000000000000e+00" cType="1" res="1.0260440409183502e-02" rms="4.8275950551033020e-01" purity="6.2336564064025879e-01" nType="-99"/>
            <Node pos="r" depth="3" NCoef="0" IVar="-1" Cut="0.0000000000000000e+00" cType="1" res="-1.2590028345584869e-03" rms="4.9757319688796997e-01" purity="4.9692413210868835e-01" nType="-99"/>
          </Node>
          <Node pos="r" depth="2" NCoef="0" IVar="3" Cut="6.1346933245658875e-02" cType="0" res="-1.0008354485034943e-01" rms="4.7935387492179871e-01" purity="3.6979785561561584e-01" nType="0">
            <Node pos="l" depth="3" NCoef="0" IVar="-1" Cut="0.0000000000000000e+00" cType="1" res="-4.6415654942393303e-03" rms="4.9536085128784180e-01" purity="4.3658652901649475e-01" nType="-99"/>
            <Node pos="r" depth="3" NCoef="0" IVar="-1" Cut="0.0000000000000000e+00" cType="1" res="-1.9393036141991615e-02" rms="4.3568953871726990e-01" purity="2.5583267211914062e-01" nType="-99"/>
          </Node>
        </Node>
      </Node>
    </BinaryTree>
    <BinaryTree type="DecisionTree" boostWeight="1.0000000000000000e+00" itree="7">
      <Node pos="s" depth="0" NCoef="0" IVar="5" Cut="2.5588425993919373e-01" cType="1" res="1.1647740751504898e-01" rms="4.5746383070945740e-01" purity="6.6666668653488159e-01" nType="0">
        <Node pos="l" depth="1" NCoef="0" IVar="4" Cut="6.5901702642440796e-01" cType="0" res="1.8333959579467773e-01" rms="4.2161408066749573e-01" purity="7.6024699211120605e-01" nType="0">
          <Node pos="l" depth="2" NCoef="0" IVar="0" Cut="1.6775068044662476e+00" cType="0" res="2.3289406299591064e-01" rms="3.7814834713935852e-01" purity="8.2498735189437866e-01" nType="0">
            <Node pos="l" depth="3" NCoef="0" IVar="-1" Cut="0.0000000000000000e+00" cType="1" res="2.4822862818837166e-02" rms="3.7221723794937134e-01" purity="8.3290171623229980e-01" nType="-99"/>
            <Node pos="r" depth="3" NCoef="0" IVar="-1" Cut="0.0000000000000000e+00" cType="1" res="-4.2099310085177422e-03" rms="5.0087088346481323e-01" purity="4.9568966031074524e-01" nType="-99"/>
          </Node>
          <Node pos="r" depth="2" NCoef="0" IVar="3" Cut="2.4163791537284851e-01" cType="0" res="1.2511472404003143e-01" rms="4.6079012751579285e-01" purity="6.8417924642562866e-01" nType="0">
            <Node pos="l" depth="3" NCoef="0" IVar="-1" Cut="0.0000000000000000e+00" cType="1" res="1.5446858480572701e-02" rms="4.4816800951957703e-01" purity="7.1468228101730347e-01" nType="-99"/>
            <Node pos="r" depth="3" NCoef="0" IVar="-1" Cut="0.0000000000000000e+00" cType="1" res="3.5986313596367836e-03" rms="4.9039757251739502e-01" purity="5.8164852857589722e-01" nType="-99"/>
          </Node>
        </Node>
        <Node pos="r" depth="1" NCoef="0" IVar="4" Cut="4.8712563514709473e-01" cType="0" res="1.1927395127713680e-02" rms="4.9054101109504700e-01" purity="5.2033841609954834e-01" nType="0">
          <Node pos="l" depth="2" NCoef="0" IVar="3" Cut="2.3318834602832794e-01" cType="0" res="7.3350034654140472e-02" rms="4.8456022143363953e-01" purity="6.0532838106155396e-01" nType="0">
            <Node pos="l" depth="3" NCoef="0" IVar="-1" Cut="0.0000000000000000e+00" cType="1" res="1.3720463961362839e-02" rms="4.6477580070495605e-01" purity="6.7754077911376953e-01" nType="-99"/>
            <Node pos="r" depth="3" NCoef="0" IVar="-1" Cut="0.0000000000000000e+00" cType="1" res="1.2240308569744229e-03" rms="4.9552544951438904e-01" purity="5.3488373756408691e-01" nType="-99"/>
          </Node>
          <Node pos="r" depth="2" NCoef="0" IVar="3" Cut="3.8398079574108124e-02" cType="0" res="-6.3662499189376831e-02" rms="4.8728916049003601e-01" purity="4.1574531793594360e-01" nType="0">
            <Node pos="l" depth="3" NCoef="0" IVar="-1" Cut="0.0000000000000000e+00" cType="1" res="-2.9117579106241465e-03" rms="4.9515095353126526e-01" purity="4.5983380079269409e-01" nType="-99"/>
            <Node pos="r" depth="3" NCoef="0" IVar="-1" Cut="0.0000000000000000e+00" cType="1" res="-1.7364218831062317e-02" rms="4.4500958919525146e-01" purity="2.7843138575553894e-01" nType="-99"/>
          </Node>
        </Node>
      </Node>
    </BinaryTree>
    <BinaryTree type="DecisionTree" boostWeight="1.0000000000000000e+00" itree="8">
      <Node pos="s" depth="0" NCoef="0" IVar="5" Cut="2.9177659749984741e-01" cType="1" res="1.1067562550306320e-01" rms="4.5605459809303284e-01" purity="6.6666668653488159e-01" nType="0">
        <Node pos="l" depth="1" NCoef="0" IVar="4" Cut="1.5714214742183685e-01" cType="0" res="1.5629793703556061e-01" rms="4.3442815542221069e-01" purity="7.3253297805786133e-01" nType="0">
          <Node pos="l" depth="2" NCoef="0" IVar="3" Cut="1.4719264209270477e-01" cType="0" res="1.8341834843158722e-01" rms="4.1596701741218567e-01" purity="7.6924753189086914e-01" nType="0">
            <Node pos="l" depth="3" NCoef="0" IVar="-1" Cut="0.0000000000000000e+00" cType="1" res="2.1182985976338387e-02" rms="4.0028789639472961e-01" purity="7.9348623752593994e-01" nType="-99"/>
            <Node pos="r" depth="3" NCoef="0" IVar="-1" Cut="0.0000000000000000e+00" cType="1" res="9.0488446876406670e-03" rms="4.6871808171272278e-01" purity="6.5986800193786621e-01" nType="-99"/>
          </Node>
          <Node pos="r" depth="2" NCoef="0" IVar="5" Cut="2.3808865249156952e-01" cType="1" res="3.9784077554941177e-02" rms="4.8932519555091858e-01" purity="5.7480132579803467e-01" nType="0">
            <Node pos="l" depth="3" NCoef="0" IVar="-1" Cut="0.0000000000000000e+00" cType="1" res="8.1186862662434578e-03" rms="4.8076775670051575e-01" purity="6.2935584783554077e-01" nType="-99"/>
            <Node pos="r" depth="3" NCoef="0" IVar="-1" Cut="0.0000000000000000e+00" cType="1" res="-4.0507405065000057e-03" rms="4.9615961313247681e-01" purity="4.6694502234458923e-01" nType="-99"/>
          </Node>
        </Node>
        <Node pos="r" depth="1" NCoef="0" IVar="4" Cut="4.8712563514709473e-01" cType="0" res="-3.0093066394329071e-02" rms="4.9108931422233582e-01" purity="4.6343457698822021e-01" nType="0">
          <Node pos="l" depth="2" NCoef="0" IVar="3" Cut="2.2898854687809944e-02" cType="0" res="2.6333335787057877e-02" rms="4.9548000097274780e-01" purity="5.4607594013214111e-01" nType="0">
            <Node pos="l" depth="3" NCoef="0" IVar="-1" Cut="0.0000000000000000e+00" cType="1" res="5.2997432649135590e-03" rms="4.9264377355575562e-01" purity="5.7612401247024536e-01" nType="-99"/>
            <Node pos="r" depth="3" NCoef="0" IVar="-1" Cut="0.0000000000000000e+00" cType="1" res="-9.1597205027937889e-03" rms="4.9086171388626099e-01" purity="4.1241380572319031e-01" nType="-99"/>
          </Node>
          <Node pos="r" depth="2" NCoef="0" IVar="3" Cut="1.0739462822675705e-01" cType="0" res="-9.5782510936260223e-02" rms="4.7760254144668579e-01" purity="3.6722663044929504e-01" nType="0">
            <Node pos="l" depth="3" NCoef="0" IVar="-1" Cut="0.0000000000000000e+00" cType="1" res="-4.1110436432063580e-03" rms="4.9554726481437683e-01" purity="4.4013881683349609e-01" nType="-99"/>
            <Node pos="r" depth="3" NCoef="0" IVar="-1" Cut="0.0000000000000000e+00" cType="1" res="-1.5490090474486351e-02" rms="4.5123037695884705e-01" purity="2.9146635532379150e-01" nType="-99"/>
          </Node>
        </Node>
      </Node>
    </BinaryTree>
    <BinaryTree type="DecisionTree" boostWeight="1.0000000000000000e+00" itree="9">
      <Node pos="s" depth="0" NCoef="0" IVar="5" Cut="2.8415367007255554e-01" cType="1" res="1.0516202449798584e-01" rms="4.5476818084716797e-01" purity="6.6666668653488159e-01" nType="0">
        <Node pos="l" depth="1" NCoef="0" IVar="4" Cut="6.6496676206588745e-01" cType="0" res="1.5175199508666992e-01" rms="4.3143576383590698e-01" purity="7.3815304040908813e-01" nType="0">
          <Node pos="l" depth="2" NCoef="0" IVar="0" Cut="1.6500506401062012e+00" cType="0" res="2.0292322337627411e-01" rms="3.8923773169517517e-01" purity="8.0990874767303467e-01" nType="0">
            <Node pos="l" depth="3" NCoef="0" IVar="-1" Cut="0.0000000000000000e+00" cType="1" res="2.1914040669798851e-02" rms="3.8458856940269470e-01" purity="8.1677901744842529e-01" nType="-99"/>
            <Node pos="r" depth="3" NCoef="0" IVar="-1" Cut="0.0000000000000000e+00" cType="1" res="-7.7306912280619144e-03" rms="4.9896055459976196e-01" purity="4.7161573171615601e-01" nType="-99"/>
          </Node>
          <Node pos="r" depth="2" NCoef="0" IVar="5" Cut="2.3044215142726898e-01" cType="1" res="9.4793289899826050e-02" rms="4.6746703982353210e-01" purity="6.5828174352645874e-01" nType="0">
            <Node pos="l" depth="3" NCoef="0" IVar="-1" Cut="0.0000000000000000e+00" cType="1" res="1.3867945410311222e-02" rms="4.4821113348007202e-01" purity="7.1163654327392578e-01" nType="-99"/>
            <Node pos="r" depth="3" NCoef="0" IVar="-1" Cut="0.0000000000000000e+00" cType="1" res="2.7702730149030685e-03" rms="4.9069797992706299e-01" purity="5.6895214319229126e-01" nType="-99"/>
          </Node>
        </Node>
        <Node pos="r" depth="1" NCoef="0" IVar="4" Cut="9.3225336074829102e-01" cType="0" res="-1.9555635750293732e-02" rms="4.9071416258811951e-01" purity="4.7530335187911987e-01" nType="0">
          <Node pos="l" depth="2" NCoef="0" IVar="3" Cut="9.1683380305767059e-02" cType="0" res="1.0737625509500504e-01" rms="4.7933676838874817e-01" purity="6.3211381435394287e-01" nType="0">
            <Node pos="l" depth="3" NCoef="0" IVar="-1" Cut="0.0000000000000000e+00" cType="1" res="1.6371071338653564e-02" rms="4.5784860849380493e-01" purity="6.9753807783126831e-01" nType="-99"/>
            <Node pos="r" depth="3" NCoef="0" IVar="-1" Cut="0.0000000000000000e+00" cType="1" res="3.1593653839081526e-03" rms="4.9738094210624695e-01" purity="5.4253613948822021e-01" nType="-99"/>
          </Node>
          <Node pos="r" depth="2" NCoef="0" IVar="3" Cut="5.2747361361980438e-02" cType="0" res="-4.7589670866727829e-02" rms="4.8876747488975525e-01" purity="4.4067037105560303e-01" nType="0">
            <Node pos="l" depth="3" NCoef="0" IVar="-1" Cut="0.0000000000000000e+00" cType="1" res="-8.9345668675377965e-04" rms="4.9547666311264038e-01" purity="4.9292662739753723e-01" nType="-99"/>
            <Node pos="r" depth="3" NCoef="0" IVar="-1" Cut="0.0000000000000000e+00" cType="1" res="-1.3038102537393570e-02" rms="4.6405518054962158e-01" purity="3.3117184042930603e-01" nType="-99"/>
          </Node>
        </Node>
      </Node>
    </BinaryTree>
    <BinaryTree type="DecisionTree" boostWeight="1.0000000000000000e+00" itree="10">
      <Node pos="s" depth="0" NCoef="0" IVar="5" Cut="2.5588425993919373e-01" cType="1" res="9.9926009774208069e-02" rms="4.5356431603431702e-01" purity="6.6666668653488159e-01" nType="0">
        <Node pos="l" depth="1" NCoef="0" IVar="4" Cut="2.5478726625442505e-01" cType="0" res="1.5813663601875305e-01" rms="4.2015284299850464e-01" purity="7.6024699211120605e-01" nType="0">
          <Node pos="l" depth="2" NCoef="0" IVar="0" Cut="1.7308545112609863e+00" cType="0" res="1.8527917563915253e-01" rms="3.9540556073188782e-01" purity="8.0137532949447632e-01" nType="0">
            <Node pos="l" depth="3" NCoef="0" IVar="-1" Cut="0.0000000000000000e+00" cType="1" res="2.0620325580239296e-02" rms="3.8779228925704956e-01" purity="8.1294584274291992e-01" nType="-99"/>
            <Node pos="r" depth="3" NCoef="0" IVar="-1" Cut="0.0000000000000000e+00" cType="1" res="-3.8969604065641761e-04" rms="4.9215173721313477e-01" purity="5.6200939416885376e-01" nType="-99"/>
          </Node>
          <Node pos="r" depth="2" NCoef="0" IVar="0" Cut="1.7396390438079834e+00" cType="0" res="7.4493013322353363e-02" rms="4.7901794314384460e-01" purity="6.3350433111190796e-01" nType="0">
            <Node pos="l" depth="3" NCoef="0" IVar="-1" Cut="0.0000000000000000e+00" cType="1" res="8.9742094278335571e-03" rms="4.7479671239852905e-01" purity="6.4832246303558350e-01" nType="-99"/>
            <Node pos="r" depth="3" NCoef="0" IVar="-1" Cut="0.0000000000000000e+00" cType="1" res="-9.5098419114947319e-03" rms="4.9775749444961548e-01" purity="4.5294117927551270e-01" nType="-99"/>
          </Node>
        </Node>
        <Node pos="r" depth="1" NCoef="0" IVar="4" Cut="7.1106445789337158e-01" cType="0" res="8.9041339233517647e-03" rms="4.8763090372085571e-01" purity="5.2033841609954834e-01" nType="0">
          <Node pos="l" depth="2" NCoef="0" IVar="3" Cut="2.3320773243904114e-01" cType="0" res="8.1389613449573517e-02" rms="4.7777941823005676e-01" purity="6.2580645084381104e-01" nType="0">
            <Node pos="l" depth="3" NCoef="0" IVar="-1" Cut="0.0000000000000000e+00" cType="1" res="1.4013029634952545e-02" rms="4.5509445667266846e-01" purity="6.9922876358032227e-01" nType="-99"/>
            <Node pos="r" depth="3" NCoef="0" IVar="-1" Cut="0.0000000000000000e+00" cType="1" res="2.8472824487835169e-03" rms="4.9239626526832581e-01" purity="5.5645489692687988e-01" nType="-99"/>
          </Node>
          <Node pos="r" depth="2" NCoef="0" IVar="3" Cut="3.8398079574108124e-02" cType="0" res="-4.1595026850700378e-02" rms="4.8805660009384155e-01" purity="4.4686093926429749e-01" nType="0">
            <Node pos="l" depth="3" NCoef="0" IVar="-1" Cut="0.0000000000000000e+00" cType="1" res="-9.1568107018247247e-04" rms="4.9388444423675537e-01" purity="4.9222895503044128e-01" nType="-99"/>
            <Node pos="r" depth="3" NCoef="0" IVar="-1" Cut="0.0000000000000000e+00" cType="1" res="-1.5011071227490902e-02" rms="4.5271787047386169e-01" purity="2.9919803142547607e-01" nType="-99"/>
          </Node>
        </Node>
      </Node>
    </BinaryTree>
    <BinaryTree type="DecisionTree" boostWeight="1.0000000000000000e+00" itree="11">
      <Node pos="s" depth="0" NCoef="0" IVar="5" Cut="2.9456734657287598e-01" cType="1" res="9.4952061772346497e-02" rms="4.5244494080543518e-01" purity="6.6666668653488159e-01" nType="0">
        <Node pos="l" depth="1" NCoef="0" IVar="4" Cut="1.3384330272674561e-01" cType="0" res="1.3350348174571991e-01" rms="4.3343245983123779e-01" purity="7.3024022579193115e-01" nType="0">
          <Node pos="l" depth="2" NCoef="0" IVar="5" Cut="2.0691093802452087e-01" cType="1" res="1.5621457993984222e-01" rms="4.1742733120918274e-01" purity="7.6408028602600098e-01" nType="0">
            <Node pos="l" depth="3" NCoef="0" IVar="-1" Cut="0.0000000000000000e+00" cType="1" res="2.1783323958516121e-02" rms="3.7037897109985352e-01" purity="8.3216702938079834e-01" nType="-99"/>
            <Node pos="r" depth="3" NCoef="0" IVar="-1" Cut="0.0000000000000000e+00" cType="1" res="1.2166999280452728e-02" rms="4.4947636127471924e-01" purity="7.0684665441513062e-01" nType="-99"/>
          </Node>
          <Node pos="r" depth="2" NCoef="0" IVar="3" Cut="2.6233687996864319e-01" cType="0" res="2.2038668394088745e-02" rms="4.8963749408721924e-01" purity="5.6415528059005737e-01" nType="0">
            <Node pos="l" depth="3" NCoef="0" IVar="-1" Cut="0.0000000000000000e+00" cType="1" res="5.8511262759566307e-03" rms="4.8355537652969360e-01" purity="6.1183476448059082e-01" nType="-99"/>
            <Node pos="r" depth="3" NCoef="0" IVar="-1" Cut="0.0000000000000000e+00" cType="1" res="-5.7872179895639420e-03" rms="4.9377256631851196e-01" purity="4.5757070183753967e-01" nType="-99"/>
          </Node>
        </Node>
        <Node pos="r" depth="1" NCoef="0" IVar="4" Cut="3.6108195781707764e-01" cType="0" res="-3.1152356415987015e-02" rms="4.8891338706016541e-01" purity="4.5871299505233765e-01" nType="0">
          <Node pos="l" depth="2" NCoef="0" IVar="3" Cut="2.2898854687809944e-02" cType="0" res="1.2714072130620480e-02" rms="4.9445489048957825e-01" purity="5.2814954519271851e-01" nType="0">
            <Node pos="l" depth="3" NCoef="0" IVar="-1" Cut="0.0000000000000000e+00" cType="1" res="3.6339904181659222e-03" rms="4.9330082535743713e-01" purity="5.5836409330368042e-01" nType="-99"/>
            <Node pos="r" depth="3" NCoef="0" IVar="-1" Cut="0.0000000000000000e+00" cType="1" res="-8.9172301813960075e-03" rms="4.8652961850166321e-01" purity="3.9729398488998413e-01" nType="-99"/>
          </Node>
          <Node pos="r" depth="2" NCoef="0" IVar="2" Cut="-2.1850972175598145e+00" cType="0" res="-1.0182785987854004e-01" rms="4.7133988142013550e-01" purity="3.4684014320373535e-01" nType="0">
            <Node pos="l" depth="3" NCoef="0" IVar="-1" Cut="0.0000000000000000e+00" cType="1" res="-8.0361096188426018e-03" rms="4.7780185937881470e-01" purity="3.6975914239883423e-01" nType="-99"/>
            <Node pos="r" depth="3" NCoef="0" IVar="-1" Cut="0.0000000000000000e+00" cType="1" res="-2.1840168163180351e-02" rms="4.1961777210235596e-01" purity="2.3214285075664520e-01" nType="-99"/>
          </Node>
        </Node>
      </Node>
    </BinaryTree>
    <BinaryTree type="DecisionTree" boostWeight="1.0000000000000000e+00" itree="12">
      <Node pos="s" depth="0" NCoef="0" IVar="5" Cut="2.9177659749984741e-01" cType="1" res="9.0225391089916229e-02" rms="4.5142254233360291e-01" purity="6.6666668653488159e-01" nType="0">
        <Node pos="l" depth="1" NCoef="0" IVar="4" Cut="6.9756513833999634e-01" cType="0" res="1.2795737385749817e-01" rms="4.3204295635223389e-01" purity="7.3253297805786133e-01" nType="0">
          <Node pos="l" depth="2" NCoef="0" IVar="3" Cut="2.1118943393230438e-01" cType="0" res="1.7639444768428802e-01" rms="3.8969284296035767e-01" purity="8.0793482065200806e-01" nType="0">
            <Node pos="l" depth="3" NCoef="0" IVar="-1" Cut="0.0000000000000000e+00" cType="1" res="2.1365512162446976e-02" rms="3.6942902207374573e-01" purity="8.3329582214355469e-01" nType="-99"/>
            <Node pos="r" depth="3" NCoef="0" IVar="-1" Cut="0.0000000000000000e+00" cType="1" res="1.0897245258092880e-02" rms="4.4586640596389771e-01" purity="7.1902132034301758e-01" nType="-99"/>
          </Node>
          <Node pos="r" depth="2" NCoef="0" IVar="3" Cut="1.4019298553466797e-01" cType="0" res="7.8748859465122223e-02" rms="4.6605899930000305e-01" purity="6.5593022108078003e-01" nType="0">
            <Node pos="l" depth="3" NCoef="0" IVar="-1" Cut="0.0000000000000000e+00" cType="1" res="1.0586734861135483e-02" rms="4.5636919140815735e-01" purity="6.8734133243560791e-01" nType="-99"/>
            <Node pos="r" depth="3" NCoef="0" IVar="-1" Cut="0.0000000000000000e+00" cType="1" res="-1.8713856115937233e-03" rms="4.9264046549797058e-01" purity="5.2525252103805542e-01" nType="-99"/>
          </Node>
        </Node>
        <Node pos="r" depth="1" NCoef="0" IVar="4" Cut="9.3225336074829102e-01" cType="0" res="-2.6197519153356552e-02" rms="4.8853150010108948e-01" purity="4.6343457698822021e-01" nType="0">
          <Node pos="l" depth="2" NCoef="0" IVar="1" Cut="7.2491306066513062e-01" cType="1" res="8.6401082575321198e-02" rms="4.8301419615745544e-01" purity="6.1742424964904785e-01" nType="0">
            <Node pos="l" depth="3" NCoef="0" IVar="-1" Cut="0.0000000000000000e+00" cType="1" res="1.2688560411334038e-02" rms="4.7155162692070007e-01" purity="6.5832424163818359e-01" nType="-99"/>
            <Node pos="r" depth="3" NCoef="0" IVar="-1" Cut="0.0000000000000000e+00" cType="1" res="-4.5684570795856416e-04" rms="4.9648639559745789e-01" purity="5.2369076013565063e-01" nType="-99"/>
          </Node>
          <Node pos="r" depth="2" NCoef="0" IVar="3" Cut="5.2747361361980438e-02" cType="0" res="-5.0874616950750351e-02" rms="4.8626148700714111e-01" purity="4.2968618869781494e-01" nType="0">
            <Node pos="l" depth="3" NCoef="0" IVar="-1" Cut="0.0000000000000000e+00" cType="1" res="-1.5927957138046622e-03" rms="4.9473422765731812e-01" purity="4.8295739293098450e-01" nType="-99"/>
            <Node pos="r" depth="3" NCoef="0" IVar="-1" Cut="0.0000000000000000e+00" cType="1" res="-1.2207644060254097e-02" rms="4.6152517199516296e-01" purity="3.2513526082038879e-01" nType="-99"/>
          </Node>
        </Node>
      </Node>
    </BinaryTree>
    <BinaryTree type="DecisionTree" boostWeight="1.0000000000000000e+00" itree="13">
      <Node pos="s" depth="0" NCoef="0" IVar="5" Cut="2.3203358054161072e-01" cType="1" res="8.5734896361827850e-02" rms="4.5047256350517273e-01" purity="6.6666668653488159e-01" nType="0">
        <Node pos="l" depth="1" NCoef="0" IVar="0" Cut="1.7049252986907959e+00" cType="0" res="1.5081924200057983e-01" rms="4.0726569294929504e-01" purity="7.7929157018661499e-01" nType="0">
          <Node pos="l" depth="2" NCoef="0" IVar="4" Cut="1.3214339315891266e-01" cType="0" res="1.5969526767730713e-01" rms="4.0076786279678345e-01" purity="7.9040008783340454e-01" nType="0">
            <Node pos="l" depth="3" NCoef="0" IVar="-1" Cut="0.0000000000000000e+00" cType="1" res="1.9355336204171181e-02" rms="3.8189265131950378e-01" purity="8.1933057308197021e-01" nType="-99"/>
            <Node pos="r" depth="3" NCoef="0" IVar="-1" Cut="0.0000000000000000e+00" cType="1" res="6.3773086294531822e-03" rms="4.7937828302383423e-01" purity="6.3296902179718018e-01" nType="-99"/>
          </Node>
          <Node pos="r" depth="2" NCoef="0" IVar="0" Cut="1.6495907306671143e+00" cType="0" res="-8.4312088787555695e-02" rms="4.9757382273674011e-01" purity="4.8501873016357422e-01" nType="0">
            <Node pos="l" depth="3" NCoef="0" IVar="-1" Cut="0.0000000000000000e+00" cType="1" res="2.1768114529550076e-03" rms="4.8820447921752930e-01" purity="6.0000002384185791e-01" nType="-99"/>
            <Node pos="r" depth="3" NCoef="0" IVar="-1" Cut="0.0000000000000000e+00" cType="1" res="-1.6091352328658104e-02" rms="4.9070721864700317e-01" purity="4.0445861220359802e-01" nType="-99"/>
          </Node>
        </Node>
        <Node pos="r" depth="1" NCoef="0" IVar="4" Cut="7.1161442995071411e-01" cType="0" res="2.3369468748569489e-02" rms="4.8009273409843445e-01" purity="5.5874675512313843e-01" nType="0">
          <Node pos="l" depth="2" NCoef="0" IVar="5" Cut="3.5911554098129272e-01" cType="1" res="8.9104950428009033e-02" rms="4.6199017763137817e-01" purity="6.6480010747909546e-01" nType="0">
            <Node pos="l" depth="3" NCoef="0" IVar="-1" Cut="0.0000000000000000e+00" cType="1" res="1.1342892423272133e-02" rms="4.5290145277976990e-01" purity="6.9641882181167603e-01" nType="-99"/>
            <Node pos="r" depth="3" NCoef="0" IVar="-1" Cut="0.0000000000000000e+00" cType="1" res="-2.9161525890231133e-03" rms="4.9638000130653381e-01" purity="4.7737067937850952e-01" nType="-99"/>
          </Node>
          <Node pos="r" depth="2" NCoef="0" IVar="2" Cut="1.8391671180725098e+00" cType="1" res="-2.4163248017430305e-02" rms="4.8727482557296753e-01" purity="4.8206052184104919e-01" nType="0">
            <Node pos="l" depth="3" NCoef="0" IVar="-1" Cut="0.0000000000000000e+00" cType="1" res="5.8255624026060104e-04" rms="4.8700198531150818e-01" purity="5.1310139894485474e-01" nType="-99"/>
            <Node pos="r" depth="3" NCoef="0" IVar="-1" Cut="0.0000000000000000e+00" cType="1" res="-1.2066760100424290e-02" rms="4.7593280673027039e-01" purity="3.8389512896537781e-01" nType="-99"/>
          </Node>
        </Node>
      </Node>
    </BinaryTree>
    <BinaryTree type="DecisionTree" boostWeight="1.0000000000000000e+00" itree="14">
      <Node pos="s" depth="0" NCoef="0" IVar="5" Cut="2.5536745786666870e-01" cType="1" res="8.1470176577568054e-02" rms="4.4951510429382324e-01" purity="6.6666668653488159e-01" nType="0">
        <Node pos="l" depth="1" NCoef="0" IVar="0" Cut="1.7251389026641846e+00" cType="0" res="1.3052186369895935e-01" rms="4.1793492436408997e-01" purity="7.6064997911453247e-01" nType="0">
          <Node pos="l" depth="2" NCoef="0" IVar="5" Cut="1.8205857276916504e-01" cType="1" res="1.4002791047096252e-01" rms="4.1125926375389099e-01" purity="7.7347588539123535e-01" nType="0">
            <Node pos="l" depth="3" NCoef="0" IVar="-1" Cut="0.0000000000000000e+00" cType="1" res="2.1790511906147003e-02" rms="3.5523757338523865e-01" purity="8.4744578599929810e-01" nType="-99"/>
            <Node pos="r" depth="3" NCoef="0" IVar="-1" Cut="0.0000000000000000e+00" cType="1" res="1.1995600536465645e-02" rms="4.3344792723655701e-01" purity="7.3699200153350830e-01" nType="-99"/>
          </Node>
          <Node pos="r" depth="2" NCoef="0" IVar="0" Cut="1.6495943069458008e+00" cType="0" res="-5.0051178783178329e-02" rms="4.9547463655471802e-01" purity="5.1701426506042480e-01" nType="0">
            <Node pos="l" depth="3" NCoef="0" IVar="-1" Cut="0.0000000000000000e+00" cType="1" res="2.7050818316638470e-03" rms="4.8508825898170471e-01" purity="6.0851061344146729e-01" nType="-99"/>
            <Node pos="r" depth="3" NCoef="0" IVar="-1" Cut="0.0000000000000000e+00" cType="1" res="-1.3287947513163090e-02" rms="4.9350440502166748e-01" purity="4.1950112581253052e-01" nType="-99"/>
          </Node>
        </Node>
        <Node pos="r" depth="1" NCoef="0" IVar="4" Cut="9.3290334939956665e-01" cType="0" res="5.6448485702276230e-03" rms="4.8470780253410339e-01" purity="5.2138495445251465e-01" nType="0">
          <Node pos="l" depth="2" NCoef="0" IVar="3" Cut="1.3057632744312286e-01" cType="0" res="1.1530602723360062e-01" rms="4.5833799242973328e-01" purity="6.8217390775680542e-01" nType="0">
            <Node pos="l" depth="3" NCoef="0" IVar="-1" Cut="0.0000000000000000e+00" cType="1" res="1.7116153612732887e-02" rms="4.2863264679908752e-01" purity="7.5075078010559082e-01" nType="-99"/>
            <Node pos="r" depth="3" NCoef="0" IVar="-1" Cut="0.0000000000000000e+00" cType="1" res="4.6781469136476517e-03" rms="4.8794198036193848e-01" purity="5.8780992031097412e-01" nType="-99"/>
          </Node>
          <Node pos="r" depth="2" NCoef="0" IVar="5" Cut="3.3793929219245911e-01" cType="1" res="-2.0949490368366241e-02" rms="4.8718461394309998e-01" purity="4.8239138722419739e-01" nType="0">
            <Node pos="l" depth="3" NCoef="0" IVar="-1" Cut="0.0000000000000000e+00" cType="1" res="1.3530983123928308e-03" rms="4.8932859301567078e-01" purity="5.3529775142669678e-01" nType="-99"/>
            <Node pos="r" depth="3" NCoef="0" IVar="-1" Cut="0.0000000000000000e+00" cType="1" res="-9.7587900236248970e-03" rms="4.7382178902626038e-01" purity="3.6623990535736084e-01" nType="-99"/>
          </Node>
        </Node>
      </Node>
    </BinaryTree>
    <BinaryTree type="DecisionTree" boostWeight="1.0000000000000000e+00" itree="15">
      <Node pos="s" depth="0" NCoef="0" IVar="5" Cut="2.9456734657287598e-01" cType="1" res="7.7416494488716125e-02" rms="4.4865503907203674e-01" purity="6.6666668653488159e-01" nType="0">
        <Node pos="l" depth="1" NCoef="0" IVar="4" Cut="1.3384330272674561e-01" cType="0" res="1.0963038355112076e-01" rms="4.3123021721839905e-01" purity="7.3024022579193115e-01" nType="0">
          <Node pos="l" depth="2" NCoef="0" IVar="3" Cut="1.4719264209270477e-01" cType="0" res="1.2974324822425842e-01" rms="4.1580909490585327e-01" purity="7.6408028602600098e-01" nType="0">
            <Node pos="l" depth="3" NCoef="0" IVar="-1" Cut="0.0000000000000000e+00" cType="1" res="1.6206389293074608e-02" rms="4.0082827210426331e-01" purity="7.8918987512588501e-01" nType="-99"/>
            <Node pos="r" depth="3" NCoef="0" IVar="-1" Cut="0.0000000000000000e+00" cType="1" res="5.1223360933363438e-03" rms="4.6808350086212158e-01" purity="6.5260756015777588e-01" nType="-99"/>
          </Node>
          <Node pos="r" depth="2" NCoef="0" IVar="3" Cut="7.2996348142623901e-02" cType="0" res="1.0917549952864647e-02" rms="4.8819959163665771e-01" purity="5.6415528059005737e-01" nType="0">
            <Node pos="l" depth="3" NCoef="0" IVar="-1" Cut="0.0000000000000000e+00" cType="1" res="3.1833169050514698e-03" rms="4.8592475056648254e-01" purity="5.9307622909545898e-01" nType="-99"/>
            <Node pos="r" depth="3" NCoef="0" IVar="-1" Cut="0.0000000000000000e+00" cType="1" res="-1.0189396329224110e-02" rms="4.8557060956954956e-01" purity="4.0436241030693054e-01" nType="-99"/>
          </Node>
        </Node>
        <Node pos="r" depth="1" NCoef="0" IVar="4" Cut="2.9563522338867188e-01" cType="0" res="-2.7957413345575333e-02" rms="4.8676970601081848e-01" purity="4.5871299505233765e-01" nType="0">
          <Node pos="l" depth="2" NCoef="0" IVar="5" Cut="4.0438979864120483e-01" cType="1" res="7.5810188427567482e-03" rms="4.9238511919975281e-01" purity="5.1932990550994873e-01" nType="0">
            <Node pos="l" depth="3" NCoef="0" IVar="-1" Cut="0.0000000000000000e+00" cType="1" res="2.4767979048192501e-03" rms="4.9218043684959412e-01" purity="5.4125493764877319e-01" nType="-99"/>
            <Node pos="r" depth="3" NCoef="0" IVar="-1" Cut="0.0000000000000000e+00" cType="1" res="-1.0637601837515831e-02" rms="4.7859194874763489e-01" purity="3.7335526943206787e-01" nType="-99"/>
          </Node>
          <Node pos="r" depth="2" NCoef="0" IVar="3" Cut="3.6448176950216293e-02" cType="0" res="-9.7833655774593353e-02" rms="4.6772617101669312e-01" purity="3.3952704071998596e-01" nType="0">
            <Node pos="l" depth="3" NCoef="0" IVar="-1" Cut="0.0000000000000000e+00" cType="1" res="-6.7562749609351158e-03" rms="4.8549041152000427e-01" purity="3.8975903391838074e-01" nType="-99"/>
            <Node pos="r" depth="3" NCoef="0" IVar="-1" Cut="0.0000000000000000e+00" cType="1" res="-1.7869597300887108e-02" rms="4.1421306133270264e-01" purity="2.2175140678882599e-01" nType="-99"/>
          </Node>
        </Node>
      </Node>
    </BinaryTree>
    <BinaryTree type="DecisionTree" boostWeight="1.0000000000000000e+00" itree="16">
      <Node pos="s" depth="0" NCoef="0" IVar="5" Cut="2.3203358054161072e-01" cType="1" res="7.3562726378440857e-02" rms="4.4789421558380127e-01" purity="6.6666668653488159e-01" nType="0">
        <Node pos="l" depth="1" NCoef="0" IVar="0" Cut="1.7613351345062256e+00" cType="0" res="1.3076835870742798e-01" rms="4.0605843067169189e-01" purity="7.7929157018661499e-01" nType="0">
          <Node pos="l" depth="2" NCoef="0" IVar="3" Cut="2.3473826050758362e-01" cType="0" res="1.4090968668460846e-01" rms="3.9829689264297485e-01" purity="7.9296904802322388e-01" nType="0">
            <Node pos="l" depth="3" NCoef="0" IVar="-1" Cut="0.0000000000000000e+00" cType="1" res="1.7820874229073524e-02" rms="3.8163027167320251e-01" purity="8.1683784723281860e-01" nType="-99"/>
            <Node pos="r" depth="3" NCoef="0" IVar="-1" Cut="0.0000000000000000e+00" cType="1" res="6.2119653448462486e-03" rms="4.5553249120712280e-01" purity="6.8752443790435791e-01" nType="-99"/>
          </Node>
          <Node pos="r" depth="2" NCoef="0" IVar="0" Cut="1.6495914459228516e+00" cType="0" res="-3.9108134806156158e-02" rms="4.8875239491462708e-01" purity="5.5018138885498047e-01" nType="0">
            <Node pos="l" depth="3" NCoef="0" IVar="-1" Cut="0.0000000000000000e+00" cType="1" res="3.0195389408618212e-03" rms="4.7538095712661743e-01" purity="6.3937622308731079e-01" nType="-99"/>
            <Node pos="r" depth="3" NCoef="0" IVar="-1" Cut="0.0000000000000000e+00" cType="1" res="-1.5153879299759865e-02" rms="4.9017477035522461e-01" purity="4.0445861220359802e-01" nType="-99"/>
          </Node>
        </Node>
        <Node pos="r" depth="1" NCoef="0" IVar="4" Cut="5.7017147541046143e-01" cType="0" res="1.8746882677078247e-02" rms="4.7822797298431396e-01" purity="5.5874675512313843e-01" nType="0">
          <Node pos="l" depth="2" NCoef="0" IVar="5" Cut="3.1542390584945679e-01" cType="1" res="6.8181730806827545e-02" rms="4.6529579162597656e-01" purity="6.4968150854110718e-01" nType="0">
            <Node pos="l" depth="3" NCoef="0" IVar="-1" Cut="0.0000000000000000e+00" cType="1" res="1.0480024851858616e-02" rms="4.4761362671852112e-01" purity="7.1088624000549316e-01" nType="-99"/>
            <Node pos="r" depth="3" NCoef="0" IVar="-1" Cut="0.0000000000000000e+00" cType="1" res="3.1013952684588730e-04" rms="4.9451988935470581e-01" purity="5.1969754695892334e-01" nType="-99"/>
          </Node>
          <Node pos="r" depth="2" NCoef="0" IVar="5" Cut="3.4180936217308044e-01" cType="1" res="-3.3202722668647766e-02" rms="4.8606342077255249e-01" purity="4.6318608522415161e-01" nType="0">
            <Node pos="l" depth="3" NCoef="0" IVar="-1" Cut="0.0000000000000000e+00" cType="1" res="-7.3853577487170696e-04" rms="4.9175035953521729e-01" purity="5.0957185029983521e-01" nType="-99"/>
            <Node pos="r" depth="3" NCoef="0" IVar="-1" Cut="0.0000000000000000e+00" cType="1" res="-1.2296711094677448e-02" rms="4.5608347654342651e-01" purity="3.0858469009399414e-01" nType="-99"/>
          </Node>
        </Node>
      </Node>
    </BinaryTree>
    <BinaryTree type="DecisionTree" boostWeight="1.0000000000000000e+00" itree="17">
      <Node pos="s" depth="0" NCoef="0" IVar="3" Cut="2.2118894755840302e-01" cType="0" res="6.9903478026390076e-02" rms="4.4711923599243164e-01" purity="6.6666668653488159e-01" nType="0">
        <Node pos="l" depth="1" NCoef="0" IVar="5" Cut="2.2174729406833649e-01" cType="1" res="1.0712974518537521e-01" rms="4.2696306109428406e-01" purity="7.3208087682723999e-01" nType="0">
          <Node pos="l" depth="2" NCoef="0" IVar="0" Cut="1.7613351345062256e+00" cType="0" res="1.4690113067626953e-01" rms="3.8518097996711731e-01" purity="8.0977910757064819e-01" nType="0">
            <Node pos="l" depth="3" NCoef="0" IVar="-1" Cut="0.0000000000000000e+00" cType="1" res="1.7732176929712296e-02" rms="3.7612426280975342e-01" purity="8.2355815172195435e-01" nType="-99"/>
            <Node pos="r" depth="3" NCoef="0" IVar="-1" Cut="0.0000000000000000e+00" cType="1" res="-2.6610146742314100e-03" rms="4.8653799295425415e-01" purity="5.7045841217041016e-01" nType="-99"/>
          </Node>
          <Node pos="r" depth="2" NCoef="0" IVar="4" Cut="9.3590319156646729e-01" cType="0" res="6.1134379357099533e-02" rms="4.6647185087203979e-01" purity="6.4222341775894165e-01" nType="0">
            <Node pos="l" depth="3" NCoef="0" IVar="-1" Cut="0.0000000000000000e+00" cType="1" res="1.6714893281459808e-02" rms="4.0629121661186218e-01" purity="7.8651684522628784e-01" nType="-99"/>
            <Node pos="r" depth="3" NCoef="0" IVar="-1" Cut="0.0000000000000000e+00" cType="1" res="3.7809575442224741e-03" rms="4.7810897231101990e-01" purity="6.0402864217758179e-01" nType="-99"/>
          </Node>
        </Node>
        <Node pos="r" depth="1" NCoef="0" IVar="4" Cut="7.4811261892318726e-01" cType="0" res="-6.5266788005828857e-03" rms="4.7686588764190674e-01" purity="5.3236311674118042e-01" nType="0">
          <Node pos="l" depth="2" NCoef="0" IVar="1" Cut="-1.6330513954162598e+00" cType="0" res="5.1980596035718918e-02" rms="4.6615800261497498e-01" purity="6.4411026239395142e-01" nType="0">
            <Node pos="l" depth="3" NCoef="0" IVar="-1" Cut="0.0000000000000000e+00" cType="1" res="8.1010702997446060e-03" rms="4.5730179548263550e-01" purity="6.6859054565429688e-01" nType="-99"/>
            <Node pos="r" depth="3" NCoef="0" IVar="-1" Cut="0.0000000000000000e+00" cType="1" res="-6.8537909537553787e-03" rms="4.8921361565589905e-01" purity="5.2865332365036011e-01" nType="-99"/>
          </Node>
          <Node pos="r" depth="2" NCoef="0" IVar="5" Cut="3.3963444828987122e-01" cType="1" res="-4.6527367085218430e-02" rms="4.7996291518211365e-01" purity="4.5596298575401306e-01" nType="0">
            <Node pos="l" depth="3" NCoef="0" IVar="-1" Cut="0.0000000000000000e+00" cType="1" res="-1.5778560191392899e-03" rms="4.8736485838890076e-01" purity="5.1717603206634521e-01" nType="-99"/>
            <Node pos="r" depth="3" NCoef="0" IVar="-1" Cut="0.0000000000000000e+00" cType="1" res="-1.3211857527494431e-02" rms="4.4997677206993103e-01" purity="2.9597523808479309e-01" nType="-99"/>
          </Node>
        </Node>
      </Node>
    </BinaryTree>
    <BinaryTree type="DecisionTree" boostWeight="1.0000000000000000e+00" itree="18">
      <Node pos="s" depth="0" NCoef="0" IVar="5" Cut="2.7120763063430786e-01" cType="1" res="6.6426642239093781e-02" rms="4.4636926054954529e-01" purity="6.6666668653488159e-01" nType="0">
        <Node pos="l" depth="1" NCoef="0" IVar="4" Cut="4.7467625141143799e-01" cType="0" res="1.0175748169422150e-01" rms="4.2250394821166992e-01" purity="7.4777609109878540e-01" nType="0">
          <Node pos="l" depth="2" NCoef="0" IVar="0" Cut="1.6503478288650513e+00" cType="0" res="1.3252909481525421e-01" rms="3.9035364985466003e-01" purity="8.0506503582000732e-01" nType="0">
            <Node pos="l" depth="3" NCoef="0" IVar="-1" Cut="0.0000000000000000e+00" cType="1" res="1.5731733292341232e-02" rms="3.8618543744087219e-01" purity="8.1259393692016602e-01" nType="-99"/>
            <Node pos="r" depth="3" NCoef="0" IVar="-1" Cut="0.0000000000000000e+00" cType="1" res="-1.0368037968873978e-02" rms="4.9706038832664490e-01" purity="4.5387452840805054e-01" nType="-99"/>
          </Node>
          <Node pos="r" depth="2" NCoef="0" IVar="4" Cut="3.3224463462829590e-02" cType="0" res="4.8317920416593552e-02" rms="4.6839553117752075e-01" purity="6.4828515052795410e-01" nType="0">
            <Node pos="l" depth="3" NCoef="0" IVar="-1" Cut="0.0000000000000000e+00" cType="1" res="6.7350282333791256e-03" rms="4.6244147419929504e-01" purity="6.6826552152633667e-01" nType="-99"/>
            <Node pos="r" depth="3" NCoef="0" IVar="-1" Cut="0.0000000000000000e+00" cType="1" res="-5.6002461351454258e-03" rms="4.9404042959213257e-01" purity="5.1543211936950684e-01" nType="-99"/>
          </Node>
        </Node>
        <Node pos="r" depth="1" NCoef="0" IVar="4" Cut="2.3093844950199127e-01" cType="0" res="-8.0451909452676773e-03" rms="4.8453727364540100e-01" purity="4.9570080637931824e-01" nType="0">
          <Node pos="l" depth="2" NCoef="0" IVar="5" Cut="3.5911419987678528e-01" cType="1" res="2.0205089822411537e-02" rms="4.8625227808952332e-01" purity="5.4806435108184814e-01" nType="0">
            <Node pos="l" depth="3" NCoef="0" IVar="-1" Cut="0.0000000000000000e+00" cType="1" res="4.7151506878435612e-03" rms="4.8403477668762207e-01" purity="5.9170562028884888e-01" nType="-99"/>
            <Node pos="r" depth="3" NCoef="0" IVar="-1" Cut="0.0000000000000000e+00" cType="1" res="-5.6283641606569290e-03" rms="4.8475718498229980e-01" purity="4.2078363895416260e-01" nType="-99"/>
          </Node>
          <Node pos="r" depth="2" NCoef="0" IVar="3" Cut="4.0947951376438141e-02" cType="0" res="-7.8742645680904388e-02" rms="4.7287893295288086e-01" purity="3.6465892195701599e-01" nType="0">
            <Node pos="l" depth="3" NCoef="0" IVar="-1" Cut="0.0000000000000000e+00" cType="1" res="-4.6273251064121723e-03" rms="4.8982912302017212e-01" purity="4.2001014947891235e-01" nType="-99"/>
            <Node pos="r" depth="3" NCoef="0" IVar="-1" Cut="0.0000000000000000e+00" cType="1" res="-1.7015339806675911e-02" rms="4.1632020473480225e-01" purity="2.2617535293102264e-01" nType="-99"/>
          </Node>
        </Node>
      </Node>
    </BinaryTree>
    <BinaryTree type="DecisionTree" boostWeight="1.0000000000000000e+00" itree="19">
      <Node pos="s" depth="0" NCoef="0" IVar="3" Cut="1.0784460604190826e-01" cType="0" res="6.3121646642684937e-02" rms="4.4573330879211426e-01" purity="6.6666668653488159e-01" nType="0">
        <Node pos="l" depth="1" NCoef="0" IVar="4" Cut="9.3590319156646729e-01" cType="0" res="9.0414769947528839e-02" rms="4.3213367462158203e-01" purity="7.1792310476303101e-01" nType="0">
          <Node pos="l" depth="2" NCoef="0" IVar="4" Cut="9.7949713468551636e-01" cType="0" res="1.6050568222999573e-01" rms="3.6477717757225037e-01" purity="8.3489519357681274e-01" nType="0">
            <Node pos="l" depth="3" NCoef="0" IVar="-1" Cut="0.0000000000000000e+00" cType="1" res="2.1741386502981186e-02" rms="3.3529216051101685e-01" purity="8.6697548627853394e-01" nType="-99"/>
            <Node pos="r" depth="3" NCoef="0" IVar="-1" Cut="0.0000000000000000e+00" cType="1" res="1.4989986084401608e-02" rms="3.9154863357543945e-01" purity="8.0084300041198730e-01" nType="-99"/>
          </Node>
          <Node pos="r" depth="2" NCoef="0" IVar="5" Cut="2.3324872553348541e-01" cType="1" res="6.6422954201698303e-02" rms="4.5039507746696472e-01" purity="6.7788404226303101e-01" nType="0">
            <Node pos="l" depth="3" NCoef="0" IVar="-1" Cut="0.0000000000000000e+00" cType="1" res="1.1932807043194771e-02" rms="4.1621872782707214e-01" purity="7.6457446813583374e-01" nType="-99"/>
            <Node pos="r" depth="3" NCoef="0" IVar="-1" Cut="0.0000000000000000e+00" cType="1" res="1.8425439484417439e-03" rms="4.8424929380416870e-01" purity="5.7268267869949341e-01" nType="-99"/>
          </Node>
        </Node>
        <Node pos="r" depth="1" NCoef="0" IVar="4" Cut="7.4241286516189575e-01" cType="0" res="-2.6806930080056190e-02" rms="4.7694191336631775e-01" purity="4.9778094887733459e-01" nType="0">
          <Node pos="l" depth="2" NCoef="0" IVar="1" Cut="-1.6336795091629028e+00" cType="0" res="3.2835271209478378e-02" rms="4.7315388917922974e-01" purity="6.1960369348526001e-01" nType="0">
            <Node pos="l" depth="3" NCoef="0" IVar="-1" Cut="0.0000000000000000e+00" cType="1" res="6.0956827364861965e-03" rms="4.6557691693305969e-01" purity="6.4504969120025635e-01" nType="-99"/>
            <Node pos="r" depth="3" NCoef="0" IVar="-1" Cut="0.0000000000000000e+00" cType="1" res="-8.3923833444714546e-03" rms="4.9035441875457764e-01" purity="5.0487327575683594e-01" nType="-99"/>
          </Node>
          <Node pos="r" depth="2" NCoef="0" IVar="2" Cut="1.4554754495620728e+00" cType="1" res="-6.7333228886127472e-02" rms="4.7524687647819519e-01" purity="4.1500359773635864e-01" nType="0">
            <Node pos="l" depth="3" NCoef="0" IVar="-1" Cut="0.0000000000000000e+00" cType="1" res="-3.6662307102233171e-03" rms="4.8022812604904175e-01" purity="4.4946619868278503e-01" nType="-99"/>
            <Node pos="r" depth="3" NCoef="0" IVar="-1" Cut="0.0000000000000000e+00" cType="1" res="-1.3824925757944584e-02" rms="4.5764699578285217e-01" purity="3.4321719408035278e-01" nType="-99"/>
          </Node>
        </Node>
      </Node>
    </BinaryTree>
    <BinaryTree type="DecisionTree" boostWeight="1.0000000000000000e+00" itree="20">
      <Node pos="s" depth="0" NCoef="0" IVar="3" Cut="2.2163891792297363e-01" cType="0" res="5.9982463717460632e-02" rms="4.4508352875709534e-01" purity="6.6666668653488159e-01" nType="0">
        <Node pos="l" depth="1" NCoef="0" IVar="4" Cut="8.3265835046768188e-01" cType="0" res="9.3125484883785248e-02" rms="4.2579454183578491e-01" purity="7.3212337493896484e-01" nType="0">
          <Node pos="l" depth="2" NCoef="0" IVar="1" Cut="-2.1252777576446533e+00" cType="0" res="1.4162760972976685e-01" rms="3.7436848878860474e-01" purity="8.2191956043243408e-01" nType="0">
            <Node pos="l" depth="3" NCoef="0" IVar="-1" Cut="0.0000000000000000e+00" cType="1" res="1.7681902274489403e-02" rms="3.6562645435333252e-01" purity="8.3246219158172607e-01" nType="-99"/>
            <Node pos="r" depth="3" NCoef="0" IVar="-1" Cut="0.0000000000000000e+00" cType="1" res="6.2181949615478516e-03" rms="4.3048706650733948e-01" purity="7.3411762714385986e-01" nType="-99"/>
          </Node>
          <Node pos="r" depth="2" NCoef="0" IVar="5" Cut="2.3453198373317719e-01" cType="1" res="6.1698392033576965e-02" rms="4.5326793193817139e-01" purity="6.7393970489501953e-01" nType="0">
            <Node pos="l" depth="3" NCoef="0" IVar="-1" Cut="0.0000000000000000e+00" cType="1" res="1.0851121507585049e-02" rms="4.2317235469818115e-01" purity="7.5447314977645874e-01" nType="-99"/>
            <Node pos="r" depth="3" NCoef="0" IVar="-1" Cut="0.0000000000000000e+00" cType="1" res="1.4254194684326649e-03" rms="4.8706421256065369e-01" purity="5.6477379798889160e-01" nType="-99"/>
          </Node>
        </Node>
        <Node pos="r" depth="1" NCoef="0" IVar="4" Cut="9.5675218105316162e-01" cType="0" res="-7.9819718375802040e-03" rms="4.7505268454551697e-01" purity="5.3243845701217651e-01" nType="0">
          <Node pos="l" depth="2" NCoef="0" IVar="0" Cut="1.9208337068557739e+00" cType="0" res="8.4750205278396606e-02" rms="4.4638580083847046e-01" purity="7.0169293880462646e-01" nType="0">
            <Node pos="l" depth="3" NCoef="0" IVar="-1" Cut="0.0000000000000000e+00" cType="1" res="1.1287699453532696e-02" rms="4.3675747513771057e-01" purity="7.2578442096710205e-01" nType="-99"/>
            <Node pos="r" depth="3" NCoef="0" IVar="-1" Cut="0.0000000000000000e+00" cType="1" res="-3.2846105750650167e-03" rms="4.8372998833656311e-01" purity="5.5870443582534790e-01" nType="-99"/>
          </Node>
          <Node pos="r" depth="2" NCoef="0" IVar="1" Cut="-1.6207340955734253e+00" cType="0" res="-2.7542399242520332e-02" rms="4.7859206795692444e-01" purity="4.9673685431480408e-01" nType="0">
            <Node pos="l" depth="3" NCoef="0" IVar="-1" Cut="0.0000000000000000e+00" cType="1" res="-7.9885387094691396e-04" rms="4.7718617320060730e-01" purity="5.1712429523468018e-01" nType="-99"/>
            <Node pos="r" depth="3" NCoef="0" IVar="-1" Cut="0.0000000000000000e+00" cType="1" res="-1.3237997889518738e-02" rms="4.7312328219413757e-01" purity="3.9420935511589050e-01" nType="-99"/>
          </Node>
        </Node>
      </Node>
    </BinaryTree>
    <BinaryTree type="DecisionTree" boostWeight="1.0000000000000000e+00" itree="21">
      <Node pos="s" depth="0" NCoef="0" IVar="5" Cut="3.0219027400016785e-01" cType="1" res="5.6999586522579193e-02" rms="4.4450512528419495e-01" purity="6.6666668653488159e-01" nType="0">
        <Node pos="l" depth="1" NCoef="0" IVar="4" Cut="1.5714214742183685e-01" cType="0" res="8.0800272524356842e-02" rms="4.3039113283157349e-01" purity="7.2487866878509521e-01" nType="0">
          <Node pos="l" depth="2" NCoef="0" IVar="5" Cut="1.7484319210052490e-01" cType="1" res="9.9489405751228333e-02" rms="4.1462033987045288e-01" purity="7.6181554794311523e-01" nType="0">
            <Node pos="l" depth="3" NCoef="0" IVar="-1" Cut="0.0000000000000000e+00" cType="1" res="1.9830090925097466e-02" rms="3.3148735761642456e-01" purity="8.7036585807800293e-01" nType="-99"/>
            <Node pos="r" depth="3" NCoef="0" IVar="-1" Cut="0.0000000000000000e+00" cType="1" res="9.1399680823087692e-03" rms="4.3292939662933350e-01" purity="7.3211801052093506e-01" nType="-99"/>
          </Node>
          <Node pos="r" depth="2" NCoef="0" IVar="3" Cut="5.2947353571653366e-02" cType="0" res="7.0757180219516158e-04" rms="4.8418578505516052e-01" purity="5.6658488512039185e-01" nType="0">
            <Node pos="l" depth="3" NCoef="0" IVar="-1" Cut="0.0000000000000000e+00" cType="1" res="1.6844053752720356e-03" rms="4.8330143094062805e-01" purity="5.9372609853744507e-01" nType="-99"/>
            <Node pos="r" depth="3" NCoef="0" IVar="-1" Cut="0.0000000000000000e+00" cType="1" res="-1.0935546830296516e-02" rms="4.7639906406402588e-01" purity="3.7722420692443848e-01" nType="-99"/>
          </Node>
        </Node>
        <Node pos="r" depth="1" NCoef="0" IVar="4" Cut="9.3225336074829102e-01" cType="0" res="-3.2446462661027908e-02" rms="4.8359248042106628e-01" purity="4.4789850711822510e-01" nType="0">
          <Node pos="l" depth="2" NCoef="0" IVar="1" Cut="9.7535401582717896e-01" cType="1" res="5.8148603886365891e-02" rms="4.8140662908554077e-01" purity="6.1281585693359375e-01" nType="0">
            <Node pos="l" depth="3" NCoef="0" IVar="-1" Cut="0.0000000000000000e+00" cType="1" res="9.6115702763199806e-03" rms="4.7054412961006165e-01" purity="6.5153372287750244e-01" nType="-99"/>
            <Node pos="r" depth="3" NCoef="0" IVar="-1" Cut="0.0000000000000000e+00" cType="1" res="-4.3153106234967709e-03" rms="4.9671432375907898e-01" purity="5.0511944293975830e-01" nType="-99"/>
          </Node>
          <Node pos="r" depth="2" NCoef="0" IVar="2" Cut="1.8459254503250122e+00" cType="1" res="-5.1761325448751450e-02" rms="4.8185941576957703e-01" purity="4.1273811459541321e-01" nType="0">
            <Node pos="l" depth="3" NCoef="0" IVar="-1" Cut="0.0000000000000000e+00" cType="1" res="-2.7691232971847057e-03" rms="4.8640006780624390e-01" purity="4.3980532884597778e-01" nType="-99"/>
            <Node pos="r" depth="3" NCoef="0" IVar="-1" Cut="0.0000000000000000e+00" cType="1" res="-1.2897546403110027e-02" rms="4.5998257398605347e-01" purity="3.3101314306259155e-01" nType="-99"/>
          </Node>
        </Node>
      </Node>
    </BinaryTree>
    <BinaryTree type="DecisionTree" boostWeight="1.0000000000000000e+00" itree="22">
      <Node pos="s" depth="0" NCoef="0" IVar="3" Cut="1.0794460028409958e-01" cType="0" res="5.4164219647645950e-02" rms="4.4396713376045227e-01" purity="6.6666668653488159e-01" nType="0">
        <Node pos="l" depth="1" NCoef="0" IVar="4" Cut="9.3590319156646729e-01" cType="0" res="7.8426465392112732e-02" rms="4.3101224303245544e-01" purity="7.1792978048324585e-01" nType="0">
          <Node pos="l" depth="2" NCoef="0" IVar="4" Cut="9.7949713468551636e-01" cType="0" res="1.4097343385219574e-01" rms="3.6444699764251709e-01" purity="8.3483892679214478e-01" nType="0">
            <Node pos="l" depth="3" NCoef="0" IVar="-1" Cut="0.0000000000000000e+00" cType="1" res="2.0040769129991531e-02" rms="3.3517143130302429e-01" purity="8.6688739061355591e-01" nType="-99"/>
            <Node pos="r" depth="3" NCoef="0" IVar="-1" Cut="0.0000000000000000e+00" cType="1" res="1.3346414081752300e-02" rms="3.9124524593353271e-01" purity="8.0084300041198730e-01" nType="-99"/>
          </Node>
          <Node pos="r" depth="2" NCoef="0" IVar="5" Cut="2.3268112540245056e-01" cType="1" res="5.7022962719202042e-02" rms="4.4954881072044373e-01" purity="6.7792361974716187e-01" nType="0">
            <Node pos="l" depth="3" NCoef="0" IVar="-1" Cut="0.0000000000000000e+00" cType="1" res="1.0611122474074364e-02" rms="4.1556802392005920e-01" purity="7.6511502265930176e-01" nType="-99"/>
            <Node pos="r" depth="3" NCoef="0" IVar="-1" Cut="0.0000000000000000e+00" cType="1" res="1.4962489949539304e-03" rms="4.8372480273246765e-01" purity="5.7346153259277344e-01" nType="-99"/>
          </Node>
        </Node>
        <Node pos="r" depth="1" NCoef="0" IVar="4" Cut="7.4241286516189575e-01" cType="0" res="-2.5733152404427528e-02" rms="4.7551298141479492e-01" purity="4.9785345792770386e-01" nType="0">
          <Node pos="l" depth="2" NCoef="0" IVar="1" Cut="-1.6336795091629028e+00" cType="0" res="2.7839208021759987e-02" rms="4.7205767035484314e-01" purity="6.1987268924713135e-01" nType="0">
            <Node pos="l" depth="3" NCoef="0" IVar="-1" Cut="0.0000000000000000e+00" cType="1" res="5.4299090988934040e-03" rms="4.6489018201828003e-01" purity="6.4535635709762573e-01" nType="-99"/>
            <Node pos="r" depth="3" NCoef="0" IVar="-1" Cut="0.0000000000000000e+00" cType="1" res="-8.1347143277525902e-03" rms="4.8952853679656982e-01" purity="5.0487327575683594e-01" nType="-99"/>
          </Node>
          <Node pos="r" depth="2" NCoef="0" IVar="1" Cut="-1.2559064626693726e+00" cType="0" res="-6.2152054160833359e-02" rms="4.7440597414970398e-01" purity="4.1490384936332703e-01" nType="0">
            <Node pos="l" depth="3" NCoef="0" IVar="-1" Cut="0.0000000000000000e+00" cType="1" res="-4.0252441540360451e-03" rms="4.7701990604400635e-01" purity="4.3850433826446533e-01" nType="-99"/>
            <Node pos="r" depth="3" NCoef="0" IVar="-1" Cut="0.0000000000000000e+00" cType="1" res="-1.4898718334734440e-02" rms="4.5584321022033691e-01" purity="3.3225107192993164e-01" nType="-99"/>
          </Node>
        </Node>
      </Node>
    </BinaryTree>
    <BinaryTree type="DecisionTree" boostWeight="1.0000000000000000e+00" itree="23">
      <Node pos="s" depth="0" NCoef="0" IVar="5" Cut="2.9456734657287598e-01" cType="1" res="5.1470689475536346e-02" rms="4.4344803690910339e-01" purity="6.6666668653488159e-01" nType="0">
        <Node pos="l" depth="1" NCoef="0" IVar="4" Cut="1.3384330272674561e-01" cType="0" res="7.5043492019176483e-02" rms="4.2782345414161682e-01" purity="7.3024022579193115e-01" nType="0">
          <Node pos="l" depth="2" NCoef="0" IVar="0" Cut="1.6503478288650513e+00" cType="0" res="9.1406419873237610e-02" rms="4.1318234801292419e-01" purity="7.6408028602600098e-01" nType="0">
            <Node pos="l" depth="3" NCoef="0" IVar="-1" Cut="0.0000000000000000e+00" cType="1" res="1.1175673454999924e-02" rms="4.0962991118431091e-01" purity="7.7174901962280273e-01" nType="-99"/>
            <Node pos="r" depth="3" NCoef="0" IVar="-1" Cut="0.0000000000000000e+00" cType="1" res="-1.2287682853639126e-02" rms="4.9484911561012268e-01" purity="4.4933921098709106e-01" nType="-99"/>
          </Node>
          <Node pos="r" depth="2" NCoef="0" IVar="0" Cut="1.7334548234939575e+00" cType="0" res="-5.2648899145424366e-03" rms="4.8549172282218933e-01" purity="5.6415528059005737e-01" nType="0">
            <Node pos="l" depth="3" NCoef="0" IVar="-1" Cut="0.0000000000000000e+00" cType="1" res="6.1799830291420221e-04" rms="4.8372325301170349e-01" purity="5.7872694730758667e-01" nType="-99"/>
            <Node pos="r" depth="3" NCoef="0" IVar="-1" Cut="0.0000000000000000e+00" cType="1" res="-1.3783549889922142e-02" rms="4.8691272735595703e-01" purity="3.9413681626319885e-01" nType="-99"/>
          </Node>
        </Node>
        <Node pos="r" depth="1" NCoef="0" IVar="1" Cut="7.5153803825378418e-01" cType="1" res="-2.5637608021497726e-02" rms="4.8312810063362122e-01" purity="4.5871299505233765e-01" nType="0">
          <Node pos="l" depth="2" NCoef="0" IVar="1" Cut="-7.3372924327850342e-01" cType="0" res="6.2686059391126037e-04" rms="4.8363220691680908e-01" purity="4.8536586761474609e-01" nType="0">
            <Node pos="l" depth="3" NCoef="0" IVar="-1" Cut="0.0000000000000000e+00" cType="1" res="5.1521407440304756e-03" rms="4.8262453079223633e-01" purity="5.3848892450332642e-01" nType="-99"/>
            <Node pos="r" depth="3" NCoef="0" IVar="-1" Cut="0.0000000000000000e+00" cType="1" res="-6.6966121084988117e-03" rms="4.7700652480125427e-01" purity="4.1485336422920227e-01" nType="-99"/>
          </Node>
          <Node pos="r" depth="2" NCoef="0" IVar="0" Cut="2.5613040924072266e+00" cType="1" res="-8.7054520845413208e-02" rms="4.7632765769958496e-01" purity="3.9638784527778625e-01" nType="0">
            <Node pos="l" depth="3" NCoef="0" IVar="-1" Cut="0.0000000000000000e+00" cType="1" res="-5.7753254659473896e-03" rms="4.7854846715927124e-01" purity="4.2195430397987366e-01" nType="-99"/>
            <Node pos="r" depth="3" NCoef="0" IVar="-1" Cut="0.0000000000000000e+00" cType="1" res="-1.8140129745006561e-02" rms="4.5765784382820129e-01" purity="3.2007575035095215e-01" nType="-99"/>
          </Node>
        </Node>
      </Node>
    </BinaryTree>
    <BinaryTree type="DecisionTree" boostWeight="1.0000000000000000e+00" itree="24">
      <Node pos="s" depth="0" NCoef="0" IVar="3" Cut="2.3398829996585846e-01" cType="0" res="4.8908747732639313e-02" rms="4.4294381141662598e-01" purity="6.6666668653488159e-01" nType="0">
        <Node pos="l" depth="1" NCoef="0" IVar="4" Cut="4.7457626461982727e-01" cType="0" res="7.8374139964580536e-02" rms="4.2406418919563293e-01" purity="7.3292577266693115e-01" nType="0">
          <Node pos="l" depth="2" NCoef="0" IVar="5" Cut="1.8810674548149109e-01" cType="1" res="1.0531204938888550e-01" rms="3.9352878928184509e-01" purity="7.9345226287841797e-01" nType="0">
            <Node pos="l" depth="3" NCoef="0" IVar="-1" Cut="0.0000000000000000e+00" cType="1" res="1.9017143175005913e-02" rms="3.2059496641159058e-01" purity="8.8039869070053101e-01" nType="-99"/>
            <Node pos="r" depth="3" NCoef="0" IVar="-1" Cut="0.0000000000000000e+00" cType="1" res="9.5165800303220749e-03" rms="4.2393010854721069e-01" purity="7.4952036142349243e-01" nType="-99"/>
          </Node>
          <Node pos="r" depth="2" NCoef="0" IVar="5" Cut="2.2229549288749695e-01" cType="1" res="3.2692849636077881e-02" rms="4.6781370043754578e-01" purity="6.3028502464294434e-01" nType="0">
            <Node pos="l" depth="3" NCoef="0" IVar="-1" Cut="0.0000000000000000e+00" cType="1" res="7.9713938757777214e-03" rms="4.3954628705978394e-01" purity="7.2705054283142090e-01" nType="-99"/>
            <Node pos="r" depth="3" NCoef="0" IVar="-1" Cut="0.0000000000000000e+00" cType="1" res="-5.9268163749948144e-04" rms="4.9117451906204224e-01" purity="5.3453373908996582e-01" nType="-99"/>
          </Node>
        </Node>
        <Node pos="r" depth="1" NCoef="0" IVar="1" Cut="-1.2303148508071899e+00" cType="0" res="-9.6435500308871269e-03" rms="4.7283491492271423e-01" purity="5.3499948978424072e-01" nType="0">
          <Node pos="l" depth="2" NCoef="0" IVar="1" Cut="8.7440961599349976e-01" cType="1" res="1.1458719149231911e-02" rms="4.6977064013481140e-01" purity="5.5807113647460938e-01" nType="0">
            <Node pos="l" depth="3" NCoef="0" IVar="-1" Cut="0.0000000000000000e+00" cType="1" res="5.2645914256572723e-03" rms="4.6364769339561462e-01" purity="5.9716963768005371e-01" nType="-99"/>
            <Node pos="r" depth="3" NCoef="0" IVar="-1" Cut="0.0000000000000000e+00" cType="1" res="-6.0798088088631630e-03" rms="4.7278213500976562e-01" purity="4.8804000020027161e-01" nType="-99"/>
          </Node>
          <Node pos="r" depth="2" NCoef="0" IVar="3" Cut="2.8993716463446617e-02" cType="0" res="-8.3790756762027740e-02" rms="4.7608754038810730e-01" purity="4.5393258333206177e-01" nType="0">
            <Node pos="l" depth="3" NCoef="0" IVar="-1" Cut="0.0000000000000000e+00" cType="1" res="-5.6175305508077145e-03" rms="4.8230645060539246e-01" purity="5.0505691766738892e-01" nType="-99"/>
            <Node pos="r" depth="3" NCoef="0" IVar="-1" Cut="0.0000000000000000e+00" cType="1" res="-1.6693599522113800e-02" rms="4.5171365141868591e-01" purity="3.2814928889274597e-01" nType="-99"/>
          </Node>
        </Node>
      </Node>
    </BinaryTree>
    <BinaryTree type="DecisionTree" boostWeight="1.0000000000000000e+00" itree="25">
      <Node pos="s" depth="0" NCoef="0" IVar="5" Cut="2.5536745786666870e-01" cType="1" res="4.6477522701025009e-02" rms="4.4244229793548584e-01" purity="6.6666668653488159e-01" nType="0">
        <Node pos="l" depth="1" NCoef="0" IVar="0" Cut="1.7251389026641846e+00" cType="0" res="7.8454859554767609e-02" rms="4.1395667195320129e-01" purity="7.6064997911453247e-01" nType="0">
          <Node pos="l" depth="2" NCoef="0" IVar="5" Cut="1.7490075528621674e-01" cType="1" res="8.6277522146701813e-02" rms="4.0792426466941833e-01" purity="7.7347588539123535e-01" nType="0">
            <Node pos="l" depth="3" NCoef="0" IVar="-1" Cut="0.0000000000000000e+00" cType="1" res="1.7175808548927307e-02" rms="3.4367892146110535e-01" purity="8.5732758045196533e-01" nType="-99"/>
            <Node pos="r" depth="3" NCoef="0" IVar="-1" Cut="0.0000000000000000e+00" cType="1" res="7.8075276687741280e-03" rms="4.2752730846405029e-01" purity="7.4275565147399902e-01" nType="-99"/>
          </Node>
          <Node pos="r" depth="2" NCoef="0" IVar="5" Cut="1.8948581814765930e-01" cType="0" res="-7.0141412317752838e-02" rms="4.9223539233207703e-01" purity="5.1701426506042480e-01" nType="0">
            <Node pos="l" depth="3" NCoef="0" IVar="-1" Cut="0.0000000000000000e+00" cType="1" res="-3.2608651090413332e-03" rms="4.8854282498359680e-01" purity="5.4788732528686523e-01" nType="-99"/>
            <Node pos="r" depth="3" NCoef="0" IVar="-1" Cut="0.0000000000000000e+00" cType="1" res="-2.2015459835529327e-02" rms="4.8077285289764404e-01" purity="4.0796020627021790e-01" nType="-99"/>
          </Node>
        </Node>
        <Node pos="r" depth="1" NCoef="0" IVar="4" Cut="1.3459326326847076e-01" cType="0" res="-2.9538378585129976e-03" rms="4.7900050878524780e-01" purity="5.2138495445251465e-01" nType="0">
          <Node pos="l" depth="2" NCoef="0" IVar="0" Cut="2.3685722351074219e+00" cType="1" res="1.6287302598357201e-02" rms="4.7899451851844788e-01" purity="5.5929720401763916e-01" nType="0">
            <Node pos="l" depth="3" NCoef="0" IVar="-1" Cut="0.0000000000000000e+00" cType="1" res="5.6588989682495594e-03" rms="4.7282272577285767e-01" purity="5.9474706649780273e-01" nType="-99"/>
            <Node pos="r" depth="3" NCoef="0" IVar="-1" Cut="0.0000000000000000e+00" cType="1" res="-2.9407467227429152e-03" rms="4.8224744200706482e-01" purity="5.1809138059616089e-01" nType="-99"/>
          </Node>
          <Node pos="r" depth="2" NCoef="0" IVar="3" Cut="2.6998650282621384e-02" cType="0" res="-8.5754819214344025e-02" rms="4.7012442350387573e-01" purity="3.5823583602905273e-01" nType="0">
            <Node pos="l" depth="3" NCoef="0" IVar="-1" Cut="0.0000000000000000e+00" cType="1" res="-6.5962416119873524e-03" rms="4.8427879810333252e-01" purity="3.9739966392517090e-01" nType="-99"/>
            <Node pos="r" depth="3" NCoef="0" IVar="-1" Cut="0.0000000000000000e+00" cType="1" res="-1.7954550683498383e-02" rms="4.0001842379570007e-01" purity="2.0529800653457642e-01" nType="-99"/>
          </Node>
        </Node>
      </Node>
    </BinaryTree>
    <BinaryTree type="DecisionTree" boostWeight="1.0000000000000000e+00" itree="26">
      <Node pos="s" depth="0" NCoef="0" IVar="3" Cut="5.3247336298227310e-02" cType="0" res="4.4165372848510742e-02" rms="4.4198867678642273e-01" purity="6.6666668653488159e-01" nType="0">
        <Node pos="l" depth="1" NCoef="0" IVar="4" Cut="4.7392630577087402e-01" cType="0" res="6.0616623610258102e-02" rms="4.3430116772651672e-01" purity="7.0435672998428345e-01" nType="0">
          <Node pos="l" depth="2" NCoef="0" IVar="5" Cut="2.2053256630897522e-01" cType="1" res="8.6915947496891022e-02" rms="4.0689286589622498e-01" purity="7.6883465051651001e-01" nType="0">
            <Node pos="l" depth="3" NCoef="0" IVar="-1" Cut="0.0000000000000000e+00" cType="1" res="1.4754542149603367e-02" rms="3.5600700974464417e-01" purity="8.4566038846969604e-01" nType="-99"/>
            <Node pos="r" depth="3" NCoef="0" IVar="-1" Cut="0.0000000000000000e+00" cType="1" res="6.3077127560973167e-03" rms="4.5112723112106323e-01" purity="6.9032007455825806e-01" nType="-99"/>
          </Node>
          <Node pos="r" depth="2" NCoef="0" IVar="2" Cut="-2.1345615386962891e+00" cType="0" res="1.7882933840155602e-02" rms="4.7236701846122742e-01" purity="5.9958678483963013e-01" nType="0">
            <Node pos="l" depth="3" NCoef="0" IVar="-1" Cut="0.0000000000000000e+00" cType="1" res="3.7115307059139013e-03" rms="4.6961593627929688e-01" purity="6.1607480049133301e-01" nType="-99"/>
            <Node pos="r" depth="3" NCoef="0" IVar="-1" Cut="0.0000000000000000e+00" cType="1" res="-6.2395599670708179e-03" rms="4.7703477740287781e-01" purity="5.2574986219406128e-01" nType="-99"/>
          </Node>
        </Node>
        <Node pos="r" depth="1" NCoef="0" IVar="4" Cut="7.4126291275024414e-01" cType="0" res="-4.6884477138519287e-02" rms="4.7206914424896240e-01" purity="4.5807012915611267e-01" nType="0">
          <Node pos="l" depth="2" NCoef="0" IVar="5" Cut="4.0313044190406799e-01" cType="1" res="4.7239121049642563e-03" rms="4.7854763269424438e-01" purity="5.8675426244735718e-01" nType="0">
            <Node pos="l" depth="3" NCoef="0" IVar="-1" Cut="0.0000000000000000e+00" cType="1" res="2.3233203683048487e-03" rms="4.7651186585426331e-01" purity="6.1652278900146484e-01" nType="-99"/>
            <Node pos="r" depth="3" NCoef="0" IVar="-1" Cut="0.0000000000000000e+00" cType="1" res="-1.3123919256031513e-02" rms="4.7299075126647949e-01" purity="3.5121950507164001e-01" nType="-99"/>
          </Node>
          <Node pos="r" depth="2" NCoef="0" IVar="2" Cut="1.4564770460128784e+00" cType="1" res="-8.0997548997402191e-02" rms="4.6460118889808655e-01" purity="3.7301012873649597e-01" nType="0">
            <Node pos="l" depth="3" NCoef="0" IVar="-1" Cut="0.0000000000000000e+00" cType="1" res="-5.0741960294544697e-03" rms="4.7332194447517395e-01" purity="4.1141626238822937e-01" nType="-99"/>
            <Node pos="r" depth="3" NCoef="0" IVar="-1" Cut="0.0000000000000000e+00" cType="1" res="-1.5538080595433712e-02" rms="4.3878501653671265e-01" purity="2.9437705874443054e-01" nType="-99"/>
          </Node>
        </Node>
      </Node>
    </BinaryTree>
    <BinaryTree type="DecisionTree" boostWeight="1.0000000000000000e+00" itree="27">
      <Node pos="s" depth="0" NCoef="0" IVar="3" Cut="3.1588420271873474e-01" cType="0" res="4.1968647390604019e-02" rms="4.4157320261001587e-01" purity="6.6666668653488159e-01" nType="0">
        <Node pos="l" depth="1" NCoef="0" IVar="4" Cut="3.2498374581336975e-01" cType="0" res="7.1224600076675415e-02" rms="4.2132946848869324e-01" purity="7.3758447170257568e-01" nType="0">
          <Node pos="l" depth="2" NCoef="0" IVar="5" Cut="1.8810357153415680e-01" cType="1" res="9.1618999838829041e-02" rms="3.9626273512840271e-01" purity="7.8672701120376587e-01" nType="0">
            <Node pos="l" depth="3" NCoef="0" IVar="-1" Cut="0.0000000000000000e+00" cType="1" res="1.7503665760159492e-02" rms="3.2239419221878052e-01" purity="8.7835419178009033e-01" nType="-99"/>
            <Node pos="r" depth="3" NCoef="0" IVar="-1" Cut="0.0000000000000000e+00" cType="1" res="8.1945359706878662e-03" rms="4.2752087116241455e-01" purity="7.4010014533996582e-01" nType="-99"/>
          </Node>
          <Node pos="r" depth="2" NCoef="0" IVar="0" Cut="2.4421398639678955e+00" cType="1" res="2.1014841273427010e-02" rms="4.7373977303504944e-01" purity="6.1659860610961914e-01" nType="0">
            <Node pos="l" depth="3" NCoef="0" IVar="-1" Cut="0.0000000000000000e+00" cType="1" res="4.6746409498155117e-03" rms="4.6814107894897461e-01" purity="6.4027446508407593e-01" nType="-99"/>
            <Node pos="r" depth="3" NCoef="0" IVar="-1" Cut="0.0000000000000000e+00" cType="1" res="-3.5843404475599527e-03" rms="4.8239770531654358e-01" purity="5.6042581796646118e-01" nType="-99"/>
          </Node>
        </Node>
        <Node pos="r" depth="1" NCoef="0" IVar="4" Cut="9.6550172567367554e-01" cType="0" res="-6.0766665264964104e-03" rms="4.6899911761283875e-01" purity="5.5020254850387573e-01" nType="0">
          <Node pos="l" depth="2" NCoef="0" IVar="1" Cut="1.8186639547348022e+00" cType="1" res="8.3541005849838257e-02" rms="4.2960619926452637e-01" purity="7.3154360055923462e-01" nType="0">
            <Node pos="l" depth="3" NCoef="0" IVar="-1" Cut="0.0000000000000000e+00" cType="1" res="1.1413910426199436e-02" rms="4.2069932818412781e-01" purity="7.5032937526702881e-01" nType="-99"/>
            <Node pos="r" depth="3" NCoef="0" IVar="-1" Cut="0.0000000000000000e+00" cType="1" res="-1.9641171675175428e-03" rms="4.6378600597381592e-01" purity="6.2592589855194092e-01" nType="-99"/>
          </Node>
          <Node pos="r" depth="2" NCoef="0" IVar="1" Cut="-1.6775851249694824e+00" cType="0" res="-2.2827282547950745e-02" rms="4.7412535548210144e-01" purity="5.1630777120590210e-01" nType="0">
            <Node pos="l" depth="3" NCoef="0" IVar="-1" Cut="0.0000000000000000e+00" cType="1" res="-5.9096736367791891e-04" rms="4.7234898805618286e-01" purity="5.3644603490829468e-01" nType="-99"/>
            <Node pos="r" depth="3" NCoef="0" IVar="-1" Cut="0.0000000000000000e+00" cType="1" res="-1.2091625481843948e-02" rms="4.7301119565963745e-01" purity="4.0912094712257385e-01" nType="-99"/>
          </Node>
        </Node>
      </Node>
    </BinaryTree>
    <BinaryTree type="DecisionTree" boostWeight="1.0000000000000000e+00" itree="28">
      <Node pos="s" depth="0" NCoef="0" IVar="5" Cut="3.0219027400016785e-01" cType="1" res="3.9882767945528030e-02" rms="4.4116735458374023e-01" purity="6.6666668653488159e-01" nType="0">
        <Node pos="l" depth="1" NCoef="0" IVar="0" Cut="1.6503958702087402e+00" cType="0" res="5.8762032538652420e-02" rms="4.2800435423851013e-01" purity="7.2487866878509521e-01" nType="0">
          <Node pos="l" depth="2" NCoef="0" IVar="4" Cut="1.5714214742183685e-01" cType="0" res="6.4060539007186890e-02" rms="4.2499354481697083e-01" purity="7.3324084281921387e-01" nType="0">
            <Node pos="l" depth="3" NCoef="0" IVar="-1" Cut="0.0000000000000000e+00" cType="1" res="9.3885418027639389e-03" rms="4.0950682759284973e-01" purity="7.6939481496810913e-01" nType="-99"/>
            <Node pos="r" depth="3" NCoef="0" IVar="-1" Cut="0.0000000000000000e+00" cType="1" res="1.0379464947618544e-04" rms="4.8166933655738831e-01" purity="5.7580679655075073e-01" nType="-99"/>
          </Node>
          <Node pos="r" depth="2" NCoef="0" IVar="0" Cut="1.5913233757019043e+00" cType="0" res="-1.3427756726741791e-01" rms="4.8833113908767700e-01" purity="4.2022117972373962e-01" nType="0">
            <Node pos="l" depth="3" NCoef="0" IVar="-1" Cut="0.0000000000000000e+00" cType="1" res="-7.8846029937267303e-03" rms="4.9478143453598022e-01" purity="4.7678017616271973e-01" nType="-99"/>
            <Node pos="r" depth="3" NCoef="0" IVar="-1" Cut="0.0000000000000000e+00" cType="1" res="-1.9777003675699234e-02" rms="4.7425961494445801e-01" purity="3.6129033565521240e-01" nType="-99"/>
          </Node>
        </Node>
        <Node pos="r" depth="1" NCoef="0" IVar="1" Cut="8.6942571401596069e-01" cType="1" res="-3.1067932024598122e-02" rms="4.8088619112968445e-01" purity="4.4789850711822510e-01" nType="0">
          <Node pos="l" depth="2" NCoef="0" IVar="1" Cut="-7.9571008682250977e-01" cType="0" res="-6.7481352016329765e-03" rms="4.8215612769126892e-01" purity="4.7437870502471924e-01" nType="0">
            <Node pos="l" depth="3" NCoef="0" IVar="-1" Cut="0.0000000000000000e+00" cType="1" res="3.4776784013956785e-03" rms="4.8315969109535217e-01" purity="5.2199411392211914e-01" nType="-99"/>
            <Node pos="r" depth="3" NCoef="0" IVar="-1" Cut="0.0000000000000000e+00" cType="1" res="-6.9782338105142117e-03" rms="4.7413882613182068e-01" purity="4.0296867489814758e-01" nType="-99"/>
          </Node>
          <Node pos="r" depth="2" NCoef="0" IVar="0" Cut="2.5613040924072266e+00" cType="1" res="-9.3970157206058502e-02" rms="4.7180694341659546e-01" purity="3.7940841913223267e-01" nType="0">
            <Node pos="l" depth="3" NCoef="0" IVar="-1" Cut="0.0000000000000000e+00" cType="1" res="-6.6665932536125183e-03" rms="4.7504606842994690e-01" purity="4.0556809306144714e-01" nType="-99"/>
            <Node pos="r" depth="3" NCoef="0" IVar="-1" Cut="0.0000000000000000e+00" cType="1" res="-1.8778858706355095e-02" rms="4.4988381862640381e-01" purity="2.9836830496788025e-01" nType="-99"/>
          </Node>
        </Node>
      </Node>
    </BinaryTree>
    <BinaryTree type="DecisionTree" boostWeight="1.0000000000000000e+00" itree="29">
      <Node pos="s" depth="0" NCoef="0" IVar="3" Cut="1.0794460028409958e-01" cType="0" res="3.7897165864706039e-02" rms="4.4077554345130920e-01" purity="6.6666668653488159e-01" nType="0">
        <Node pos="l" depth="1" NCoef="0" IVar="4" Cut="9.3590319156646729e-01" cType="0" res="5.7272870093584061e-02" rms="4.2882803082466125e-01" purity="7.1792978048324585e-01" nType="0">
          <Node pos="l" depth="2" NCoef="0" IVar="1" Cut="-1.9349297285079956e+00" cType="0" res="1.1062398552894592e-01" rms="3.6338961124420166e-01" purity="8.3483892679214478e-01" nType="0">
            <Node pos="l" depth="3" NCoef="0" IVar="-1" Cut="0.0000000000000000e+00" cType="1" res="1.5333732590079308e-02" rms="3.5441192984580994e-01" purity="8.4516382217407227e-01" nType="-99"/>
            <Node pos="r" depth="3" NCoef="0" IVar="-1" Cut="0.0000000000000000e+00" cType="1" res="5.1554511301219463e-03" rms="4.1374188661575317e-01" purity="7.6319348812103271e-01" nType="-99"/>
          </Node>
          <Node pos="r" depth="2" NCoef="0" IVar="0" Cut="2.4598770141601562e+00" cType="1" res="3.9016176015138626e-02" rms="4.4757819175720215e-01" purity="6.7792361974716187e-01" nType="0">
            <Node pos="l" depth="3" NCoef="0" IVar="-1" Cut="0.0000000000000000e+00" cType="1" res="7.0077581331133842e-03" rms="4.4015157222747803e-01" purity="6.9833624362945557e-01" nType="-99"/>
            <Node pos="r" depth="3" NCoef="0" IVar="-1" Cut="0.0000000000000000e+00" cType="1" res="-9.1647211229428649e-04" rms="4.5842316746711731e-01" purity="6.3720524311065674e-01" nType="-99"/>
          </Node>
        </Node>
        <Node pos="r" depth="1" NCoef="0" IVar="1" Cut="-1.2323937416076660e+00" cType="0" res="-2.5908455252647400e-02" rms="4.7242927551269531e-01" purity="4.9785345792770386e-01" nType="0">
          <Node pos="l" depth="2" NCoef="0" IVar="1" Cut="9.0714091062545776e-01" cType="1" res="-5.4827542044222355e-03" rms="4.7112932801246643e-01" purity="5.2217477560043335e-01" nType="0">
            <Node pos="l" depth="3" NCoef="0" IVar="-1" Cut="0.0000000000000000e+00" cType="1" res="3.2992369960993528e-03" rms="4.6737641096115112e-01" purity="5.6226414442062378e-01" nType="-99"/>
            <Node pos="r" depth="3" NCoef="0" IVar="-1" Cut="0.0000000000000000e+00" cType="1" res="-7.4777193367481232e-03" rms="4.7071000933647156e-01" purity="4.5113170146942139e-01" nType="-99"/>
          </Node>
          <Node pos="r" depth="2" NCoef="0" IVar="0" Cut="2.1291413307189941e+00" cType="1" res="-9.4747796654701233e-02" rms="4.7029593586921692e-01" purity="4.1588494181632996e-01" nType="0">
            <Node pos="l" depth="3" NCoef="0" IVar="-1" Cut="0.0000000000000000e+00" cType="1" res="-4.5852079056203365e-03" rms="4.7834610939025879e-01" purity="4.5402297377586365e-01" nType="-99"/>
            <Node pos="r" depth="3" NCoef="0" IVar="-1" Cut="0.0000000000000000e+00" cType="1" res="-1.4234747737646103e-02" rms="4.6016132831573486e-01" purity="3.8648948073387146e-01" nType="-99"/>
          </Node>
        </Node>
      </Node>
    </BinaryTree>
    <BinaryTree type="DecisionTree" boostWeight="1.0000000000000000e+00" itree="30">
      <Node pos="s" depth="0" NCoef="0" IVar="5" Cut="2.0642574131488800e-01" cType="1" res="3.6011733114719391e-02" rms="4.4039359688758850e-01" purity="6.6666668653488159e-01" nType="0">
        <Node pos="l" depth="1" NCoef="0" IVar="0" Cut="1.7049252986907959e+00" cType="0" res="8.4046192467212677e-02" rms="3.8349667191505432e-01" purity="8.0630499124526978e-01" nType="0">
          <Node pos="l" depth="2" NCoef="0" IVar="4" Cut="4.9797508865594864e-02" cType="0" res="9.1240435838699341e-02" rms="3.7762764096260071e-01" purity="8.1709051132202148e-01" nType="0">
